2371 50
の 1.1609643 2.8821776 -0.5543095 -0.2561126 0.5586935 0.047461856 -2.7964416 0.8565226 -0.9961031 -1.417321 -3.91245 0.95389915 -1.8735963 2.7263482 0.42541137 0.19499202 -0.6925352 -1.473657 0.40079352 2.5742562 0.40037724 -2.7535677 -4.660901 5.304809 -2.372276 -1.978294 -3.8202498 2.2301536 1.6400005 0.75993234 -1.009504 5.170734 -4.4638896 -1.3590693 6.7059255 1.193093 0.8741958 4.3450747 0.6356501 -3.9807212 -0.4040498 -1.9916881 -1.3809174 0.11907453 2.0280128 -2.2914479 0.9030475 0.7206824 -0.4859121 4.685006
に -1.7022483 5.5853825 2.386544 1.0998139 3.3664994 1.203774 2.462977 -0.8650158 -4.3301888 -0.20517057 -7.0264554 1.9730347 -1.6147343 -0.95970076 2.2440395 1.8613651 -2.067487 -3.3315396 -1.5491768 4.2782464 -2.5822232 1.7469096 -3.8583798 0.33469015 -2.7075026 -7.1928363 -2.6482968 2.4823813 1.0948417 -0.5914954 0.010054702 -1.6291847 -5.753132 0.22154412 0.9427699 -2.448149 -0.6697009 4.8644876 3.3550918 -3.5696142 0.06318886 0.24333751 2.6913793 -1.363943 -0.1956327 0.9110258 1.9135319 0.8206699 -0.0070388447 0.15637393
た -7.971246 5.906819 2.8711908 7.466918 7.0728817 1.6674 -0.14803141 -5.8464756 -0.26179564 -2.9268267 0.49550885 5.3400936 2.7775762 -8.079537 -0.37725666 6.794934 -3.7574325 -2.8998885 -7.197354 -0.15047254 -1.2762175 0.2496233 -3.1101716 0.61572737 -4.5839214 -1.004737 -3.0153613 9.87195 -4.451806 0.10788635 -2.5705643 1.2441685 -2.241099 -2.8241432 -7.35311 0.9973127 -2.3114417 8.089466 2.0419595 -1.8057252 2.9519658 2.8251579 5.766005 -0.0016295894 -0.6617842 -1.7197483 1.9376186 2.0197637 5.2700596 -1.3640358
る 2.6325386 1.0028526 -0.81937 12.663451 1.4146792 0.8885117 1.050319 4.9468575 -7.6616716 -4.38833 5.761049 -2.1753566 6.087507 -4.845373 1.4459162 0.7713337 -2.6613433 -3.1921043 -1.7797061 -3.9763324 -0.4774514 5.163423 -6.6014643 -0.41505155 -0.37967148 -5.4736395 -2.854973 5.345846 -9.534035 -0.96903455 -5.2187634 1.3560859 -3.8548143 -0.673354 2.3748808 2.4565656 -7.6435485 5.412635 -3.5011377 -2.245526 8.849499 3.9032922 7.520195 4.2681127 -6.758892 -8.236143 6.1161537 -3.2511063 5.1677275 -3.925413
は 1.685315 3.2482173 0.489787 -1.7167114 -1.6300426 2.8568478 -3.0350773 0.3516567 -0.19613466 -0.6950941 -4.403414 -1.2470852 -0.7609426 0.69789535 1.1827145 1.4131702 0.5138221 -1.7146072 1.7896159 -0.1381099 0.9274771 -4.5422397 -2.7822819 2.2551022 -1.0884742 -1.0989344 -2.1060786 1.8640194 4.682176 0.060882244 -1.228721 4.1962953 -1.2104281 1.4671404 5.468681 1.6802132 1.8363806 2.436764 0.4117177 -5.1707993 -1.9958909 -2.795763 -3.3154447 -0.29080313 2.8471377 1.5824664 1.8600686 0.5105756 -0.84209836 1.3057185
と 3.0977175 1.6344556 2.3101308 4.4285192 2.4594984 0.934263 0.973999 -0.48142645 5.737391 -0.25772366 -3.6430268 -0.13803382 1.5075701 -2.1874876 2.0515628 -2.0382278 -4.797955 -0.6595085 -5.1619143 -3.313091 0.44469714 -3.431655 -7.124766 3.5214028 -2.346004 -2.5648239 1.0214803 0.46818167 -3.0024788 0.07774531 -0.34798533 8.571323 2.0318694 1.6665381 5.5674496 0.032778043 -3.4534554 5.2283087 3.2133753 -2.5501513 3.3451293 -1.0523949 -0.68332577 -2.5421376 -0.5145198 -6.7934113 3.233244 1.378542 3.9704185 3.1374292
を -1.0123297 2.9407604 3.0822127 4.132004 8.877205 -1.4077421 1.1570514 0.044240855 2.8538527 -4.6476536 -4.6947417 3.537784 2.9214566 -2.7707903 0.65025175 2.0516632 -7.078265 -0.01529537 -3.5763612 -1.5561916 2.2059445 -2.0522583 -6.788543 5.812249 -0.32268885 -3.7055433 -3.3001082 1.5312017 0.20213889 -0.9806782 -0.89570016 11.066653 -4.427802 -2.345271 9.135197 -0.21216825 0.1916124 8.917354 4.7986236 2.8261104 -0.050836794 -4.1302505 1.5093399 3.1347268 -2.7052524 -0.5287711 5.805872 6.174993 -0.5903371 1.2648098
し -1.6773909 -4.719629 1.7694987 1.7963332 5.8115554 -7.8689475 4.1045604 0.65378094 3.7105098 -0.935586 1.0261705 8.434782 8.226298 0.34222963 -0.46401885 -6.4921255 3.768142 5.683762 -3.406786 10.151217 -1.9769462 5.566508 1.7576593 3.5858643 0.81646484 -0.662876 -0.4779225 -1.8614044 5.2227454 0.3884209 3.4180431 4.775782 -2.2900743 -2.3412597 6.2473664 -4.5537696 -1.1316158 -0.34660655 3.1589887 1.9226223 -1.2465812 0.92598724 3.1666558 3.4264445 -0.6004291 -3.812538 3.27952 2.5733202 -3.3941898 -1.5255995
で 3.410471 2.7236698 3.573805 1.9733131 -2.7053182 2.0024002 -2.7854009 0.07447613 -2.2456648 -0.5223635 -3.0098898 -2.137877 1.6493478 0.15399085 5.1286917 1.3549379 -3.5606942 -2.4897106 -2.2811854 1.9599146 1.9203906 -0.3407513 -3.3193333 4.8255796 -2.6871758 1.2995961 -3.2924266 2.1990395 1.5649284 1.0977279 -6.8095007 4.1835995 -4.7948103 1.0187155 8.069286 -1.322888 0.426463 6.3033013 0.8104778 -7.072398 3.1786587 -3.1469882 1.4252943 0.23796181 0.87901664 -2.7762794 4.4137354 1.2483895 0.8921382 -0.6384802
て -5.752964 1.8837131 -3.2189593 5.272061 7.9536667 1.7522956 4.1177855 0.5667472 -0.65125185 0.8175364 -4.8657928 3.239253 -2.5802608 -4.356111 2.7209198 6.557089 -7.319972 -2.0007465 -5.937446 -1.9160787 -0.17310137 6.0317936 -3.1020865 1.6329684 -2.407972 -6.3051505 -0.91217846 6.1056466 -2.2966974 -1.0740206 1.5285468 0.54960823 -1.421587 -3.021567 -2.9628413 3.3251393 -3.5207539 9.970951 -0.68302685 0.6012432 7.544787 6.78958 2.8785415 -0.18363674 -1.8000256 1.392764 1.8780005 -1.0388196 4.095734 0.43014887
が 0.466651 0.31668988 1.6676191 2.5728817 3.364666 2.561955 0.39294925 -1.3752605 1.9968591 -2.2051926 -4.066189 0.54817116 2.5264068 -3.8511188 0.82629377 0.14674333 -1.3508592 -2.5397909 -2.7020783 0.45876467 -0.051378857 0.77982587 -5.0292478 4.3580933 -1.9864556 -2.5253685 0.093920425 2.4605274 -0.60655594 1.2684703 0.22401 4.436636 -1.747959 -0.98835284 7.400483 -1.0578347 -0.78524196 6.8900566 3.2917192 -4.8510165 1.8601063 -0.94760495 1.6957883 1.5456548 1.5849427 -0.88434094 4.431106 2.4602425 -0.46677825 -0.20439468
い 1.4203504 -3.726687 2.6590986 9.179927 3.8158956 -0.6077822 0.88723195 -0.79105985 7.9354086 -2.4576092 -0.5310682 2.3925147 5.822854 -2.464953 -2.4947104 -2.636731 1.6791351 -0.9046709 -3.7836273 1.237235 -2.711166 2.3330352 -3.1012216 3.6491728 0.38463876 -4.40116 5.048242 4.246703 -8.263478 -0.9983178 4.037374 5.564619 5.999018 -3.4016004 4.7699265 -2.2318482 -4.154535 4.634854 3.4050782 1.6297464 5.0339603 5.3483763 -1.495438 -1.8627238 2.9627855 -7.422299 -2.2384882 -0.39867434 5.484985 -4.286688
ン 3.5872517 -2.173888 -0.51805073 -3.101153 -4.154438 -6.2221127 -1.7875644 3.539642 2.767675 1.0965154 -8.044416 -1.4906362 -5.6858034 -0.547293 3.1375713 -5.3317766 -4.6590266 1.3359393 0.94776946 -1.9765692 3.9024794 0.91797966 -6.4903603 5.570004 1.2627054 2.2744033 -2.6941776 -3.3687072 -1.1097053 -4.516323 9.270331 4.819479 -2.7411518 4.2250085 -7.136083 5.4855156 8.283542 -3.375582 0.0004793122 -4.0171595 -6.4972935 -2.498781 -3.0111928 7.254403 2.4693673 -3.5940568 -1.2957006 2.9499974 -8.651109 -1.3614879
れ -8.572442 -2.9608486 -0.0047307396 1.1148884 5.7055974 3.8394032 7.068275 3.6332026 2.801099 2.73338 -0.57707334 -2.465716 0.07536508 -9.195142 -6.5161805 -6.118009 1.1563216 0.70885056 1.2261939 -0.9869146 -10.460899 8.576914 -6.610431 -5.1291018 -8.076971 -3.2271807 -7.401807 1.7966107 3.1063075 1.4034092 7.7502275 7.0532103 -11.285185 -2.4904406 0.40479267 -17.21572 -9.802925 4.3678503 8.516875 -8.119008 4.305232 7.499078 -2.7305505 5.6346607 -1.9625686 -4.726343 1.7953372 -1.9506545 0.81797725 -1.2417443
１ -4.5067043 1.907573 8.861118 -9.566041 -1.7006388 9.595944 -0.24146052 -3.538228 -5.474676 4.7100945 -2.6182942 -3.1683333 -5.8390465 4.4003205 1.62136 4.3155675 4.620497 0.32516605 3.6220443 -0.5933899 -8.917711 -5.6639457 11.574669 -8.146284 -3.503151 6.2843137 -0.55905885 2.869376 11.121072 -6.6695585 -3.4983318 -9.903141 -0.4393672 3.127478 -4.2806306 -11.062544 3.620884 -1.1217959 3.8716953 -1.8580395 -11.20351 0.8320312 2.256169 -4.016685 6.0793853 9.931849 -2.9477572 3.5880609 -2.7273428 -9.469595
な -1.3745104 4.4642034 -3.1685953 3.4957411 -0.9726199 1.1012547 1.5467393 -0.9645559 7.2988524 2.4421566 -1.2120396 8.042126 1.1605359 1.4766042 2.0512567 2.3502839 -6.3856483 1.473159 -2.18342 -0.3222121 -3.179317 5.8979883 0.93070424 5.247756 1.7133049 -4.168986 2.0733218 4.6917834 3.516487 9.935598 2.5440502 4.3911996 4.721711 -5.8022556 0.13990916 3.0146968 -5.481154 10.318779 -8.807029 1.7608069 13.806261 5.706733 -1.7578757 5.2195053 -0.39708155 0.55877775 6.6523848 -0.63893175 5.1187263 5.4177117
０ -4.3247814 0.40487722 11.056925 -8.269891 -3.9193587 12.741598 -2.597819 2.2871153 -5.529877 6.464017 -3.3519435 -1.1682398 -6.1143427 3.3886197 0.7977624 3.4921296 2.5174882 -0.3091613 4.5914664 0.39740357 -6.639779 -3.6495304 15.994834 -7.818611 -0.619731 7.552345 1.6728463 2.9442487 11.098461 -3.7528148 -5.0819283 -15.069087 -0.7494636 2.5129538 -1.1617211 -13.275007 0.5958659 -2.5748117 -0.37599093 1.2522628 -11.874122 1.9118481 -1.7075106 -2.4808636 7.833665 3.0309834 -0.7642292 5.725868 -5.298598 -9.914815
ス 2.3090205 -2.2985947 -2.5137186 -2.4250662 -7.051568 -7.5677156 -2.0764346 2.0133126 4.3881917 -3.2323468 -4.8559155 -2.9221263 -2.4026341 -1.4944295 -0.14315514 -5.051848 -7.134945 1.5850322 0.9204592 -0.9819621 3.5164716 -0.5758211 -4.061173 3.9622638 3.574042 -1.401877 -2.514111 -4.8885846 -0.901052 -3.528429 7.262771 2.9364626 -1.0923877 3.6482327 -5.8206096 2.7837033 6.6411314 -5.6632066 -1.2712116 -4.0869293 -3.5551374 -2.590242 -0.082885005 4.424011 3.6452703 -5.128151 -0.70998603 0.786274 -3.638023 -2.8973582
ル 0.06965205 -3.3006766 1.5772874 -0.37902126 -5.3318954 -3.879727 -1.3824316 2.036347 2.050396 -1.9568379 -5.303809 -5.410261 -6.771631 1.2075294 4.7755394 -3.7721658 -5.8654604 1.4122083 1.4200338 -6.402858 1.2302108 -0.06243545 -4.9971724 -0.23519443 3.228288 0.9351245 -3.6184196 -1.2538259 -1.8419428 -4.6003146 7.922615 5.85124 -1.3502908 5.7332997 -8.163099 8.413774 9.755777 -1.9055241 0.80028796 -6.4005246 -6.8143415 -0.48190713 -5.223756 6.082659 1.7819668 -6.6775403 1.0393617 2.3325756 -10.668208 0.47183344
年 -9.304168 17.08337 17.076853 -10.743602 -0.7445523 3.3054361 9.927231 -3.6632352 -0.093489036 3.2455406 -6.621092 -13.370517 12.754243 -10.703749 -6.2740507 3.4916313 11.455378 10.58255 4.0442357 2.2534857 -1.5536773 -8.779176 0.29669893 -5.4331555 -1.9608363 4.2830944 3.0972068 4.284425 3.9776387 -0.4316228 -10.68366 -12.159923 -0.35005808 -0.4716107 -7.731856 -4.640375 3.2131665 -8.084255 5.0660043 1.0805343 -3.6332843 0.13505942 -8.00725 2.6179602 0.25377834 17.226149 10.927393 -1.7299595 -16.426857 -1.4892995
っ 0.7369154 -7.019898 4.329582 8.942465 0.70189464 -2.6482682 -0.3883707 3.5283177 -3.4744458 -2.5973794 11.993988 5.160373 17.16835 0.8945321 -1.1799724 -6.5170836 4.6946125 -1.3349805 -0.7355692 6.8332124 0.9169756 3.930624 -2.8330858 5.4101515 9.580096 -1.8735487 -4.314253 5.63391 0.0768333 -4.7257586 5.625156 -4.1284924 -5.9858513 -0.9280192 9.178634 -5.245346 -4.5283527 -2.608129 5.0086827 -0.88373667 2.0809634 6.8250685 7.854806 -1.1289852 -2.9358037 -10.444892 7.3279576 -1.3565304 -1.8540537 -10.081769
２ -2.7936754 -1.8965095 6.9197793 -7.807825 -1.8664283 10.467272 -1.966821 -3.2861524 -6.723745 2.8989751 -3.7498446 -2.1358461 -7.8719 5.7357616 1.2963732 3.3593826 3.681929 0.019328376 2.8377802 -1.6954585 -11.381232 -4.9925385 12.665154 -6.6374984 -3.0282009 9.057984 -0.3173594 2.3644488 11.106804 -8.324212 -3.9114 -7.298227 -1.4745207 3.5810466 -3.2167947 -12.21571 2.7068071 -0.9968498 2.7168097 -1.1758173 -12.323574 -0.040543143 3.1842194 -5.236249 8.210859 8.066493 -5.523229 4.712091 0.73984593 -9.846912
ら -0.24442807 5.300862 5.8076787 2.78915 3.0504255 7.8590097 -5.749723 -5.2275133 -0.07533087 -5.8723435 -0.1445402 6.512033 10.748483 -7.46382 -1.2192698 -2.855385 3.187227 -0.2162359 2.4691668 4.8243876 1.2345606 3.0497646 -0.51447695 -2.6845043 4.0997653 -1.1673949 -9.291618 7.493723 11.8643055 1.863554 4.275285 -4.1512384 2.8730223 1.5987655 9.369393 3.818659 -4.5983562 5.06645 -4.5482645 -0.2097435 2.086319 1.4428939 1.820024 0.76798195 -0.88463545 6.995806 8.141013 -1.9331856 4.372049 -10.105794
か -3.5722678 1.713197 7.2593617 -0.9044657 -2.5367873 5.060834 1.5693456 -1.6750474 3.3285308 7.592291 -8.788613 -7.17362 -3.1690552 -2.6173034 -8.249243 10.803786 -4.4288363 3.3990724 0.87633353 0.25198838 -3.1934187 3.9770525 -4.7577496 -4.367457 3.2241201 -3.3824184 7.564612 6.826547 -10.198077 0.50099033 5.3640327 -1.2952936 1.9995893 -1.3660476 -4.8718934 -10.492453 -2.6193025 8.07217 7.9564424 -7.639821 2.2958148 7.8009753 -2.1102605 -8.407524 5.0323205 0.96533567 -3.5511189 6.9815173 2.2436996 1.2594966
あ 2.1955519 2.0326824 -8.004157 -0.4792726 0.1296238 6.3722 -0.8490517 -3.1637166 11.735931 12.064 -5.0712 4.4367347 -9.110113 9.83967 -0.5603303 -8.958234 0.7576758 -2.472408 -3.3015854 -2.022984 1.6924732 0.25196895 3.892534 5.7099757 -1.2801667 7.499831 4.555254 2.184195 -1.0587339 5.9692335 1.8513196 10.130556 16.82281 -4.3706975 0.730731 -0.36740577 -6.2146564 -0.6338461 -3.1061976 -1.0749229 9.713666 -0.48831707 -9.336969 -0.40030184 2.36959 -5.415835 -2.822634 2.3381155 3.4596574 7.2381096
さ 0.28656027 -5.565736 6.484509 -3.2479947 11.109383 -3.9922628 4.7864575 4.8066244 1.4000525 -1.1190535 -7.557829 3.8182995 1.0939763 -7.0090456 4.863807 -5.7642837 6.2433076 2.5006793 0.4946045 11.668426 10.135179 3.765043 4.929522 2.9576967 -2.4658332 -2.7215874 4.5148215 6.9453325 7.1470957 0.08413526 -0.7572606 -5.037234 15.134306 -3.1219442 5.998485 9.045175 1.4871026 0.62828356 2.9723616 -0.43231723 -0.6281347 1.0650743 7.3560843 2.859327 2.8681653 4.024239 2.675134 -4.0952125 4.1556134 -14.0475445
ト 5.6155667 -2.1151638 -5.7551484 -2.4303215 -2.0829458 -5.307854 -0.33265322 -2.1887312 4.243762 -4.5939355 -2.0501792 -7.87943 0.90482384 -3.8751717 -1.7542894 -4.7890177 -1.1901315 -1.9880346 2.1404355 -1.2368073 4.9939513 -0.67482847 -3.6949806 -0.05395551 6.329166 4.235907 -7.5087543 -7.3278008 -4.2760386 -4.4204597 4.6201043 1.0177724 -3.2149358 4.4274135 -2.8839417 1.5200678 5.6880407 -2.2917385 -9.148487 -3.0228815 -3.1824248 2.4733021 1.5471346 8.764403 2.394184 -3.0437562 0.7030146 1.3052977 0.064135015 -5.944568
り -4.35544 -0.9191319 2.1755116 8.188119 -1.3618028 0.56005466 2.3229942 9.632354 -13.710033 -8.078645 6.1271534 1.4736263 9.436044 0.35275134 1.3287256 6.536153 1.6983503 -4.496542 -0.17734735 3.7624943 -9.854372 10.870216 -7.0240364 3.6316507 6.7946568 -6.694099 -4.14763 5.8970623 -0.58732104 -5.848061 -0.11776467 -10.830818 -15.516258 -1.3141245 4.6936793 0.66294575 -3.372312 2.8228662 -1.2439096 -3.9857218 2.7655919 7.190918 6.411536 -0.5803349 4.550898 -2.354929 2.0684423 -7.8435297 -6.078999 -11.808785
も 0.22835581 0.30648857 -2.0217385 5.646655 -0.22931203 1.8918524 -0.81215185 0.54700494 1.850701 2.6093647 2.2656925 0.02432815 5.423492 -1.6628524 0.31827423 2.2512224 -2.0273838 -2.2122397 -2.6832395 -0.13443796 0.7189852 1.5720564 -3.1725917 4.1774173 1.5100788 -2.386869 1.6595334 4.0255394 -1.6363275 2.4008858 1.0725594 1.9699059 1.9062076 -1.6442655 3.4038563 -0.10991437 -4.1708465 6.0201035 -1.149906 -2.1775143 6.0811496 5.422031 -0.3658912 0.55126137 2.4290228 -3.2258067 3.354252 -1.0401226 3.1027994 0.7020957
リ 0.283012 2.641645 -2.9661164 1.9342281 -5.105115 -4.3290963 -2.710754 1.7075523 3.1587515 -4.7574115 -3.5424585 -2.6200986 -6.3244767 -2.8226864 4.226255 0.27091956 -3.6278017 -0.25883052 -0.48188263 -3.8567727 0.24317539 -2.8633404 -4.034021 -1.2467883 1.7445487 0.45399702 -3.4438791 -1.3286606 -2.023077 -2.3516989 3.8483007 2.4731176 1.7697567 6.5101414 -13.062121 8.686464 9.5159445 5.613707 -0.34714392 -5.1948824 -6.812705 5.7958183 -3.691779 1.8761355 2.3886545 0.23840545 -2.6446402 4.1014233 -6.7200484 2.7887344
イ 3.0191672 -3.6274798 0.30620787 -3.1894178 -5.0006886 -3.164838 -4.2720613 6.3904943 3.4427483 1.2599727 -8.925571 1.6168627 -3.5171494 1.4530075 0.26864672 -3.7491508 -5.7188745 1.0043541 -1.5637932 1.9196206 4.2145658 -6.053584 -3.3328004 4.2275715 1.6483732 -0.13007109 -4.1622214 -10.379055 -2.8861113 -3.3080492 7.546244 2.9918861 -2.47151 4.2669764 -7.2274566 4.734499 6.814677 -5.091111 -2.9305377 -6.524383 -3.775662 -1.2848443 -2.643436 6.743329 2.1075332 -6.0097165 -1.5049984 3.9802098 -3.223464 0.55834556
こ -0.69806945 -4.821158 -3.8348756 8.584364 0.35546455 2.0768318 2.8345716 0.6264181 -2.2020113 3.237493 2.0782585 2.6693928 6.7755437 0.93560094 -0.86463135 3.2851405 2.856303 0.6819475 -2.135169 0.77406573 0.24918687 3.412899 2.104809 1.0049193 3.0269575 -0.01851764 3.5522058 7.7957563 -4.8040977 1.0751638 4.828001 0.13170975 8.954855 -0.38835263 -4.054348 2.6153085 -3.590343 -1.221431 -3.6306841 -1.7518288 8.657566 6.5142603 6.4105954 0.886036 0.8550866 -6.966972 4.0026917 -1.3034003 6.1471214 -2.234369
ア -0.19678476 -7.6073594 -5.6629086 -3.8865008 -8.997173 -7.654655 -5.203407 5.8043175 -0.24444531 -1.5125567 -2.0099375 -5.915229 3.0036 -2.5556388 -0.29440886 -5.384957 -7.2356296 -2.266626 -0.78604335 0.43799856 4.1063147 -5.24411 -2.8386116 0.8108825 7.684665 -1.2959405 -7.624132 -1.073135 4.8871145 2.1995978 4.961445 0.9244735 3.301424 -0.41817024 -5.2580805 4.914481 6.6627827 -5.2919493 0.33186403 -5.4057956 -5.468349 -4.204225 -6.1312346 2.2479005 -3.2902148 1.7394522 -3.8831503 2.4011633 1.0871251 -3.6512358
す 1.4376676 -4.320388 -5.2374415 2.43195 8.892755 -10.06246 6.3446527 0.04602521 3.1251345 1.4962823 -7.8564143 12.871831 0.6460637 6.638589 0.8605129 -6.009053 3.966553 1.6235924 -5.3319364 13.525704 -3.0947857 10.29227 2.9054122 9.823753 -3.4469464 -0.834756 -0.02353925 1.008699 -0.8874901 2.2109826 1.5732787 14.813942 0.75519323 -6.257601 6.3966265 -0.6812842 -3.7739549 0.44152063 -3.7209203 4.6753535 1.4380935 -2.7360117 -2.637646 7.723706 -1.5012 -12.452545 -1.8501321 2.6146805 1.3450311 2.0205786
ラ -3.296472 2.8187993 -1.0810744 3.327938 -5.900812 -5.957977 -3.0758362 2.5817194 3.5156243 -10.644559 -2.5567408 -3.8220334 -7.0624003 3.3727968 1.858845 2.6814768 -6.999249 2.7331934 0.013336884 -8.63459 0.82297575 -4.9826674 -1.3654842 -3.5825052 5.3581486 -2.51369 -3.3823972 -0.73962194 -6.6044164 -2.9201686 5.3660226 6.23871 -2.242249 5.0650053 -11.962003 10.00701 7.2008033 2.262882 2.4106603 -4.73507 -4.561142 3.1330214 -3.2834413 3.3052528 5.6999474 -5.4761024 1.0582907 0.9835313 -6.1838155 -3.7542078
９ -9.558154 4.0135975 7.883797 -11.532792 -0.85622394 9.323119 -0.08675281 -4.557094 -3.3636944 9.295977 1.0407768 -1.9071028 -2.648511 1.5849448 3.2451952 4.502765 3.3905854 1.1161472 7.974337 0.6116302 -5.717655 -4.361602 14.014739 -9.897753 -2.9138207 1.6953733 -1.4511333 1.3954469 12.838918 -4.119461 -1.0782781 -17.200321 2.220805 3.03778 -5.5798216 -10.336497 7.6921535 -1.6811289 4.5559907 -0.9124286 -9.726491 0.18181711 -0.01678094 -4.6424255 1.9889388 11.553833 1.0657839 3.6664686 -4.342442 -8.519073
ッ -0.82063574 -0.9872425 2.527268 -3.4180272 -9.680469 -3.6464791 -5.846609 5.360267 5.153942 -1.182001 -5.960996 -0.010522282 -7.574255 -0.80538815 3.9023156 -1.7157619 -13.441287 2.8891907 4.010373 -2.344011 1.8281792 7.2941556 -6.760909 9.941169 5.537531 -2.3499284 4.9649267 -2.1801083 -1.5749469 -1.038113 6.2076945 8.869558 -1.9950958 0.18238418 -12.45022 8.031057 7.4164224 -4.2311273 9.094208 3.0264306 -8.798183 -5.7015657 -5.424157 4.4907813 6.843379 -3.7783382 2.432631 2.145278 -5.269521 -7.1377487
ク 6.6898193 -1.5570116 -6.7628126 -5.375933 -1.9812562 -6.8103733 -3.034157 -2.4527183 3.9962175 -2.283705 -1.3680286 -5.15615 3.181185 -2.9720592 -2.5148735 -8.196209 0.14181468 -1.423887 2.414405 2.2867417 6.6752033 1.4891665 -4.6297827 0.15478456 4.765878 4.239732 -7.399564 -9.337733 -4.042263 -3.4200053 6.4265184 1.8070484 -4.47952 6.8067055 -0.30250436 -0.64532065 6.237337 -2.989477 -10.620191 -4.338498 -5.918534 0.10705802 2.7312202 7.641899 1.8385624 -2.3608587 0.99698555 0.98280936 3.5588274 -5.490439
日 -6.5609055 6.7257967 6.9862328 -3.101188 0.035942633 -4.213835 4.768577 2.3662145 6.8930097 -1.7768579 0.39519885 -8.692591 1.6904169 -21.843784 2.0734205 11.031092 6.1447988 0.84488326 8.862678 4.438265 -0.055952772 -8.533427 -4.0152917 -4.196795 -0.83513343 11.346005 8.054345 3.7127178 1.8385342 -4.994457 -13.295637 -14.815196 -4.4601946 5.3879557 7.866602 -0.13580303 4.382787 -20.146307 15.739078 -4.906154 -5.0258455 -4.6375613 -14.081035 -8.990565 8.639134 4.2434735 1.3209162 -2.2754505 3.2594795 1.6958588
よ -2.0253735 1.5993428 7.0838304 -2.8893092 3.436134 4.1880565 -2.3680918 -11.279879 20.98662 -0.13696174 -8.68775 0.87697405 -4.6059694 -4.6356072 0.18299878 1.4511 2.24963 3.7647746 -1.7761183 -8.283924 3.600414 -6.944325 8.051072 3.1140943 -4.8768506 -0.33458892 8.641417 -4.9601192 2.1320517 8.165704 4.8725924 21.022432 23.18633 -2.4324477 8.422301 1.6878461 -0.41418582 2.4949796 3.4095833 1.0458694 3.1635056 -5.1814027 -11.724332 0.18148701 8.260416 2.5877209 1.3735571 7.502914 5.450914 7.5733676
ま 2.1761374 -1.6407601 -1.8831452 -2.7093496 4.591342 4.506194 1.3174396 -5.23132 4.328977 6.9351215 0.09056369 -5.236476 3.7120366 -2.0678866 -2.539236 -2.7391512 5.325153 -3.0682545 -0.6059936 -5.715378 -5.831265 -2.7030933 -1.0648592 0.9047256 9.099019 4.932716 3.5051537 0.8263295 5.018874 4.4346933 8.780296 -5.161195 8.336027 1.8657514 2.896654 -4.679416 -4.59142 2.709583 6.044027 -4.9250946 5.271756 4.0007977 1.2577497 -3.5109243 4.0291586 1.1194451 1.747337 1.0298814 -1.2793301 -1.9491694
ド 5.409701 -3.5257537 -6.163631 -3.6577103 -3.742562 -5.1230845 1.8814987 -2.4170985 -0.98130304 -5.194645 -1.8408393 -6.8797793 3.7238438 -2.827356 -5.454744 -7.147677 -1.4455222 0.59794897 -3.6688156 0.49248025 4.757427 -5.971191 -0.11644706 -3.4747696 5.729655 4.3843603 -7.8989925 -9.064995 -1.7662936 -2.7449625 5.9368424 -0.31757253 -3.203653 3.5889454 -1.5692517 -0.658214 8.679898 -5.6193333 -8.248876 -6.1982536 -4.5618467 1.3750827 1.5759932 4.574975 4.8375626 -5.507663 -3.5329056 0.7945728 -2.103501 -6.136528
シ 8.484476 0.48990202 4.37818 11.550096 -5.406723 -4.443635 -3.9677026 -3.6973574 1.0942867 1.1920334 -0.5682491 6.4684978 -3.3830495 -15.471513 12.3885355 -4.2548113 12.452055 2.4502409 -1.219871 -3.014357 5.775684 -1.1037194 -2.27653 1.5079106 -5.9985933 8.669942 -10.535047 -18.26334 -5.055621 -6.166627 5.503041 -2.4566572 -2.3482664 13.125739 -9.747088 6.986879 0.10303472 6.814771 -14.057718 -4.7889857 -14.759364 -0.7213208 0.6316026 8.67957 14.42854 -1.4448799 1.6766963 0.25583893 -3.662207 6.0147996
う 1.6294913 -2.3908808 -3.9251728 11.573792 4.1411653 0.96622556 2.5403047 11.481071 -7.5108624 3.339499 2.39487 6.4194546 10.796619 5.2124343 -1.5261221 4.8780556 -1.4930307 -4.372584 1.3703932 1.8738868 -2.8887813 0.18258066 -8.417226 4.3638425 8.15949 -4.215366 -6.270397 8.736844 -5.7326665 -5.2428274 1.7541485 -7.724791 -11.103882 -1.5940715 -1.8035464 3.1796076 -2.1212256 7.6708927 -0.1469228 3.908088 6.8642073 11.77399 8.57335 1.981598 -9.707989 -14.448948 5.7203918 -3.008514 7.309591 -9.175941
３ -1.6355357 -2.9261732 4.9427075 -6.5191584 -2.1655211 10.229356 -1.7363821 -3.3043485 -5.3286695 3.6999657 -1.3556359 -1.8211534 -9.066699 7.827965 2.3448758 5.011661 3.9418573 -2.021924 0.8623345 -0.20765536 -9.336085 -3.7299294 11.282914 -7.0911617 -1.8655154 7.845802 -2.8691764 2.835687 10.872455 -7.544376 -4.2699537 -4.818996 -1.1782529 1.6410469 -2.2745638 -10.455428 1.0629809 -0.48385733 2.7733037 -3.0087857 -11.709874 0.39847335 3.816352 -4.173572 7.73501 5.1899457 -7.4324403 4.55132 0.0058787074 -8.637438
大 -6.079517 1.0653296 6.41693 -7.2520247 -2.2240486 -7.7242627 -14.792443 1.3795408 -10.65861 9.522542 5.346606 -8.148959 5.799585 5.3199553 1.1849328 12.687634 -1.0892102 1.1126208 -3.054146 9.502727 12.626248 0.88994145 2.3996596 -1.3583997 -4.060866 -4.138814 3.6791885 -11.295346 -1.4790524 -6.5419703 -9.084752 4.6757646 2.298837 7.3786764 10.102121 -0.83912176 3.4224508 7.4566956 2.7023787 -3.6694076 -3.1326137 -10.683252 5.4437857 -10.400566 -7.2416353 -0.58871067 5.1592846 3.0100493 -2.9450135 5.3420444
月 -5.2378354 4.876873 16.279465 -21.723972 -0.85799533 6.578029 7.1409016 -1.2043382 -13.14749 7.5744214 -3.7767687 -6.247745 2.6348681 1.9555708 -1.095576 0.69760793 9.338714 16.13183 -6.207101 -6.4487333 -8.8455105 -0.40841272 10.290504 1.7895862 -4.6268153 -0.6588712 1.7996658 -5.27747 16.54773 7.9511075 2.2964652 -10.598543 0.052817818 8.0744505 -21.923717 -4.6201572 5.454534 -1.8829839 -12.907565 5.1665854 9.445845 -5.0846796 7.060661 4.8161216 -11.606193 21.59263 11.130064 6.77751 -13.659344 -5.9365907
タ 3.0628529 0.12461469 -7.617963 2.083979 -5.800859 -8.509205 -2.0260732 -1.5310696 4.6147275 -7.729787 0.7814309 -6.294977 -3.3841472 -3.3711123 -1.201591 -3.200585 -4.445712 -2.3015602 0.17884482 -3.2098217 3.0259638 -1.448598 0.4446772 -1.901875 4.3102508 2.573365 -4.8554444 -2.1181407 -5.2753816 -2.345826 4.277007 0.4684965 -0.74011177 3.2635148 -3.719327 2.9301913 5.5967 -0.17216755 -5.5420303 -3.0616643 -3.3943963 1.0835861 0.014124599 9.605511 2.57715 -3.515176 0.25454962 -0.6757507 0.820065 -6.2605658
め 11.2486 -15.743302 -9.473454 3.9752417 7.066489 -2.278657 10.861936 1.8460237 5.7369156 0.8506982 1.8719376 -6.41791 5.1485586 0.8102921 3.072151 -9.483814 2.982852 4.3412604 1.4605019 -5.4808803 -4.6191254 4.4082694 -1.7112396 -0.8568771 10.054471 -2.1092114 12.458655 -8.303406 0.9798606 -2.0971944 12.693865 -0.929647 5.850017 -1.5835489 16.040365 -5.1511655 0.01923727 -4.749342 8.672443 3.4560554 1.6852407 6.10381 9.406889 -2.5029507 1.3382721 8.395079 11.9597025 9.630775 -10.712176 6.240668
フ 5.864244 -0.2034071 -0.84004784 -4.6629553 -6.579885 2.0907652 -8.769545 -8.529536 -8.156499 19.261684 4.224567 5.1476264 6.8826747 -8.06054 -5.197639 -14.969618 0.281533 -2.837156 -4.8660917 7.8156796 9.02616 8.658338 -0.65022725 10.091857 -2.272131 6.3736653 -8.529765 -8.382861 -0.5230625 -1.8998823 13.802066 2.4629824 1.8416743 7.4455338 1.8875198 6.6826563 17.764687 -17.860146 -7.5822234 -0.4235302 -19.579527 15.690594 -8.514461 15.341195 -9.81396 5.7582936 -4.325287 4.0195556 11.633399 0.548521
ロ -3.0554073 1.4135948 -2.2095215 -1.9030577 -3.244879 -6.518577 -4.53546 2.4582942 3.572792 -6.4507914 -2.9545856 -4.11825 -6.230284 4.4919534 4.137723 0.34177947 -9.000512 0.49047545 5.6045594 -4.7465243 0.40727 1.8545755 -3.5244746 -1.62013 6.5627046 0.3884817 0.10789704 0.44695774 -4.862056 -0.03823419 5.59992 6.3959303 -1.6542842 6.80418 -11.256813 8.1737585 9.267379 1.7074784 0.20589781 -2.9989305 -6.758089 -0.18842773 -2.135557 3.5455115 2.1533103 -5.0036845 4.566943 3.0535655 -4.563133 -1.1125753
く 4.225944 -1.8238539 1.992562 14.78843 1.2741845 3.209453 -0.64408904 -5.525271 -0.08412458 -7.0703692 -7.4786143 -5.2121377 8.863814 0.030078731 -8.714314 4.440611 3.102635 -0.89769685 0.96146554 1.684111 -4.926004 3.6491716 -6.3314967 7.9456654 5.5386267 -5.540011 2.9010053 12.223924 -17.963848 0.026381046 3.9776268 -0.55067354 2.3009632 -5.7724648 -0.710036 1.5109447 -0.121585995 5.976365 5.5102043 3.6003287 4.268096 4.456171 -4.277985 -3.3790474 7.287357 -3.2558346 -3.4556482 -0.8219103 -1.715892 2.0956624
レ -1.24886 -0.4267442 -2.0518217 -0.35125938 -6.0323496 -7.697497 -4.1300707 -0.32919392 5.6111813 -7.1899614 -3.1199017 -4.602762 -8.471925 1.3878784 2.0064647 1.4892709 -10.2729225 3.1603267 1.6168202 -7.143157 0.24562941 0.38187304 -3.0991445 -1.0889028 2.170298 4.0133066 -1.0616357 2.24989 -5.870354 -1.6598372 4.510213 1.1420801 -2.941045 9.113711 -11.081482 6.54229 6.082787 0.0077497703 0.35728326 -1.320517 -2.6116946 0.96048516 -0.9648213 5.881976 5.4869733 -3.284516 1.2966202 1.3809868 -3.1772697 -1.847552
４ -1.42644 -2.3731966 5.314662 -7.43717 -2.5229747 9.8613825 -1.0718005 -3.2967198 -4.7788258 3.9242544 -1.368482 -2.0235934 -8.578568 6.062091 1.99026 6.1711745 3.662763 -2.1940715 2.6984212 -0.9785705 -8.383233 -3.7478456 12.30925 -8.130955 -2.0640352 6.8032 -3.2134182 2.7675843 11.959759 -7.2343698 -3.8894289 -6.918412 -1.110594 1.6554949 -2.455251 -10.391887 2.4837182 -1.0622077 3.6651032 -2.7976122 -11.601048 0.41804975 2.8279862 -4.437097 6.824441 6.028816 -6.5220037 4.7996697 -0.4977074 -8.917329
５ -1.8879995 -2.7992392 7.138752 -7.367177 -2.9474957 10.747774 -1.7876595 -2.7684534 -5.351623 4.2592874 -2.0225344 -1.4368302 -8.718489 6.1988683 1.3276333 6.164876 3.7611675 -2.5068047 2.9615457 -0.49887365 -8.010712 -3.033975 13.619371 -8.7297945 -1.4126292 6.808086 -2.5749729 3.2951756 10.568562 -6.766698 -3.3474731 -7.587402 -0.7874841 0.7559326 -2.0217314 -11.269925 1.8092387 -0.544438 1.8997129 -2.559058 -11.289956 0.26299042 2.1644766 -3.431714 6.6384344 5.032709 -5.48222 5.004532 -2.5010257 -8.931511
ジ 9.524476 -4.127914 6.366273 9.5277815 -5.2748637 -3.6780064 -5.3813486 -4.4540577 2.0286798 0.7984394 5.47316 6.5500045 -2.2018116 -17.691082 12.774049 -5.9699955 13.608988 0.5810268 0.23216961 -4.518204 5.357382 0.47101223 -3.277848 0.35035026 -5.5690446 7.228674 -14.89322 -19.932808 -4.932472 -6.0423207 8.080387 -6.3653283 -4.1399293 17.018099 -8.664114 7.9147916 -0.29434663 6.0118985 -16.63121 -3.6775994 -14.990933 3.3397827 -3.100073 6.927992 9.643825 -1.9422724 4.3513713 2.5387108 -1.5406141 9.716919
８ -4.98086 0.85604537 6.514071 -9.984463 -1.9822004 9.615084 -1.2155638 -4.2043076 -4.5984507 6.632877 -0.620503 -1.1603329 -5.9032097 3.5650969 2.3053422 4.749559 3.601148 0.12776765 4.8243337 -0.69981617 -6.882711 -4.4004235 13.887803 -9.649958 -2.0391483 4.059837 -2.6196737 2.3147306 11.274985 -5.7667627 -2.1596148 -10.774564 0.7926492 2.0222917 -4.010502 -10.088292 5.671759 -0.71649045 3.2925732 -3.3123598 -11.4079275 0.20557179 1.1033313 -4.393755 4.176775 8.609064 -2.2690175 4.767115 -3.0222952 -9.704364
人 1.44892 5.6815357 1.2638794 -2.11379 -4.085832 3.6681523 1.6890334 6.4346466 6.409265 3.9893577 -1.641386 -3.62733 6.896051 -0.63505113 -12.930818 -2.6765954 3.1357362 0.30473834 -6.16603 5.733041 -2.4018795 -8.494614 -3.2060487 1.5539724 0.8690306 4.898937 0.47229034 5.6352572 3.8337016 0.77352107 -5.8711243 -10.051084 0.34562674 -8.503939 4.024319 0.5749577 3.238563 -3.2562482 -10.019507 0.5543928 5.9565997 5.7310596 -4.730592 -6.907924 -4.8482375 -7.946272 14.212035 4.0593715 -9.674985 15.735134
本 -7.1350074 -4.096938 -4.457926 -4.348948 -2.1759167 1.8838893 -6.668136 4.870307 -21.083187 0.6755747 3.0002983 -0.6595718 -10.723387 22.496048 -3.6765344 -3.2494533 1.0027963 6.5660334 -8.27729 -10.947802 -6.164017 -0.67164844 8.748177 9.727092 -7.191941 -3.9997194 -2.3443854 -3.9507718 5.034008 12.359212 3.047217 1.0206105 -1.6893219 0.36626312 -10.775918 3.9447837 -1.8467697 14.145355 -15.605342 7.2945175 9.928073 0.9513839 7.6803193 -4.5819306 -9.623426 20.050976 -2.893171 2.817226 -1.0899585 -0.6846946
そ -1.3874882 3.4943922 4.5947723 4.074572 -0.28218657 4.456791 -5.8915787 -5.2832355 -1.4424939 -6.228674 1.0169486 0.6810591 1.6535165 0.0018668864 -4.304129 0.27961197 4.3055987 -0.81575197 -3.7408295 5.254212 -1.4727305 1.6638933 0.80173755 -0.17251246 2.0117145 -5.9733353 -2.6110563 12.95362 -2.2934878 6.0127797 2.8733373 -6.970593 6.62019 -0.7561663 -10.902961 8.101579 -2.8367906 -2.8306367 -1.5692567 -2.4096656 1.4658718 5.8799157 5.5344844 -5.550339 7.766464 -5.5545774 1.7591724 -7.024276 8.956321 6.0714574
カ 2.1051426 -6.4019957 -8.731584 -6.774826 0.08152626 -7.6141424 -3.2522793 8.727852 2.647692 -3.1002505 -3.968669 -5.247514 4.0172033 -1.2884636 -0.35530326 -3.0702634 -3.4480946 -5.04017 1.1856432 3.5913932 5.9556346 -5.0077915 -2.2563667 -5.3346677 8.836281 5.8434997 -11.322194 -6.4458666 1.8951964 -0.8927594 1.8297396 -1.2300674 0.34088147 0.95914507 -4.468329 1.3687038 5.482055 2.4146042 -9.456313 -8.43373 -2.7155104 -0.03802403 -3.8893557 -0.64657724 -3.3011155 3.398766 -3.7507303 5.0408125 -0.008041937 1.1536846
ａ 13.566008 -5.393687 0.6022609 -8.271509 3.9989045 -0.52854514 1.0699344 4.717755 -5.4434385 -0.9815467 -3.1523259 -0.9805272 2.5868316 3.580615 7.3003225 3.7033062 -7.8355894 6.86999 -2.8412373 -4.373643 3.2250984 -0.9455184 16.319086 -3.8957684 -6.1890235 6.210433 -2.1341524 -4.314657 -0.83719885 1.8088827 -4.9661336 1.2447773 -4.350926 7.5038953 -0.51080596 2.4318228 1.0087321 1.3679918 2.157609 4.16841 -10.131535 2.0488703 -7.7386904 2.0614843 3.1690733 -4.7088156 -5.56715 -4.2052736 4.860047 -6.1090536
き -5.569227 0.5251043 -4.013613 10.099738 7.797149 0.9034668 8.650122 -4.3530602 6.949442 -2.0541892 -1.0369235 7.620175 0.8533762 3.2844663 -6.010949 -1.9977391 4.695278 -4.342202 -0.972372 -2.5184002 -6.877315 6.6916575 -4.652621 9.555762 12.8036375 1.156612 -1.3351451 10.76609 -6.0167537 6.746777 13.291159 3.780087 -1.2641009 -6.2598352 -2.6703255 -4.923114 -8.856029 -0.93471766 1.570105 10.122272 0.83007276 7.3353944 -10.069439 3.5496798 8.170806 -4.4675426 -8.663741 0.5133954 5.708094 -0.56556886
学 2.1932597 21.07496 -4.0316625 -2.4728413 5.7253747 -0.2680735 1.4295298 -8.003602 5.7480907 2.935637 7.628964 -3.0391977 6.0999427 3.9214182 12.285445 -13.003885 5.04882 3.5642962 13.815148 -13.667461 -7.10863 0.67619526 0.9423717 2.225915 10.317336 -9.320478 -6.5042076 -7.2614408 -1.9354697 -5.126012 5.516038 -7.331544 7.0443225 -13.353871 2.94667 -3.7677333 2.0797932 0.25857627 -12.391405 14.4567175 -0.9237109 -6.8732224 -13.42294 -18.577593 -5.1641326 13.607627 -18.25098 -12.925425 -7.5761943 7.601065
６ -3.7202606 -1.1539143 5.8087125 -8.341491 -2.2412992 9.787557 -1.2490933 -3.2963743 -4.6638227 5.086603 -0.90932554 -1.0704544 -7.391881 5.015162 1.9138063 5.2507067 3.4357166 -0.76945597 3.3991947 -0.91708004 -7.632605 -3.922705 13.301974 -8.730166 -1.9206917 5.6434455 -2.7726545 2.3353665 11.201077 -6.324092 -3.0076087 -8.47291 -0.2863564 1.7161131 -3.0263126 -10.238106 3.9057329 -0.67406666 2.7424088 -3.1469302 -11.741171 0.42392504 2.12802 -3.8289716 5.6631827 6.5967493 -4.420676 5.1900997 -1.9025524 -9.645497
け -13.522929 -17.894428 -1.9445479 -16.553041 6.0644407 -0.60472643 -7.45161 2.2723966 7.845382 -14.244946 8.175215 6.9849515 8.881706 -1.9660928 -0.17514315 2.444052 16.30535 -12.439059 -11.137089 3.3744247 -2.9001856 14.802714 1.5882208 13.575783 6.1602116 -2.503904 19.47399 9.537531 8.580363 -25.356611 15.47818 0.91318554 3.9243758 -1.5938014 1.0054687 2.8466702 6.6445856 6.2975 -2.0546544 8.580455 1.1510565 6.0145493 -7.280532 -2.510965 16.331867 -12.045284 -7.4902844 -3.4884756 -2.7370334 -0.6321153
国 -5.552223 -5.746278 6.8552027 3.418598 -12.340568 -5.5904245 -5.1416163 -10.905303 -12.139919 -2.6450865 -5.242983 -0.62873083 -5.302972 -12.017915 11.099264 -3.265042 6.348454 -1.2974515 -3.2547414 7.887538 -0.70731926 -3.6912017 4.242111 0.805563 -1.7428435 -17.047974 -0.8312149 2.2563267 7.3967338 7.579763 -6.671234 -5.1788397 -8.428377 -12.903651 1.4094133 8.409852 10.295194 -13.793893 2.5545936 0.4615074 7.0057726 2.031482 -4.6168747 -17.628748 -16.100777 -4.289171 -5.591866 7.5915546 -2.696609 7.4505167
７ -4.732982 -0.11833735 5.8750315 -9.067597 -2.2982104 9.56208 -1.2000704 -3.2950137 -4.8107944 5.3827047 -0.9350053 -0.66349846 -6.6998234 4.3583384 1.9018028 4.9726577 3.657798 -0.112877145 4.162512 -0.6095578 -7.8232713 -4.07867 13.4754 -9.070735 -1.9027227 4.7812347 -2.5171514 2.5391061 10.867966 -6.398412 -2.2629373 -9.385101 0.25374535 1.5997262 -3.3529255 -10.418066 4.90418 -0.75033045 3.190428 -3.4354558 -11.674472 0.36151776 1.9929287 -4.5228453 4.7248087 7.7904935 -3.6659896 4.883328 -2.0947595 -9.576551
ｅ 10.89562 -8.139224 1.4617704 -5.9634013 3.4955208 -2.0320919 1.0934023 5.764355 -4.9902263 -0.8428919 -4.112323 -0.26197803 2.3892853 1.1329142 4.903288 2.9307826 -6.162221 8.242418 -3.5726302 -3.1899326 0.20338991 -4.6042447 13.649923 -3.5582535 -8.408824 7.5032315 -0.1386455 -4.277376 -2.4826021 1.9478848 -1.2271597 -1.0426092 -5.649159 7.158917 2.4472997 2.522617 0.14914823 4.061141 3.65503 5.3536267 -8.378026 0.7332626 -9.599405 0.124699086 -0.5563151 -4.2146764 -3.9656026 -5.794421 6.4618382 -4.886178
ィ 0.5970094 -2.2004263 -9.885227 -7.2665787 -10.354869 -20.75366 8.405456 6.1629434 19.549282 -12.111414 -13.149768 1.6153919 -5.857282 14.766398 5.557364 -1.8987284 -6.797891 10.701037 6.3942018 -1.4746621 1.0489638 -9.508629 0.4433103 -15.9833765 0.49649104 -3.292064 -5.2646065 -1.1457862 -3.440768 -9.124469 8.733217 -8.716528 -8.735816 5.5847583 -13.351037 -11.247189 -1.2852087 15.19952 -2.4618912 -7.0014105 12.799676 -12.493264 2.7874992 5.3402967 11.273008 -17.843748 6.667197 0.9061974 -19.075039 9.752239
マ 4.134454 1.2272199 -8.911816 -1.7794757 -11.729571 -6.3703947 -0.6600912 -0.32944307 3.4969254 -0.64912236 -3.4917576 -0.1790387 -1.5516624 -2.534168 -4.9888325 -4.4215937 -2.8736477 1.3024436 -0.5884019 3.6896136 2.5375848 -4.1497846 -1.3629066 -2.2193933 3.0669742 2.9406714 -1.6865516 -3.473473 -1.7947466 -0.5659488 7.776757 0.49363643 0.42455384 2.2618058 -7.716284 0.83117515 8.87245 -4.357396 -4.5976276 -5.5522037 -3.8822024 -0.63406235 -0.62698495 6.548897 2.2745297 -4.267611 -2.1626801 0.097047016 -0.73571336 -3.6811712
ム 5.9322166 -3.6373851 -8.791001 -4.175836 -4.244556 -10.870489 4.498414 1.8078142 2.7012374 3.6634033 -8.857041 -5.602774 -3.463546 3.023894 1.3867533 -5.839399 -9.207623 2.7224336 -2.7712915 4.654152 1.1869414 -0.064096466 -4.087672 4.1529284 -1.6353822 7.429172 3.1050258 2.610214 0.45596543 -0.7423068 4.4525094 6.6340203 0.7684677 -0.5967838 -7.0624714 2.0975423 11.049652 -4.6916485 1.5954542 -3.553661 1.3998882 -0.102652 1.4442302 12.277636 2.0501473 -4.0043497 -4.4316163 -2.2145529 -7.6687975 -3.524236
中 -6.28504 6.176533 -7.706393 -0.625784 -2.3833883 -6.2871633 2.6824093 15.606103 -1.3851196 0.7948637 9.413218 -1.6112715 7.8763847 15.705082 -10.423383 4.9759603 5.1460505 0.280512 5.170288 -3.5710862 2.0170968 2.4146447 -2.5584455 -2.880986 2.0625536 7.805144 0.87538326 -9.4607 -0.055861227 3.3355074 2.9415088 6.003255 11.259078 11.288208 9.890764 -8.389552 -5.113626 4.5372195 7.9761305 -5.4616027 0.8721982 -3.4543452 -2.8544393 -4.844317 -4.4325976 7.198374 -8.278268 5.4570026 -6.455163 4.1855373
テ -1.7838147 -6.5047016 -4.33856 0.07616658 -4.0942802 0.6710795 -10.355991 -8.034793 -9.701338 3.5124307 6.0745034 -8.34183 4.286497 -15.290179 -5.2399106 -2.5560992 -2.2286766 -1.9015005 -2.1835585 -11.027444 2.5479205 3.9554815 -9.509092 12.431969 -0.9278897 3.319288 -9.109644 0.89806694 -8.675003 1.3043694 3.7754867 5.1107645 2.1724963 7.8788238 1.5165012 15.61303 10.640973 -12.517689 -2.6307795 -0.30323797 -12.432836 9.037001 -4.5243516 13.045658 -7.3869634 13.886622 -7.064992 2.9452815 15.921675 -13.231966
プ 11.919488 2.1209273 -7.906015 -1.6807109 -5.015329 -6.8782964 -0.93278503 -4.2972217 2.9850104 0.1536451 -3.7229679 1.1245418 2.275109 -9.163216 -1.3814101 -12.288699 -0.41663188 -0.56153876 -1.960084 3.0749595 5.6841087 3.9204047 -2.60734 2.0113673 1.1039398 7.880598 -2.1591654 -14.570697 -0.34605086 -1.476099 -3.051075 -2.4862528 -5.974011 5.6233153 -4.032342 -4.437105 2.8217459 -1.7195475 -9.226615 -0.92818046 -3.6295533 1.2069094 4.2096877 10.500332 11.961376 -0.8177295 -5.086024 0.9377692 4.5648375 -4.649759
行 -11.260832 9.122905 4.1087475 1.7018207 -5.714005 -8.49774 9.394265 -1.5065191 1.1586 -2.7793412 -0.31601548 -0.8136736 -7.0545774 -10.444449 4.252315 6.839448 -4.653674 6.3594255 -13.954559 -3.9201329 -11.835677 15.205557 5.5481877 5.416938 -14.050583 -0.5449602 14.641899 -11.362724 2.4468644 -1.1003487 8.458951 2.3205497 3.8011792 -4.155639 4.5951715 -0.07537686 -13.030685 -8.367772 0.90230185 -4.5501356 7.175146 3.0363252 7.138583 -2.745174 5.7585006 1.7021931 3.8471556 -1.4873344 2.0342257 7.498752
お 3.8685102 6.1996536 10.697163 5.7879953 0.18948394 4.362366 -6.552166 -6.7171726 9.024914 4.4332485 -3.6323748 -3.741849 0.3107673 -0.4468784 -4.656203 1.9014271 -3.0541816 9.156334 10.161312 -3.4163594 6.409102 -11.244642 1.6273161 -5.421274 -0.7876165 0.8008535 -8.232701 -3.7132666 -5.6845503 15.08883 0.45640776 9.991816 10.115557 -2.7626612 6.9105353 -1.2069238 -5.142046 1.5326816 5.7377257 1.1799434 5.202034 0.5782208 -4.4406867 0.63493323 -5.201809 4.559303 1.7632277 9.200365 8.24817 0.028536024
や 1.0195547 1.0515372 -0.54601884 1.856754 2.3172727 -5.891071 -7.662405 2.8485298 2.7207289 -3.9647825 -3.8601997 3.2346237 -1.3640714 -1.6380479 -4.892995 0.89675474 -6.4690714 -1.0680037 3.9884853 -2.032973 2.3689148 0.16612315 -3.7980783 8.024716 0.3169353 -2.7354474 -0.85255367 -2.8404117 -4.81508 3.9930148 4.7225437 5.818683 -1.9357378 -3.543571 9.124627 5.032905 0.9078841 7.5330524 -2.9680579 -0.7292894 2.5527186 -4.1978493 -2.1076944 2.221724 -2.1612756 -1.8778981 1.5070812 -0.49092072 0.49756292 6.036868
グ 3.3767722 -6.7429633 -7.3410563 -5.53264 -4.2289376 -6.384069 -3.5130706 -4.232435 -0.6072583 -2.1513598 4.365227 -11.772152 6.8623652 1.0263978 -0.05821259 -6.6495214 -10.535025 -1.4816158 -3.6832721 4.072047 4.222089 -5.5598087 -0.39887163 -0.4399318 10.05024 6.649038 -5.592994 -4.9847755 2.0809858 -0.5946943 -1.5304391 1.4831657 0.9808333 2.9437327 -2.612695 0.20849092 6.9928746 -7.3359003 -5.6119494 -0.6439366 -5.6587358 -3.607387 3.1027 9.030715 3.5561125 1.6664599 -2.5202088 -1.900098 8.946815 -12.5722275
一 3.4406414 -2.780159 -16.31487 12.488406 -7.273727 1.6649088 -4.1103516 3.6380231 -5.1612377 -1.2567048 -0.9906026 4.392191 -5.5167036 6.4185867 -3.2821507 5.024661 11.631754 1.7851763 -4.8511505 1.4087098 -3.8906326 -4.752551 -2.8051574 2.3293648 -4.4751134 0.3792045 -0.5977675 -7.218486 -7.183811 -4.4463973 -5.4854617 13.16676 8.170446 -11.369015 6.3199377 0.34727892 -6.286928 4.3107915 2.2745876 -4.4869356 -1.7308223 -4.167839 18.541378 -14.767004 10.662365 4.333482 -17.433506 -9.810901 7.3965735 -1.8778915
バ 4.41825 -1.160539 -8.011043 0.887872 -8.502299 -3.7238545 -4.4617457 -1.8195475 0.6917311 -0.834464 -0.439945 0.17620003 -1.20675 -4.8143387 -2.7933285 -5.152576 -2.5300798 -4.1641 -2.8855073 -0.6775164 4.7563114 -4.416588 -0.13805456 -4.3885202 5.2280126 6.9101005 -9.8077345 -8.068103 -2.6054525 -0.15668632 1.9015731 -3.7813027 -0.7902863 4.3939333 -7.928952 4.5267324 3.6126597 -1.6457303 -3.9655826 -4.8744297 -3.2193758 3.3371687 -1.1992329 6.6830807 3.122487 -2.2087739 -2.1046379 0.2340948 2.0102456 -4.9836287
出 4.0079727 9.452618 8.258335 -17.870342 -3.3036997 2.0925946 0.27494216 -3.3706162 -8.79802 -9.35838 16.16415 -1.215034 -11.476358 -9.9101515 -3.6615818 -10.637934 -8.797056 6.6114187 2.047586 -11.901637 9.298881 -10.159137 -4.1662354 6.793004 6.816665 19.292633 9.758707 0.38355887 1.3761063 -3.217937 3.3545105 2.2301826 0.46102 -14.211177 0.45728827 2.22439 -13.345713 11.178779 6.31333 -1.9512913 1.9938068 5.2573442 12.643751 -1.5168929 -1.0571325 -1.8839141 0.5161879 3.9800847 8.6399555 11.617947
デ -2.2431426 -5.1710043 -3.0862966 8.2148695 -3.2917569 4.627085 -8.018922 -10.536991 -11.461203 4.3596654 7.031878 -4.2796955 3.5784667 -19.296644 -3.7896614 -4.38396 1.3389938 0.5167235 -3.4972913 -12.549071 4.441316 2.67993 -7.7858915 9.659465 -4.583884 5.3673344 -9.446776 -0.50990504 -10.981912 -2.8854032 1.3396188 4.288578 1.3647541 7.971751 -3.0437376 16.230038 11.003673 -6.8124294 -5.6359816 -2.0256257 -17.240963 15.756654 -5.0917306 13.029926 -4.272574 15.585617 -9.109643 4.235055 9.064032 -7.29232
後 -5.700659 4.331863 -6.7127113 -5.699341 2.030343 0.1870167 -0.2207679 2.9806771 -2.8954942 11.029572 8.846573 2.9543235 7.422299 0.15035196 0.5577195 13.405444 4.023697 7.104665 3.2178557 -2.0802717 3.7576356 -3.2084217 -3.5211194 -0.24158703 0.2594622 1.8660781 0.54382527 -2.6389902 9.356432 2.5995831 6.262677 6.7690234 0.107488595 11.07279 7.8466344 -10.953512 4.0441856 -2.657971 7.4786534 -6.40709 3.1557753 1.6457853 5.726 2.563894 9.336951 6.355462 -3.2787812 3.2315052 -11.430576 -0.35234773
つ 0.41595724 5.348162 10.34674 4.92189 -3.5832934 2.9566886 -0.4620969 -1.2041811 4.738121 4.6989346 6.9328976 -4.237223 7.54677 3.0132468 -2.2146547 0.21347947 -3.6805267 3.1098418 5.0625134 1.0221769 2.9255183 4.4448805 -3.748363 -5.5959477 5.1502113 0.89801484 -4.974969 3.6166098 7.0168147 9.319101 -0.8032148 7.6498976 4.5190883 -1.9543581 5.828698 3.2959228 -2.021412 0.41208157 -8.427731 3.36195 11.644112 5.0206127 -2.2255213 5.041675 -8.021705 -3.2536175 13.56477 0.23768677 3.711019 -1.7381462
ｉ 11.450193 -5.782181 0.8502452 -6.9387355 3.5814486 -1.0612003 1.3974407 5.128949 -3.6398084 -1.5906827 -2.838834 -0.6913821 2.0808685 0.10457665 4.633153 2.5766604 -7.013409 6.8163977 -2.466607 -5.031183 0.5542132 -2.5262935 12.990417 -3.5853996 -6.827263 4.4600987 -1.1824406 -4.125396 -0.21189886 3.4511595 -1.7356002 0.5000514 -5.03529 5.97412 1.9242303 1.9951311 0.5849295 2.453803 3.2109873 4.9990153 -8.706763 2.5635676 -8.889978 2.3001208 0.9303631 -4.1932592 -6.5508037 -6.423447 5.9669538 -4.832292
ど 4.6264396 -4.8296137 5.1890707 12.446749 3.119952 -2.4561377 -9.112714 4.029106 -0.68760157 -1.7920388 -0.33082178 -3.4692001 5.7718706 -3.4173923 -5.93266 2.4243214 -4.0139127 -4.0915647 7.65109 -0.068973735 1.8409033 -3.327641 -6.1669626 4.726464 6.1490784 0.5559617 -0.118464656 0.9775279 -20.589165 -4.5605607 1.0339943 1.3442513 0.38783136 -2.6737432 15.051789 -0.5570531 -3.0704029 1.9182708 9.073457 1.1667888 -7.7705765 1.8838688 -2.920844 -8.290072 3.5917106 -11.188356 -2.7810278 -3.5672424 4.7372155 -2.5169835
コ 2.1004956 -4.48843 -5.3844047 -3.9415863 -6.090962 -6.567327 -6.440019 1.5925418 3.499022 -2.324233 -1.7404809 -3.2391393 -0.28623596 -3.742022 -0.82360345 -4.2429156 -6.376091 -1.4511238 2.382392 1.0048579 1.2427189 -0.59527594 -3.9816282 2.4336936 3.2596543 3.2376328 -4.994698 -4.1103134 -5.28426 0.04833977 5.1494026 0.02185536 -0.048726387 2.6921377 -4.526879 2.082491 4.218564 -2.2586694 -5.217183 -0.5611086 -4.3521895 -3.272497 -0.97523147 7.8474116 1.8292346 0.0358758 -0.3334639 -0.9011719 3.488636 -6.2345486
ｏ 11.209849 -7.259482 1.2477957 -5.525366 3.7446535 -1.8452814 1.2222462 4.6612225 -5.861443 -1.150685 -3.0453343 0.64745104 2.65694 1.9603056 6.460789 5.2391253 -6.153729 7.3743577 -2.438199 -2.3620846 0.6786693 -3.8744762 13.916341 -4.6385746 -6.301951 8.060062 -0.55931085 -2.9907491 -1.0773063 2.030885 -1.9832021 1.8041576 -5.724804 5.703407 2.8312852 0.88203007 -0.49459788 4.796005 3.200398 6.887492 -8.63993 1.1395774 -7.8945894 0.74286985 0.47384593 -5.3688054 -4.8445945 -4.246117 6.8036776 -4.557694
オ 0.8807411 -6.008923 -6.269172 -6.7936378 -7.947314 -9.407913 -4.235318 0.38741598 1.9895351 -1.7203116 -2.1623175 -9.061904 1.632942 1.0307636 -1.8384277 -5.566438 -9.976294 1.1116985 -0.1397145 3.8850708 3.2995036 -4.427342 -2.5506706 0.61470246 5.8013844 3.2916467 -2.827399 0.2371051 2.9717026 -1.883651 5.8734016 0.27987042 2.2787523 1.5622249 -5.8315487 0.68930507 5.6820173 -5.7800617 -0.1093976 -2.6572452 -4.2092667 -6.8288603 -0.9715988 5.279179 1.7711765 2.3008177 -2.4326918 -0.12411687 1.6275058 -9.010417
地 4.884179 2.7778656 2.061216 0.42900935 -15.169834 6.252551 -5.708141 -2.4892251 -14.811602 -4.883516 -1.6928617 7.7136064 -7.488475 1.3758125 5.883775 -9.208577 15.070818 -7.0825 -5.4315863 4.9677763 -6.0260773 2.227412 2.723141 -3.0987725 6.6667204 -6.9646688 6.242271 -7.758914 -12.059437 11.678813 1.5543725 7.506272 3.646011 -2.300331 16.265581 -1.8821561 -0.9587175 1.0767661 0.7481959 -14.514699 1.175019 0.5686704 3.9991245 -0.98846465 -9.437686 1.3692132 -10.780962 -6.3047285 -5.548546 0.5486067
ｓ 12.930507 -6.2839556 1.4165335 -8.26304 0.48842072 0.11035001 4.10111 4.7980146 -0.49809766 -1.8697578 -2.837766 -1.9364078 2.6484072 -0.9433267 4.569186 2.844806 -5.941843 5.5401597 -1.1822497 -9.262794 -2.4435565 -2.0405629 11.245907 -4.9820786 -6.201036 2.8127418 -1.0333053 -2.3042212 3.907076 4.879156 -3.156852 -3.1334658 -4.373267 6.0214043 -2.9146082 2.7156007 0.05291547 -0.83123446 3.3559291 5.822535 -6.103228 4.114957 -7.985789 6.6479955 1.8204745 -2.9838376 -6.255987 -6.3746758 3.519455 -3.7033272
メ 2.807988 -2.0202026 -3.2280912 3.3310497 -15.03211 -11.214825 -1.7770029 2.0594213 0.992896 -1.86435 -4.576859 -6.113269 -2.3425646 -9.989133 -4.0112753 -7.1101737 -5.4884644 -6.194262 -6.6173997 3.6474588 1.797045 -0.3375563 2.4816184 -1.5870419 1.7304509 1.8589016 2.6825464 -1.0174317 10.024127 5.243847 -0.76209575 -3.0673504 7.880117 -4.3729773 -0.75670505 0.6511073 8.534099 0.12155001 -1.686985 0.65350646 -2.4564476 2.8377552 -6.167462 1.5749277 2.0887105 1.6501504 -6.6383963 0.9991175 -3.9411414 -3.7319386
会 -11.702558 2.195585 -18.033863 -7.839262 4.0479717 -4.44876 9.365078 3.3081157 4.525935 -6.988166 -1.7060363 16.629156 -3.5679681 1.3282663 1.2509341 -7.0088305 -0.6929544 3.0397582 11.296899 -1.1073127 -15.379711 9.044449 -1.1185561 8.150331 -0.5727032 0.008093918 -8.537232 -5.8700967 1.7932335 0.6780707 -11.913826 4.16824 -3.617687 -11.228198 -3.8063202 5.520705 -3.3408852 -4.38297 1.6772563 11.661181 5.341908 0.33095172 -10.680953 -18.425941 -1.9850833 15.144852 5.0946 -3.438464 3.4455357 0.58469707
時 -19.10085 11.628685 -4.51165 -14.164246 -1.8438816 5.496244 -1.0449451 -2.818817 3.779705 6.4461513 6.927421 -7.287115 6.202677 -1.8735868 -4.243054 9.268852 13.438171 3.666021 -4.7452545 11.0302305 3.938586 -6.1170926 -2.933658 12.483607 1.4562247 -4.2687697 1.512359 2.9045165 0.15224731 14.437279 -10.329014 -15.019451 -1.1555525 9.065642 4.143305 -5.3894877 -13.656079 4.2265115 0.8092433 -6.3256354 0.90288913 2.0413017 -6.367568 14.594481 0.3570804 -7.263928 -9.154651 2.4221823 -9.019998 -0.74074286
わ 5.3684735 -5.461094 3.200496 1.7575413 16.778717 2.908114 -4.802172 -0.60493964 9.085829 4.660857 -8.898008 10.987074 0.7448938 7.1387043 -1.9900529 -2.0284672 12.402504 -5.1252165 12.794017 9.782517 21.40647 -20.249397 2.0088208 12.492899 16.480162 -0.54533345 -3.3284163 13.441051 -0.71140796 8.803468 -7.8043957 -9.908498 13.765193 8.290587 -1.6923385 8.793956 3.5671635 5.365953 6.910583 12.450651 4.309607 9.035715 8.268994 -2.2719386 -10.16653 -0.75412583 5.121742 6.3098254 4.4766364 -17.298405
ウ 2.0614996 1.5312594 0.5805514 -0.5149721 -3.9804077 1.8141863 -7.8626223 -5.5495744 -4.8319497 13.705543 0.43922797 4.8236384 0.47996327 -7.154854 -0.7742778 -11.47015 0.0050466782 -2.4418736 -3.9441528 1.0654889 4.6768823 3.4622626 -3.7585864 4.9095483 -0.91692716 2.4911108 -8.955618 -7.8909907 -4.577366 -1.5896626 11.811016 5.254077 3.5960546 7.0184956 -2.7754202 10.45942 17.447338 -10.910775 -6.3074064 -5.6755643 -15.482896 7.913992 -5.6167693 13.10941 -5.760095 -0.68560815 -1.377827 1.5215181 2.9589453 0.75984025
え 0.046930127 -26.441032 7.6340923 2.9394498 0.9996421 5.6217628 10.129983 -4.0149455 14.022178 -0.26714283 3.9576068 12.801314 -15.318398 0.34059116 -7.1632175 -3.2203057 7.7505193 22.243279 20.625233 11.73625 1.8773386 3.1481311 4.0386395 20.596613 14.313068 0.9123091 -6.336406 0.85602736 -0.7923282 4.354071 -7.915886 11.481589 9.185734 14.182641 -3.3378968 -4.411635 5.968732 10.002802 -1.6515131 0.31938165 5.817957 13.73751 3.1350589 -9.142515 -7.8160233 -13.42775 -4.0109425 -3.225297 -14.452801 -1.5582813
部 -0.8277423 -2.2433143 8.086245 -12.5815735 -0.6471792 -5.2483177 -0.28435856 -1.4468579 2.2301972 -6.029239 6.37918 -9.641238 -4.1587214 5.267563 5.1366925 7.803181 4.04305 -12.775428 2.3859482 9.969139 3.0130694 10.709207 -7.2456884 -6.12689 0.2752543 -7.004414 -6.0509715 -2.7489161 -2.109921 6.54096 3.8415692 -0.35149685 -0.17863661 3.538661 2.8493252 3.8923354 1.3899692 -0.95763403 2.688596 2.7943807 5.443069 -1.8656276 -9.048778 -0.33530948 -7.643094 -1.5225704 -0.1350186 -0.59054255 -3.5792265 13.849033
ｔ 9.948158 -6.596743 3.0663905 -8.202375 0.312678 0.21035214 4.208507 3.9807498 -1.5403792 -1.6209266 -2.6820257 0.2972549 2.8321607 -2.002449 3.9262996 3.032911 -5.860369 5.200053 -1.3922989 -10.903491 -2.20923 -1.7485967 10.905774 -4.4155173 -4.49045 4.9335437 -0.20336485 -2.7089972 4.574735 5.2600713 -3.3098276 -4.261981 -5.5079684 5.7118125 -2.602664 4.1875024 -0.62137955 -1.4874843 3.4456313 6.277083 -3.804885 3.9273763 -9.197073 6.3771176 1.8632255 -3.3662767 -5.1056757 -5.3329234 3.2861953 -3.4923177
合 -1.7333118 -4.013323 -5.831928 -5.529617 -1.2878841 7.043585 10.896337 -2.1724956 -21.779457 0.23686926 10.511933 -12.308003 -2.4026957 -12.820597 -12.664784 5.6905193 -12.110856 6.1532516 -6.432208 6.080077 -10.659168 8.330949 6.028839 12.805129 -3.3281333 8.243768 -9.512545 -19.60902 5.4009542 -16.534052 -9.979039 5.507219 18.872519 -18.908226 -3.3137453 8.801422 -11.938526 9.343329 10.66194 -1.5961313 7.257921 -10.433545 0.17682213 2.569157 6.617996 -3.6755497 12.599095 3.7108586 5.7697816 10.915491
発 3.4994678 -5.1991725 17.345882 1.1511687 10.542983 -4.8333993 8.909274 6.951148 -10.480327 -4.533334 -1.167854 4.3425293 -2.64013 -11.575171 -11.28673 -9.869596 1.1174405 -9.904737 0.20027666 -14.195325 -1.3099037 -5.294914 0.62744886 4.7805915 5.483822 -2.3615248 -9.186367 5.4755073 0.22571039 -4.89351 -5.800196 5.1422625 -2.1252475 12.456418 -11.9716015 -31.187618 14.823738 3.0239694 1.5741132 9.71208 15.396618 -11.54499 0.04534412 1.6799603 1.9653032 3.8792408 -5.3796983 -20.72981 13.367697 5.306585
ニ 3.1438365 1.7334899 -5.4783 2.5938377 -6.576064 -5.487556 -4.701086 0.28407487 -1.0268649 0.8852441 -5.6718836 4.6053205 -5.801522 -13.724844 6.250853 -2.1659672 5.745214 0.8427978 3.8146684 -6.515827 0.733971 1.8086034 -5.2106957 -0.4812282 -3.396577 7.9018345 -5.939123 -4.7746105 -3.9962971 -1.6771315 6.3209333 -0.443242 -1.7739923 7.166254 -11.493619 9.600886 3.9086692 9.225733 -6.486027 -3.9315207 -8.577477 5.649 -7.016082 3.5309548 3.4028485 3.3235552 -1.0949818 3.426609 -5.79767 5.4386773
ｒ 10.603119 -3.836647 1.5509092 -8.304957 -0.6690457 3.8272688 5.195772 3.2439468 -0.010757504 -0.39793587 -1.4106097 0.33818844 4.1401386 1.6510218 5.2278867 -0.23812106 -5.041773 4.538572 -0.3050723 -11.111512 -4.034582 -0.3315766 7.5229044 -6.547922 -2.191919 0.36439463 1.211273 -1.8188215 3.7290134 6.38843 -4.692358 -1.3285698 -5.2650948 4.1980968 -1.4549081 3.9196029 -0.39595017 0.13527106 3.753073 5.8373117 -3.84734 4.949276 -10.886039 7.2405167 2.289868 -1.9856796 -3.906641 -7.2596054 2.2960315 -3.083341
上 -3.7605348 8.553858 -5.605091 11.148492 9.211588 5.509675 -8.92463 10.654914 -6.7989397 10.233314 8.714637 2.008637 -7.524209 0.9970354 -4.8061414 10.969622 1.4571086 1.1473649 2.7418084 -6.9777594 9.957993 1.2879106 1.6521585 -2.735761 5.3510933 12.34741 -1.2468303 7.4756846 8.44432 -14.0628195 1.2588973 14.834356 3.9203162 1.640087 1.1377754 -4.4627953 -8.683568 2.5287192 3.9535947 11.118847 3.194688 -2.596542 -2.7197325 4.670665 2.409245 -0.23409373 -2.933225 -3.1003072 -11.759364 -2.6948502
作 -2.15577 -14.303097 0.7281182 4.8916907 6.174 -4.771829 -4.962455 -2.7724357 9.201084 8.489367 7.1530285 -7.1048155 -1.3795564 -9.707735 9.466303 5.1293235 -14.232841 5.8444214 6.458116 12.514867 1.9759316 -12.666963 -11.602387 1.672435 -10.135481 11.046029 -1.7220606 0.5776994 -4.2847815 -0.5442174 -2.4792626 -10.851714 -0.6487013 -2.7413177 4.7600703 1.8565861 6.3114715 -5.5367317 5.178588 1.5208144 15.3256035 7.1847596 -2.6496377 2.7878463 15.276567 -0.18863451 -14.496074 -8.605216 8.457315 11.835788
ュ -1.5301108 -8.693995 -14.247573 -15.373122 -10.808041 -10.952631 -6.1426916 3.9295747 6.9565954 -8.157451 0.68698955 -18.12096 2.7770464 6.1959085 -0.82477677 -5.5561166 -19.756243 3.954617 1.9949024 3.5914264 0.38153142 -2.775762 -3.9010217 -2.5171452 10.300721 2.8050845 0.73079664 16.748087 0.82977504 2.9056451 5.823014 -0.015875684 2.2764661 2.626864 -2.9298 -7.8782587 8.576936 -4.3769355 6.6702423 -0.9317211 0.04094825 -14.850913 0.9321117 3.8828773 -8.982928 1.2837859 1.4507867 -0.98862076 3.7722776 -8.427662
用 -7.9127836 -14.552944 1.6463675 7.0549436 5.3904166 5.3586664 6.2869253 13.0354185 -1.1069876 -2.3257763 -10.878621 -7.7279816 0.69911444 4.929086 -7.5777683 -1.4728031 -8.01542 -7.97099 6.91923 -8.617077 23.68897 6.8373923 11.664014 16.812794 -13.810882 -3.177808 1.2946789 -0.524622 -12.237863 5.0620656 3.267248 -4.934229 6.392592 -4.781644 -9.256442 2.996131 -9.104447 0.9960406 7.2972035 7.0110025 -9.6804495 2.09825 10.215456 12.910175 -10.342061 -10.7931185 8.413716 1.4307585 -7.1026807 1.3417932
ｎ 11.925108 -5.3681197 0.53575736 -9.195233 -1.4989843 1.206695 4.443826 2.7618825 -0.17320532 -1.9776059 -2.3063304 0.24640584 3.550591 -1.9451436 4.972739 -0.256624 -4.963099 4.6394243 -0.20306534 -12.988372 -5.725645 -1.3293351 6.8243446 -7.174041 -3.1186373 1.3787506 0.4559466 -1.0777088 6.051527 7.453868 -3.3029587 -2.701959 -5.6951375 4.1803026 -2.6087518 5.050527 -0.5641473 -0.6049914 4.7792563 7.3081613 -4.4981604 4.8940625 -11.12576 3.609327 0.84472495 -3.647371 -6.8783097 -6.3627095 1.7551228 -2.383524
チ 7.542051 0.6401218 5.722018 9.567457 -3.7582781 1.8575903 -5.6627083 -7.0854883 0.98519456 0.14369553 9.441141 4.1070538 0.93052906 -13.770242 13.704402 -5.0982823 10.785282 -3.785064 -1.7975751 -5.2889524 3.6502483 -0.43334368 -3.84953 -3.1688619 4.4819713 5.440459 -15.93401 -18.245165 -2.4767275 -3.597032 2.6529758 -1.5349401 -0.98236436 13.315887 -7.683438 8.969614 1.3998796 4.8635197 -15.882043 -2.023693 -15.9617 2.860722 0.6674457 7.111751 10.075506 -4.309225 7.1275096 1.3090348 -0.034183573 3.4385004
戦 8.190982 9.285059 -6.7029357 13.383798 3.273128 -4.513612 10.727222 -2.0104594 -3.362079 -8.37395 -3.8705606 0.82703936 0.9133582 9.526283 8.1139345 -3.7526376 6.6669374 -5.044942 -17.721272 3.2184212 -0.9626415 -4.4615283 10.252194 4.8867197 8.735224 2.1124024 -8.234388 -1.4975226 18.039711 0.7309497 -0.7645631 -1.1352042 -4.9218473 1.2083368 -15.631411 3.8542116 -0.113152914 -6.6239023 10.657662 2.1150725 -6.273478 -1.4694164 4.7204127 7.213052 2.5655427 6.41431 4.0028653 5.7540116 7.3476515 11.937118
サ 1.3208354 1.2153093 -7.9406543 -2.3279502 -6.4665303 -8.366016 -2.8083305 -1.8439966 2.882414 -8.201655 -0.4198723 -3.3993082 -3.0832167 -4.0749345 -3.7326972 -3.2375982 -5.0600486 -0.86219925 0.597415 -4.336126 1.7097985 -1.1262647 -0.047090262 -4.3282123 4.18367 2.6972435 -3.6092849 -3.9819005 -6.3176403 -0.9374235 4.219406 1.464981 -1.1616204 3.4535592 -4.4790764 4.616974 5.840196 -2.1206927 -5.0408897 -4.1452746 -4.189907 0.28944376 -0.33621892 4.0870566 2.0645971 -2.9553268 1.1112309 -1.2324711 -0.090290405 -5.388064
ブ 6.6590753 0.31195796 -9.1016 -3.3023832 -8.508661 -4.801872 -0.9184114 -2.918466 0.49589324 2.2954416 -3.4927385 1.7570411 0.97286123 -4.2765875 -7.124883 -10.582737 -1.8095393 -0.24242873 -2.254145 4.6994777 6.951229 -1.3077649 0.28242907 0.64908874 3.2365825 5.0489097 -3.2085302 -9.91184 -2.7599258 -2.0320954 5.1990023 -0.8069742 -2.1797323 2.1495585 -3.932551 -1.5871308 6.192687 -8.91542 -5.7588863 -3.5645075 -5.145116 0.95532286 0.47013107 8.670284 4.6995654 -3.5528095 -4.4461813 -0.3383035 1.768684 -8.098829
ｍ 16.305511 -2.7653143 10.861893 -6.987866 -3.386084 9.660163 5.9124527 -2.4739614 -1.360794 -0.023441896 -3.9842246 -7.3222346 3.7453935 0.92373794 2.1043687 9.204852 -3.4724216 -3.3942425 4.9495363 -7.182414 0.69182444 8.553268 12.568995 -9.420572 0.6698024 6.222864 -0.3351263 -2.1844091 2.4487784 2.2063348 -7.7688084 -3.3648298 -3.4529479 0.67379236 -2.8324847 -1.8437405 -4.170468 -0.4532882 2.1874871 8.612232 -4.8553414 4.3299737 -9.649173 12.955981 6.9108615 -1.7942481 -2.7127917 -5.8793073 -4.2878895 -2.8258047
代 12.424569 -3.74192 11.294602 6.1866264 -6.9813857 -4.2795053 -1.3158218 -1.6438619 -12.664112 1.3844522 -1.4887819 -1.788443 -0.37261346 4.149872 -0.9260491 -13.227602 -5.3662715 2.7312567 6.116907 -0.50543416 -1.6075542 -4.5613813 -0.5059193 -2.6964514 -7.521905 -4.7692404 -0.05525157 7.6004133 2.1120412 -9.531226 2.937605 13.277722 1.8160589 1.6547272 -5.7986374 -14.266409 5.6183734 -12.912047 3.3990488 -3.943929 4.232377 -2.3828 -1.6686413 -19.072723 15.204925 26.035343 13.185324 -10.982408 5.1155252 8.775194
ャ 2.9442453 -2.8388846 -19.134106 -12.885446 -10.560036 -9.125988 -2.4047554 4.430441 4.995673 -3.5867662 -3.748963 -15.486066 0.4859517 10.85436 -5.61396 2.6140003 -25.60352 0.18205646 -4.1194725 10.606516 -0.6459945 -8.168642 -4.3551316 4.483157 8.675702 4.1226892 11.872612 20.245426 -0.9378481 4.3133564 4.844425 8.45116 8.955536 -7.268 -7.631843 -3.1362586 11.164062 -7.603417 10.565107 3.4374 -0.83231884 -11.762697 3.143943 5.239273 -3.7571514 5.854038 -4.999353 -3.1168315 2.3789442 -19.579018
場 -3.8728075 -1.9842931 1.0432599 12.838031 12.328511 -0.32505485 -10.280693 7.0164347 15.032926 2.1700943 -11.8601 -2.4999866 8.786243 6.0907755 15.6319 0.49775994 8.184305 -16.585112 -9.217134 -7.003769 5.301188 7.555408 -3.4439056 -2.3277738 4.8794575 3.4028587 10.88763 3.6405272 -6.8655305 15.42053 -10.428129 0.43623856 -14.994009 14.272292 5.860967 -11.873756 8.790662 -12.966139 -6.455145 3.7216675 2.7115903 3.41664 4.121662 -10.086565 -1.3908451 4.889342 -8.0796 -0.9136323 -10.9008045 -8.531494
ｃ 12.832338 -7.41771 2.213373 -12.117356 0.32402748 2.2592545 3.074372 1.4256976 -3.1524842 -1.977179 -1.7007858 -1.3774891 2.0983522 -0.70087135 6.2241855 2.5871472 -8.399397 3.5820916 1.4273331 -8.812614 1.0055536 2.1285892 10.320163 -5.919759 -3.3203123 3.5301096 -0.39560905 -2.016608 2.0154066 5.188452 -6.3507724 -0.6126887 -4.977143 5.115344 -3.4340687 1.896906 -0.109488524 -1.0802251 1.6754053 7.2978253 -8.059919 3.2162547 -7.034736 9.312472 7.8054667 -2.5415967 -4.3751755 -4.7896624 1.3691112 -4.970477
ナ 2.8818276 -2.3338015 -6.041723 -1.6752447 -6.887417 -7.392875 -0.9519202 0.5535888 0.42994866 -1.3519989 -3.3463192 -1.3042051 -2.529976 -3.5160654 -0.28189483 -5.426072 -4.1510124 -0.18639904 -3.9326503 -0.8322367 1.8024797 -3.5075471 -4.0399113 0.18656625 3.4422195 5.1536546 -4.9446015 -2.035638 0.30578503 -1.5785254 6.089569 2.1807873 1.1790721 3.184532 -4.516505 5.056295 7.715168 -2.714186 -2.2060542 -4.8487144 -4.717388 -2.6802487 -1.5105146 4.8803234 0.8336554 -2.415886 -1.7220807 1.324905 -4.3245964 -2.975827
的 -0.8310234 -7.5886517 -3.6287394 12.4669075 8.262225 -5.7536907 -2.848242 1.8272866 -4.3984003 1.0888824 0.42005974 -4.4976435 4.2074585 -0.6015534 0.49223632 0.44324252 4.2570915 1.666864 8.799347 2.6767328 -1.0302148 -0.9066866 0.26461223 8.424528 2.4942267 -9.707362 1.7454152 1.8372394 -6.6900063 -6.3905153 -9.089929 11.63853 6.077077 -2.8292167 16.584156 2.5703933 -1.2381608 3.9582179 3.049793 2.0196671 -4.3494973 5.4222383 -0.52392197 0.6320031 0.95019954 -8.298733 4.4466314 -1.4307775 8.225862 11.590994
同 1.4095637 -5.604547 -11.852242 5.537572 2.482343 2.3368099 -10.305306 -1.1083614 -1.2694603 1.1172993 1.3961298 9.828561 -9.3920145 15.431887 5.7060623 -4.300987 -3.4799478 -15.789507 11.389257 -12.2790165 -5.39115 4.559965 7.759324 -7.6741185 -13.87358 -2.0799408 -8.067307 7.0765576 12.382465 -3.5385053 9.444444 -7.4093094 1.5520974 7.5566463 2.722003 -3.107983 4.162653 -1.8626494 9.179749 5.7525067 -0.3282682 0.095606 2.0069265 -13.2057085 4.171195 7.656915 6.067916 9.832599 13.907264 1.0884838
エ 1.9759083 -3.3836317 -7.0064135 -5.4570165 -7.49579 -8.89202 -3.144804 -0.741672 3.6301908 -0.38915735 -3.8161283 -5.111207 -0.15447272 -0.2303693 -4.443227 -3.4457812 -9.583068 -0.5919045 0.92664427 -1.0749196 3.1670835 -4.068098 -2.1973991 1.3097122 1.243462 -2.1031098 -2.7479181 1.4742078 -1.0423704 -1.0156219 5.5892477 0.71630275 2.6544344 1.8476144 -4.5542965 2.763867 7.458198 -6.4055862 -1.1798563 -3.800662 -5.059364 -3.5965939 -0.390743 9.069054 -0.35878453 -1.4744989 -3.1513195 0.0019845532 -1.1983649 -7.0670533
生 2.6125808 6.868971 -8.524581 3.4691124 0.029456051 4.646414 -11.47094 0.48301938 2.074069 1.9402362 -9.477559 5.148239 15.295221 3.9501386 5.1826324 -0.9471638 -8.298791 2.3828907 11.251558 6.6810894 3.8378444 10.821845 8.666017 0.44560608 -11.251341 0.477444 8.898175 -0.28102824 2.6903384 4.457759 -3.6138377 -19.153044 8.868277 -3.0222657 3.2532318 10.762449 5.170287 4.7471333 3.4054177 -10.77008 0.23209846 -9.074802 14.698006 -11.436056 -1.0580697 -8.183392 4.3823557 2.8065805 -3.4995677 6.99432
だ 5.4519835 11.372744 3.3082683 9.995482 -3.364523 1.0013764 5.5292587 -4.262696 7.7659397 11.555782 -4.4672866 3.0377886 1.4338813 2.3779707 -0.8262172 5.540973 -13.439287 8.301699 -2.9788015 -1.4710479 -4.348713 -5.224806 -5.346887 -1.1000059 4.2655845 4.7962675 -6.283065 1.5618703 -2.4799984 15.0483265 0.024678398 1.0445378 4.0034504 -1.0195512 1.0129704 -2.4066029 -4.2030883 7.7928476 -0.6974912 -4.5807414 4.8236775 1.3447063 3.7449405 -6.839645 -1.4997748 0.7961598 5.640909 3.7839978 4.855167 0.8259169
者 -3.779728 -2.6906545 -5.18026 0.07242515 3.9008007 -7.578551 0.9285424 4.341481 0.32936588 2.5338356 3.4320204 0.88014716 8.153917 4.0555296 -4.609891 3.3358462 -0.1954036 3.9630191 -3.4906535 6.861971 -0.95295274 -2.480257 1.3004118 8.028713 -4.621898 -1.80543 -1.3080814 4.24955 -6.6168833 2.5997095 -3.2100842 4.9082227 -4.9883966 -4.5011353 4.7184176 -0.60349256 2.333234 0.22118369 -3.0834754 3.6565948 -7.59878 5.818125 -1.1190932 -6.766605 -4.5170603 -5.0813837 10.354931 0.6979366 -3.3741794 7.757089
ビ 7.086422 -2.771785 -9.242313 -3.984593 -8.517097 -13.19011 -0.07363858 2.0826354 6.069223 0.1808894 -9.827644 5.448107 -6.071332 -5.9612145 1.0132811 -6.775259 1.9274501 6.1109285 2.705691 -1.5467871 4.442623 0.345007 -1.8924427 -0.5876805 -6.7051797 10.50273 -3.9840825 -5.4410825 -0.4732406 -2.5262308 3.1865847 -10.058921 -7.8326516 9.454025 -8.236004 -4.8272643 -2.6729054 1.7068995 -6.2615714 -2.2858264 5.558375 -2.5203006 -1.3629305 8.148069 8.415874 -1.5651197 -5.4545317 3.95408 -3.8880095 4.7945356
キ 8.681886 0.5028191 2.2291157 4.3811793 -4.247234 -2.5682888 -4.85997 1.8158534 6.422176 -0.15548557 0.8861411 1.967852 -2.407501 -9.481397 7.1546416 -5.0002265 8.93811 0.51696706 3.2853882 -0.051166266 2.7702131 2.0400746 -6.384496 2.5202851 0.2910616 5.6678863 -11.802139 -16.214468 -2.6167126 -5.6217813 3.9797523 -1.3154029 -2.4835413 9.341849 -10.26157 4.9485335 1.1719878 5.685778 -15.997961 -4.706366 -7.560579 1.2560302 1.1140851 4.1363735 8.5735855 -2.6874626 4.305129 2.087757 -2.0490963 2.9271307
名 2.0071907 4.141855 2.179056 -3.091242 1.2771498 3.723358 8.906764 5.419968 10.706584 2.587122 7.7838583 -3.3089948 4.2858343 5.115765 3.713636 0.8382692 0.41841856 0.6901845 -0.6758167 9.488573 2.4593542 -5.7625513 -1.6556754 -4.6670322 -13.731067 7.8792396 -4.799038 0.8891886 -11.640891 -0.4779903 -3.8136146 3.3710349 0.3377693 -7.676806 -5.9889364 4.213545 -0.895839 -10.218016 -1.4150777 -9.901511 3.4003537 4.2422805 -13.936982 -9.140556 0.20889944 0.37316015 5.798416 -1.5274957 1.9344523 -7.3705683
ズ 2.4276261 -4.5359817 -5.390059 -2.4521663 -5.4297595 -3.324023 -0.9356927 -2.520807 -0.4551403 -1.2478074 7.2974596 -13.679075 4.6683135 -1.3297712 6.25016 -6.5038495 -5.7084317 0.52639866 -4.913189 3.106425 -3.2110915 -6.1002774 -1.1064286 -0.29710847 8.768455 9.561784 -6.8601108 0.57516825 4.6359224 0.8474327 3.2954838 -2.7110956 1.1817793 5.8417206 -6.052235 -0.24982531 11.114951 -7.7405677 -1.526136 -0.07199864 -7.6997323 -3.5510156 1.7966377 9.848872 0.6145193 1.420182 -0.008848938 -4.6334157 4.8778076 -9.1462345
間 7.141925 -0.6593137 3.828957 7.270537 -6.627151 2.5235472 -4.844425 -2.0825036 -8.61018 1.8198041 -0.4123305 2.8880317 -3.0102596 6.9188323 2.5896854 1.6055906 5.630494 -7.178933 9.2867 -3.865383 -7.071269 2.7411373 5.0041723 7.2532125 -4.018175 0.06858769 -2.9739652 9.263982 5.6687226 0.19774932 8.823751 -2.2682416 4.631188 3.892356 0.58146405 -13.314639 -7.708999 -10.746928 -1.0548595 -2.7990665 1.0624384 -5.5147657 9.90284 -9.03768 6.4444513 0.67595834 -0.9544954 5.294197 2.3681252 -0.6394437
事 -7.482075 -9.625288 -3.7876441 -2.5878966 14.4675 1.9258232 11.648097 -3.2262135 0.00534588 -2.3348823 -5.684838 0.6280878 8.274707 1.219098 9.435581 14.169393 3.3166893 0.12705658 -6.307317 -2.9063938 -6.207932 -10.404091 -4.516319 7.404226 -3.8212912 6.305264 -7.668187 1.638361 -19.138504 -0.8059297 8.086122 -0.83572054 1.3844455 0.89197034 17.364756 0.6136725 -1.6322918 -7.7875113 -13.253778 2.3651652 1.892281 1.6606901 7.6886563 -6.6291327 -10.269602 9.991489 0.95773804 -2.860361 -3.9016128 10.645091
市 -3.4560113 3.3813996 3.287892 -6.1925464 -9.265308 0.7980288 0.104823016 -6.8042192 -16.559486 -4.5520535 5.5043464 -0.69386214 -6.8037133 -2.1049702 1.6149845 -10.269171 9.386969 0.90435255 4.6141524 1.5867621 3.3217795 17.604902 2.7715492 -0.8535458 1.8760908 7.483108 -4.2961535 -2.6687036 -10.272407 -0.15005538 -3.7082407 -2.0217412 0.86262214 -4.06788 2.2906258 5.5959787 -5.1467285 -2.71307 4.235497 -1.5396285 2.7751923 -13.86408 -8.060406 -15.125903 -13.699484 0.24513747 1.9757673 -2.1274042 -5.188399 -1.1996366
定 -6.366912 -6.2860284 -1.8591831 -7.1011043 12.536836 15.210804 5.665816 4.8840322 -5.5475197 -9.191363 10.861171 6.0567665 8.443278 -0.37528825 23.12299 -4.4666514 -6.1166487 -18.634626 14.921353 5.442049 -4.961283 -9.295395 0.1679797 6.9739633 -10.909519 0.6458734 7.6925726 -1.562664 4.129166 -4.335624 -3.9119987 11.206101 3.2987309 3.9444406 -8.532947 -6.233378 -21.714676 -6.0981812 -7.0024643 -4.009721 2.797031 -1.8437063 -0.84787124 2.962832 -9.739645 -3.388676 5.8756022 3.4949577 5.5515637 -3.2583513
パ 5.4798994 2.2716532 -7.830226 -3.0107234 -5.924364 -6.8839283 -3.4240785 -1.9230568 3.321987 -4.9671626 0.043699395 -3.3547978 2.0579002 -4.4399776 -3.6665626 -4.4902396 -1.6082411 -2.1205883 1.4159186 2.151597 3.1604578 1.0019909 1.3785839 -1.0525929 7.0316963 4.0932174 -3.0089743 -5.4519176 -2.5720325 1.080076 3.4819472 0.34686252 -1.5030947 3.6033726 -3.3008795 -1.4790775 6.619753 -3.1728182 -7.431811 -2.8790262 -4.519521 0.9256194 2.1012225 6.264562 2.713564 -2.0798163 -0.33490366 -0.72717446 3.971736 -7.126747
長 -2.126105 1.6413996 -6.6729817 -12.859389 -2.2848256 1.2542104 -0.9998114 -3.5580902 0.7030635 9.508142 8.433793 7.835433 -2.174327 1.3286107 2.8228493 9.426196 3.2828271 -0.72507614 2.5535686 -2.6827915 4.2497373 5.133955 -6.536002 -8.365553 -8.04878 4.2248363 -6.319753 -0.4294971 -0.07131682 -1.7404437 -3.5576203 -1.6736174 -0.67891604 -3.5093064 5.954753 0.018304624 -4.417126 2.0861385 1.8499103 6.674366 -2.7373462 -7.127361 6.5885897 -4.4183245 -2.0904207 9.193106 1.4091961 -1.4285057 1.4254662 9.3814535
開 -5.7047853 5.957638 -4.504671 -3.975359 13.88919 -3.1833353 -9.882276 -2.6677666 2.339741 -5.2395344 -4.35224 -10.11912 -3.45795 3.2867105 11.732836 -10.053877 -7.2114477 11.7315 6.821803 1.4932829 -17.311468 -0.018925725 3.0212693 -9.250007 -1.9098322 15.401933 14.014787 -13.198243 5.6940484 -3.8470807 0.61733186 -19.046267 5.451959 12.336539 13.663086 20.43831 -24.87105 -13.008021 6.5592227 -9.009143 1.1376417 13.967654 18.805166 3.287637 -14.681314 7.2266984 -1.5516224 -1.7231524 -7.8382034 -4.0190034
分 10.098456 11.7496195 -5.4484963 12.814258 -4.7084007 20.310076 7.2620173 -1.9854809 -4.6340046 3.9046052 -13.046723 2.229187 6.3563495 -6.016912 -4.884129 1.9048574 -2.339922 -0.06332756 13.919514 2.7567608 2.5571535 5.1200233 -7.09565 -9.908407 1.7203019 2.8505752 -7.212415 0.21036284 4.9955425 4.233954 -2.7932782 -0.039789304 10.404485 -4.7468486 7.5729346 -0.46097195 -7.896009 -7.0680904 -2.9055808 8.988539 5.824918 -2.5171812 9.47608 0.5757765 2.4132373 -0.18068646 1.1758199 -12.435806 -5.347803 2.1123443
ェ -3.540797 -0.70585626 -19.943127 -11.16925 -10.274906 -14.918343 6.428115 1.7284095 9.130911 -13.340476 -7.790756 -7.768702 2.6368217 15.906994 -5.4129806 3.083847 -16.898865 6.988438 0.46621314 -1.3101225 -2.4165282 -11.990157 2.4669328 -11.211007 8.531109 -6.414964 -0.041715033 11.852127 -6.4503236 -3.807031 3.0591097 4.729405 3.4949954 -6.3784847 -9.157347 -5.028565 7.1251574 2.1606495 11.779197 -6.2238355 6.28712 -12.427744 5.106511 7.026172 2.1768537 -5.40344 -2.9138806 -5.5420485 -11.277881 -15.200773
ダ -1.1401451 -3.015515 -5.3166013 2.4383712 -4.3624444 -2.129114 -2.204987 -0.72917813 0.93501323 -5.5549116 1.7999506 -2.0320206 -2.7100787 -3.4594543 -2.2157226 -5.121724 -4.546918 -3.7486968 -4.3123193 -2.5826364 1.5196831 -6.800707 -1.0006654 -3.7172964 7.304561 3.762284 -7.3465724 -7.3224425 -1.6542557 -1.5784409 2.6676354 -0.43781167 -0.211203 1.9807001 -5.5777392 4.816934 7.037548 -1.8075486 -6.7629375 -7.770928 -4.4853153 0.25446582 0.24312516 4.774786 3.4263647 -2.722725 -1.5680836 3.0567338 0.017227283 -3.8058784
ｌ 10.324059 -3.7680032 1.53868 -7.283637 1.1057903 3.4792974 5.127034 3.7041554 -0.6653208 -0.3426524 -1.641506 -0.49782827 4.212059 1.3504893 4.873081 0.5225558 -5.584756 5.6175694 0.2054368 -9.668243 -2.6188536 -0.4365736 9.547694 -6.151117 -3.4538264 -0.30116284 0.80185354 -1.4570011 2.8817253 4.719361 -3.818406 -0.025813673 -3.6174366 4.2836304 -2.6900659 2.8882577 1.3146017 0.4206521 1.896579 5.825922 -5.1446424 6.132088 -9.3979225 6.7627063 3.4226854 -3.739698 -4.113859 -7.8757663 2.707954 -3.0000045
入 -5.8797493 -2.6142602 7.0798044 -8.797109 3.9586582 -0.83070153 -12.459945 -6.4079347 12.386085 1.7212662 -9.209015 1.6038072 -14.524185 -2.6344643 -9.608454 -2.7430754 -1.4292707 4.205335 -12.016116 -2.2205837 14.294702 -2.482771 6.2393775 -3.98224 9.5122595 6.124982 2.6057749 -0.29001102 2.04474 0.48699826 -10.470227 2.822693 12.383589 1.337575 2.974186 3.7988746 -6.524193 2.7416263 5.5096807 8.471779 -2.8848367 -1.4780134 11.120869 -4.983078 0.00678484 2.0081043 2.24412 -10.094778 2.4011045 14.439781
成 -4.8239875 2.9487855 -2.69497 8.53375 5.9187927 -10.098232 9.486873 -6.795566 -0.93919915 -2.1202567 9.0382395 -10.240833 -12.621403 0.82095164 1.59653 -6.0770383 -0.9060094 -18.41919 0.6559048 -6.1672587 4.4139237 -5.815178 7.7251973 -13.023703 5.448746 -9.54616 7.480807 -1.7728434 13.66151 20.534714 -7.836439 4.6364408 6.096691 1.0673947 -9.120083 -12.70852 -7.4098325 11.833822 2.6755056 9.04734 -3.631873 -5.5088396 10.717796 -12.421493 5.4080405 -12.278352 6.7099547 -14.223729 -4.4378905 -8.258146
子 -4.6068597 -8.528865 -6.6546164 0.4821433 6.6954737 -13.440565 0.5503208 -10.430908 6.1491146 8.891944 7.4082475 -5.1091704 -1.3676311 9.634582 -6.444477 2.7888167 -9.570182 1.5420787 2.604579 -3.7113657 8.155686 9.807621 0.69611186 -0.32692048 -6.5694566 0.5613171 -4.144548 9.333786 6.9382186 0.7068126 -3.9193406 -7.4315243 -2.0359328 4.1888537 -0.08553227 5.2440724 6.4542203 0.8718129 -12.524383 -8.630054 -2.4339151 -6.726433 0.3585157 -14.517575 7.979221 -8.419293 -0.5001309 5.1686654 5.98531 5.6469126
ち 0.206439 4.8000636 10.195592 8.847969 -5.801096 -3.4529843 3.539451 -7.5570383 8.564611 1.5580633 8.805249 -0.92818815 6.863913 -4.1241903 -3.054231 5.5599937 -6.5576177 5.8767753 -13.031302 -3.4027464 -3.8503842 6.3791213 -0.28050426 -2.7615 5.923203 5.93276 3.7826314 0.48913187 11.546952 8.784145 3.8673446 10.586044 0.87370014 -0.6144357 9.558895 -1.3687978 10.3652935 -2.8001842 -6.5951376 1.1276637 6.1667666 0.57856065 -2.610478 -8.312621 3.7740433 -5.237282 4.3054824 3.1296017 -2.6038465 -4.8694625
業 2.9389822 9.305257 -5.992037 2.5840647 6.440125 -9.698624 -9.730127 12.754626 0.16073641 0.958831 11.205539 10.11471 -3.688937 -3.0660691 5.7372794 -3.1002162 13.05944 2.168109 -2.3274434 -12.027715 -0.4309072 8.046954 18.721926 2.8048122 2.376144 -15.440599 -0.51683664 -2.999268 -10.947748 12.462898 -5.1489806 -15.666953 -3.8868582 -15.704626 0.03888017 -5.348193 7.435072 2.4985676 15.30508 13.649305 4.7143493 -15.302825 -1.5930594 4.1736703 8.442713 1.4730453 11.047156 0.07013214 -7.3239646 4.5640125
高 -3.222748 8.927513 -0.7000982 -0.24710734 -1.8196039 6.573882 -7.331191 -5.1160765 -2.063288 11.781899 11.447939 2.80735 2.5368626 7.2757235 4.3639226 2.4938521 -6.8865085 -6.3538995 3.0529897 -9.660621 7.755336 6.586783 1.7599462 -1.7804544 -0.42716968 1.9081966 -5.644865 -2.4627337 2.2341888 -7.1722407 -6.532579 1.0277841 -3.1645195 1.3999832 5.273814 -11.486475 -9.570319 12.05671 -10.978509 -4.0354657 1.4731873 -7.0090437 -4.8951235 3.0919168 -6.8408604 7.5151954 -12.4740505 0.8758037 -1.9941982 4.60696
ｄ 8.515402 -8.874957 3.1943612 -6.5573506 3.159286 1.4545311 2.7055528 4.7184925 -2.8743863 -1.6943878 -2.4385867 -2.8213625 0.9466767 -2.5386267 4.6040616 -0.77109474 -8.537062 5.686466 -0.16339658 -6.9628196 -0.28630254 -1.3353682 9.976282 -5.91319 -5.6973753 4.505937 0.69733113 -1.5374033 2.7369645 4.402107 -3.9370704 -3.1881702 -3.7543266 5.15625 -3.030781 1.9068377 -0.5681683 -0.81274736 -0.1445993 7.580641 -4.4978995 4.7335277 -7.4816704 11.429365 8.653558 -4.3399806 -4.737717 -6.529702 4.129926 -6.0435605
ミ 5.8449564 2.3403497 -7.064896 1.6290369 -9.139105 -7.4511333 -2.5133593 -0.5764606 4.9964023 2.3843944 -4.438446 0.20252198 -2.5910137 -8.252737 0.6856428 -6.0617347 -1.4360482 1.1918974 3.3909814 0.37687618 2.7503798 1.6072187 -2.8078604 0.12166565 -3.8342166 4.5608864 -4.0894628 -6.084592 -1.7869375 -1.763417 4.692491 -2.7306528 0.11399129 3.4648638 -7.6049333 2.215601 5.8734 3.717609 -7.3198066 -1.1098833 -7.3463817 -0.5145679 -1.6931324 7.4930496 1.3116367 0.36429006 -2.9933898 -1.157104 -1.812471 -1.6665957
動 -6.9057302 1.2268316 -9.461635 9.462015 -11.240093 11.139508 4.8409195 5.14956 -1.5075331 -19.240313 -13.046092 13.200458 16.635504 1.8076731 -8.152844 0.3008079 -18.57985 -5.487437 9.503827 -5.202787 12.7873 9.522898 9.4633 11.966722 -4.9785194 -2.7514772 6.3101063 -5.522377 6.71994 0.67813504 -5.793331 -15.057227 7.123 14.980716 13.604056 3.4609797 8.87289 -1.8614495 11.405433 8.125582 8.420864 -3.811254 14.5962105 -0.79668677 -6.6613083 -9.897897 8.644365 -6.1074953 -3.2291286 7.593289
立 -3.5334327 2.2967858 -5.710736 -13.846236 14.153132 0.9833837 -6.019953 -0.06368212 -2.1582284 0.3010835 -2.6421175 8.159963 7.1552343 9.273953 4.7463045 -9.257455 5.320626 -8.247938 3.8903165 6.906591 -4.689411 -1.1311462 -2.514761 -6.426426 -5.839877 6.1578345 1.2293743 -4.583887 -3.1708071 -22.82488 -6.137492 2.3840609 1.6244636 -10.353046 -7.756578 12.875473 -6.0052495 6.1387954 8.385906 -7.4798017 5.6615214 5.8348794 1.4743571 -6.866461 -9.344462 5.207531 5.034519 -4.554636 2.365022 13.463984
自 6.5281 -8.729997 7.8014207 -20.985073 8.42607 -19.47105 -10.331965 15.61172 -0.645039 3.9084775 16.747736 -0.45289582 -2.6616008 12.073426 -4.860996 -2.9352844 12.299604 -1.1682509 5.9818616 -9.664728 -7.794401 2.7195103 -6.137799 -4.1254377 2.8240008 -5.1210976 6.016747 9.812347 -6.0593853 5.1298018 -3.9633853 13.927511 -5.366649 -15.060612 -11.835205 1.4870998 -0.6770107 8.7655525 5.066039 -11.303354 1.0988649 13.349483 3.091001 3.2015514 -0.53988457 -2.8921106 -0.023019029 16.401722 10.909778 8.310617
手 8.578796 5.9671745 2.8585792 -1.4811248 1.7294644 -7.5972776 8.299373 9.784388 -8.7292595 4.736301 5.5781975 1.1155062 -6.973182 -1.3587255 4.7452545 1.5240517 -15.330278 -4.88686 4.6662188 5.037487 16.547346 6.040123 -9.942521 8.583205 11.102263 6.9132876 12.48253 6.223112 2.174505 5.6489387 2.3456688 0.1898192 -10.148259 -8.829945 -6.484657 2.072906 -8.270453 -5.08695 -5.8415384 6.5429525 -10.295029 9.881818 4.4767666 -12.7755575 5.275825 5.776968 4.4121327 5.946369 3.497672 0.34679484
内 0.83680314 7.8176436 -12.172269 -4.813821 3.6329012 0.39095724 -1.842532 11.929167 -5.041543 -0.07343404 1.5943477 6.7603817 -5.2284184 3.3300226 -10.5121565 1.4570216 0.7209934 -3.3314116 6.8523817 1.427084 2.8373437 -1.7679036 -2.5905008 -8.99809 0.9209952 2.7555997 -0.46670413 -3.9388397 -1.1849558 -0.998536 -2.6908095 8.559418 5.7749944 -0.9005523 7.9525237 -2.4426868 -11.648085 -1.366692 3.3025215 -1.9571118 7.4784746 -3.0863886 -2.9941056 1.0932252 -2.4912863 8.349842 -3.1363962 -1.427309 -1.0808032 -1.1132698
社 -7.3905654 4.3346987 7.8763356 -9.349171 1.830029 -11.098905 -3.4511538 -1.7054513 -7.6725464 0.37755555 7.2723284 0.36400312 2.830323 -8.681945 2.3745437 5.3941145 2.8747697 -3.3862536 -0.96324 -9.627403 7.0264854 -4.8940516 -5.170891 -0.8510278 -7.9864583 -1.7946502 9.832645 -12.597098 -14.303513 10.481204 -11.426508 -5.235801 -5.4926314 3.2998385 9.676461 8.653772 2.8801103 -7.7631574 -3.0922217 12.989135 3.0259366 -2.951306 0.82019585 -9.322092 3.9333768 -3.4959428 8.618577 -0.83557755 -5.015002 -8.546083
主 -4.8236256 4.2445927 -2.0900815 1.891796 0.17598827 -14.26348 -6.4108453 -4.104016 -2.8439038 -9.71929 15.798789 2.2879965 -3.2531114 6.268653 -2.3116815 -7.1841927 -3.0438461 6.6035113 5.9259577 -1.296853 -1.8600088 -10.185508 -4.121171 -4.5258217 -7.9266725 5.735515 -3.793151 6.611342 2.7344494 -0.6940547 -2.410826 4.131461 1.3760902 -0.07296029 11.402574 18.183062 -17.898655 -2.9584334 4.588107 -0.23826028 -7.579869 10.331505 0.27193892 -6.228833 -9.248118 -16.996534 -3.0471022 3.4575965 -4.239553 3.7293181
東 3.8989282 13.198261 -10.407446 -5.999725 3.6013656 -12.661216 -5.3232775 -10.940016 -15.311283 6.749032 -6.9925985 -1.8191524 -9.544265 4.137572 -1.7478663 9.960726 8.933188 4.952829 -0.42862794 3.044932 4.1943183 -0.52221185 6.0379086 -13.946 11.102935 2.9737418 6.308131 -1.1202313 0.5757681 -3.3715081 4.9158354 0.27467299 -0.17161953 2.4098094 4.855704 5.0865474 2.44489 -0.93310463 4.205636 9.970989 10.916578 -4.091598 -7.7889714 -6.389001 -2.5010066 9.817029 -15.7998905 -2.7809002 -7.403154 -9.013214
前 -0.19029996 5.337905 -5.969391 -0.409112 -4.2062125 7.847101 -10.1742525 7.2993665 -7.241136 7.2710996 9.338727 3.7469018 -6.7798367 4.8099375 -4.4192247 4.2362003 9.475132 4.31183 -2.643477 -10.10092 4.0687766 0.98272216 1.0426903 -0.9675021 0.970024 -1.2449101 2.4610322 4.3855996 10.778097 -1.2084594 4.143156 5.237229 0.2150095 8.085757 -1.1792148 -3.0071867 0.11132225 2.8644576 6.860367 2.2468956 2.798172 1.9697864 8.904341 1.732338 7.6403365 1.2386293 0.8693153 -5.1650877 -6.1470575 -5.447
方 -4.555959 3.572848 3.3404279 -3.355963 7.4296474 5.336159 9.417492 1.954497 -4.169709 -6.863325 -2.183766 -5.5817056 -0.68046504 4.482566 1.1655314 7.489594 2.0366275 -8.529405 9.419466 -1.5359417 11.038154 2.929612 -3.2118933 -1.974389 9.493293 -2.5031962 -1.4033138 6.4638715 1.1937472 -1.3922169 2.696928 3.773663 -2.3998635 2.8129325 -5.6183763 5.9623733 -1.9884042 -7.545065 -3.5960376 4.5065694 16.701626 -0.96768785 -13.199769 6.2176986 -4.465201 -13.00087 7.5681763 5.288942 -1.6804825 10.940936
下 -0.9632807 4.467294 -9.184169 5.8767686 7.8073897 7.684812 -9.279333 9.955841 -4.6573157 12.767514 4.545805 1.1113236 -7.717393 3.4515355 -4.2436643 12.179797 4.435644 3.1709843 1.2158011 -3.585953 6.2913175 4.7296257 0.0036796643 -9.41181 6.8522964 4.406594 -2.9687657 4.841239 4.594624 -12.897766 -0.404587 14.670659 6.6444917 2.8596992 -0.80566895 -0.09236259 -10.250625 -6.597278 -0.19768171 4.7836237 5.323775 -3.8874357 0.4624063 2.9477422 3.7147877 -0.66417426 -0.9273733 -6.1573825 -11.78886 -2.612266
ん 3.231923 -6.2760925 -12.323251 -0.23162325 -3.7310078 -1.9665375 -1.307034 -2.6431122 1.1059984 15.807214 5.5816526 -3.145063 1.6064858 0.15669471 -3.832502 7.207191 1.2007567 -10.4148 -4.225932 -5.4220476 -10.045017 -0.077793255 -1.1833016 4.61484 14.954937 6.937907 4.5896225 -7.058129 0.018073075 -0.7944053 19.853148 -11.111703 -5.3225946 -3.0324922 -0.37127176 2.8544352 -1.3706138 10.710843 5.8042383 1.7762091 0.08794446 5.815594 -0.9878977 -7.9794846 2.6884048 -17.66685 12.938894 -8.785122 5.698448 -1.3661824
家 -12.292028 -4.8694696 -9.3233185 2.6133375 0.22915857 -9.449671 -0.6477229 4.51106 1.1710255 -1.83018 9.322122 3.0571752 9.091565 6.4727488 -9.983037 -2.1214128 1.8209782 -2.2832143 -4.516641 1.6303756 6.4249926 -9.264284 -2.7344337 -0.77972215 -6.632377 -4.0867724 0.08752979 3.6478055 -4.9628615 7.1346803 3.1725655 -0.4213445 1.9781485 3.2826283 3.4987438 4.8488517 0.62256193 3.7486136 -3.2966526 -3.4318151 -3.7084367 4.0481553 -7.964694 -6.075428 0.7959518 7.4963293 10.593178 -3.4323444 -8.144624 10.32268
− 10.450574 1.2675126 10.769225 -9.927057 -2.1544294 6.081079 9.327638 0.3692173 -1.6407181 2.3252301 -7.7360144 -12.137673 -0.8030537 3.3788733 3.5071595 3.2754896 -3.0846605 1.0326948 1.3133909 -5.173689 -3.611571 -1.7742969 9.688614 -5.2294526 -4.505892 10.724294 2.521365 -1.4075319 6.8624363 1.5917174 -15.427412 -3.620073 -1.302219 6.59761 -7.7207756 -0.44235742 2.9328222 -6.5121837 1.6830688 -0.22022247 -7.8987703 -9.188605 -6.499384 16.459503 0.80196077 0.13782008 -0.7803604 -2.671464 -5.398118 -6.1276674
道 2.2939594 11.429773 9.157217 2.5056803 -6.5576835 4.5712056 -3.0117812 0.7790666 -3.475678 12.790818 0.75425476 9.282534 -4.426073 -6.935666 -6.233414 5.3783555 12.280187 -9.791373 0.91504276 -0.25979808 -1.0836723 3.6530476 0.78117096 8.316552 6.9111905 -4.2597938 1.5401362 -17.630457 -2.8096926 -11.250584 -6.075128 -2.5722687 4.695317 -1.5932747 -3.184571 7.5995107 -9.780811 -11.938928 8.2033 5.5012336 7.1157 -9.200371 -12.705524 2.0205295 -14.070955 2.879729 1.2747494 -2.905537 -8.422824 -10.364332
対 0.070178635 -4.8457813 6.2399726 -0.40712774 -1.5714948 2.4657104 8.639456 7.0447307 -1.8812335 -7.780393 9.502575 -4.6638446 8.464011 -7.2090335 3.8834922 6.360159 -5.1580276 -0.49268627 1.1301112 -10.697281 3.6970146 -8.950598 -6.621558 6.0724454 8.185036 -8.739076 11.681993 -3.7496517 2.2690103 3.6948097 -9.147985 12.5915365 15.948629 9.504136 -0.27047774 1.5894192 1.1570536 -5.735459 -0.96195555 1.3503788 1.8639377 -3.6050334 2.862238 -1.0852234 -10.987747 -9.596793 -11.031505 9.533653 2.1743145 1.7582784
以 2.1882708 -5.9028416 21.322674 -13.231231 -14.0100975 15.695751 14.696187 -18.755972 -2.7980828 -21.026407 -6.162436 -6.2038364 0.14088239 9.975247 15.481191 -9.56474 -1.279107 -7.7108836 -5.718363 16.90346 -7.5298142 -5.9912467 3.30764 12.748958 -5.903196 -9.625787 1.4828771 0.46890774 -11.301206 16.640799 0.12360561 -19.098818 -9.6657095 -6.849156 12.229346 -4.5987206 0.39141846 -4.8711977 -8.477164 -11.934907 -5.4351625 7.0401897 -0.92867714 -3.2861922 7.023684 2.7232285 -0.8047369 10.529161 11.788993 3.9377203
第 -8.324063 16.74095 1.5107342 -9.19712 -8.721178 12.444689 8.9321575 0.63474685 4.018554 -1.8133388 4.8360844 -9.863116 2.6093886 7.367088 6.0931945 3.4456174 3.330634 -1.8300158 2.0673933 8.247017 1.8185622 -9.700121 -4.0468993 4.067546 -6.849615 5.570675 -1.7292863 -3.3793836 33.632084 1.1026226 -5.5846252 -5.9804397 -1.0888312 2.491226 -3.5745177 -0.5739581 2.3793807 -6.0771866 7.331623 16.5119 2.8318102 -5.260683 -1.0462277 6.7526608 -8.976534 2.6340828 -1.1961157 2.2862043 -6.2284203 -0.055349693
所 7.323824 12.789527 -0.15632531 -7.2646146 8.704747 -4.385856 10.535745 2.3662045 -9.413156 -6.7568316 12.801273 3.5202086 -11.770768 1.6595553 -6.6200953 -6.054656 -0.2268418 4.719028 -3.5061712 7.029784 -5.2753267 14.872217 5.8314757 0.04651622 -3.2717786 5.915276 -8.801711 -1.6401869 -13.1560335 0.17029017 -3.9344563 -2.6769812 8.753465 -2.0739639 9.11167 7.511845 -2.5272057 -0.91934174 5.5904217 -1.3118751 -0.77238226 -2.8499794 -6.627131 3.5492065 -1.8260268 8.16566 12.996456 1.7967017 -5.111848 0.94029063
通 6.3594937 -2.0091372 1.275085 6.9613805 -10.531346 -3.077626 1.1278726 -5.431559 7.6536913 11.086277 -7.276773 9.501762 -6.7442245 11.857617 -5.3580213 3.2848651 8.197454 -18.394682 3.451992 -6.922068 4.503137 -4.0377545 3.8297148 -0.7487261 -13.291978 4.035799 -2.3774872 -4.5039077 -12.438199 0.39412007 -0.8488803 3.6186733 13.36857 5.431203 3.1696095 -7.8712754 -1.7556769 -1.9742106 12.2704 8.762485 7.3501773 -4.359555 -7.4313684 3.8370113 -2.088465 1.3211454 4.98955 7.903661 11.738555 7.720705
体 -3.5184786 2.2985806 -0.7315168 1.7223516 -2.2791789 3.2752998 3.67835 5.7121253 3.5880356 4.3608203 -0.74617976 0.0025957099 3.9506767 -4.249657 -2.3794062 0.29670542 -3.052276 -7.0341306 6.524151 -1.9772675 5.133533 12.195932 -2.5762677 -3.4853024 1.1797684 -4.3679295 1.3266476 3.080103 7.2052755 9.357398 -14.307408 -1.0773157 4.028935 -10.27833 11.322812 2.3575206 11.178257 -7.405644 3.071604 5.5775805 1.657928 3.4700537 2.8392484 5.1079683 3.9370325 -10.857504 -0.7991604 -7.0647583 9.067421 12.688483
設 -8.187868 11.865857 2.8521469 17.085468 1.8552876 -6.4564714 13.505386 -10.23206 -4.120407 9.658975 4.7618303 -11.37629 -27.816137 -12.277052 -0.6843983 -7.6612363 0.6899419 12.19854 -0.16497856 -9.953274 6.3755736 13.001582 7.847234 -7.626876 -4.9088106 -10.759656 -10.838605 -5.163428 -17.589216 16.775059 -9.10966 -7.316471 1.8832233 -9.665933 5.9792094 -13.916813 11.798865 -2.2491999 11.110751 4.1230445 9.020147 -4.64296 10.306969 0.06372195 -8.471331 -3.68317 -8.546971 6.172373 -0.63905954 -12.766406
ョ -1.0076213 -7.0954795 -21.01864 -12.642362 -6.1142316 -12.296026 -0.5278508 0.83327127 4.2210956 -6.97111 3.7513587 -19.713861 2.5490928 9.2618475 -3.048048 1.2508792 -26.80975 0.5768487 -0.87873226 5.1448874 -5.774912 -4.1657596 -3.5371242 1.7509742 9.78439 3.36413 6.3257656 24.035503 -5.903963 5.870076 2.2540274 3.0651188 7.7190375 -5.718528 -3.7586727 -2.860517 12.985419 -5.8372126 9.689941 6.292596 2.2515564 -9.88556 2.6245732 12.066146 -8.955672 7.5767345 -3.8109424 -6.4797444 4.209739 -19.246464
ば 9.00583 9.197378 0.18066418 3.926413 -1.9535279 -0.16944377 9.774979 10.811949 -11.473272 14.750191 -10.120095 -3.700184 -5.6220126 -6.738056 4.2944984 7.837739 -12.8695135 -7.2825847 0.48348612 0.25598824 9.94297 -1.3332868 -7.8537445 -6.1771603 6.573011 -7.3343425 6.9901004 6.6293044 -1.8354026 -1.1911358 3.1269736 -9.0919485 5.043072 -1.2767437 2.3773382 9.857733 -7.8363194 4.944936 -1.902002 -7.8011584 -5.581408 9.661633 7.345111 -6.805705 -2.0514345 -2.0926466 8.891241 -10.989146 12.3207035 -10.11507
軍 4.1187735 5.150419 -0.8056796 8.629289 -2.8126044 -7.227214 -1.5508972 10.611345 3.0583637 -3.9689667 12.285865 0.74286413 -4.0220895 -6.7674108 0.55073 12.741221 7.294173 -3.7945387 -9.048943 7.9097376 4.512062 -0.42702124 6.454508 -6.2153463 5.515564 -13.13507 -9.217383 1.0868855 16.02636 -1.9633422 7.242196 5.4802203 6.170777 -1.6310413 -7.3501263 -1.8364334 2.3402734 -8.984989 12.146284 -3.4863572 -4.108516 -0.07556326 3.7260714 -1.4336038 -13.074683 2.8730993 -3.7634418 7.1247244 -9.482511 8.761391
当 20.96301 -11.577202 3.3441663 11.933075 -0.3270717 -3.4985747 -1.2378908 5.3052964 -7.5899243 -1.9683682 -4.406613 0.8141416 -9.122732 4.8913283 7.0965023 -9.045869 -4.228791 -0.80064446 9.902945 -11.468086 2.6943755 2.280826 4.9170346 -2.5205908 -4.2914405 6.2118683 4.660427 11.355344 -0.15415904 -9.802679 8.29434 7.1415334 3.7096481 -5.605235 -1.9498174 -2.988999 -0.15743415 -17.616709 6.4308934 2.5148547 5.7452927 -2.7909856 9.493689 -18.66467 6.7106214 21.16344 17.93195 0.6894438 7.080734 10.067683
ベ 3.0042262 1.1600412 -9.76758 -0.5717508 -11.299011 -5.5521736 -1.9394064 -3.250864 1.4870071 -0.06711195 -1.3843449 0.33545482 1.2548511 -2.094442 -4.7240157 -8.071516 -2.5899692 -1.7694392 -1.3458846 4.354127 4.1380324 -4.199208 1.8087951 -3.358752 3.0168176 0.7286028 -5.271322 -6.2102222 -1.4705894 -2.4992354 2.3109903 -0.80765456 2.6695297 1.470764 -5.708178 -2.6472158 3.1477146 -5.5105686 -5.81589 -4.5376015 -3.5170777 0.38131738 0.7951002 7.6437287 2.7505708 -2.7273443 -3.4270406 0.51409626 1.4223924 -6.259836
せ -5.427623 -0.0691364 7.118003 9.39494 3.5285797 -7.9697614 6.411268 -3.7051435 10.173206 -3.7940974 -1.446135 4.627349 5.1542096 -6.0130663 -6.280503 -3.5325413 0.5906406 -4.263657 -2.4898546 -0.2834843 -14.296821 11.1652355 -9.853308 -5.5073485 -5.4825525 1.141704 0.5322337 -0.9508932 4.764438 3.040136 6.7671714 7.8849344 -12.938969 -2.1526728 -0.6149402 -11.955318 -5.7423377 4.193615 0.8693232 0.25977933 2.7563064 5.297534 2.7024927 3.216574 -3.0995023 -7.2785897 -3.308966 1.000412 -2.194214 0.30957368
初 -23.1018 10.345817 -3.8489935 -8.826318 -2.833736 2.7733054 -8.340546 0.40651658 -2.839098 6.1132545 16.724604 2.8982198 3.781105 -2.1132092 2.363802 6.410922 -2.8471622 0.018384963 -9.365221 8.234923 9.6269245 -5.7531557 -0.5562251 7.5735517 -6.2805943 5.4634743 -4.053482 -1.0625494 5.137643 6.2796607 -11.909481 -1.8039193 -6.3951864 10.420751 -3.5474768 -10.8230715 -8.1852865 8.040768 -0.45814416 -3.2619503 -3.0941756 0.33385038 -4.566717 9.495119 3.0713258 -9.058109 -17.457933 1.4518663 2.154607 -5.0986605
世 -2.9420564 12.734732 -0.3580393 -2.080008 -9.933723 18.6872 -4.486161 16.914906 3.4360805 8.407785 -4.306484 -4.272076 9.255729 -0.4212695 7.0303226 -11.612433 18.882294 21.80824 -8.951557 -8.331118 21.748158 -4.1249 4.541602 3.1453314 20.5342 -17.54227 -2.4979618 4.889397 10.454499 3.2548983 -12.256303 -20.089722 -7.3935795 -11.152205 -7.843364 4.289782 14.876715 -2.14691 2.5835645 -2.5382764 -4.1595974 -2.26034 0.3012776 7.7071486 14.849619 -1.2326924 5.8864517 3.7464206 3.882277 8.191072
み 2.8992317 -9.506217 -7.8537955 4.4838395 4.848803 3.2051864 0.29950202 -5.974541 1.8079258 7.6391435 3.4839885 -11.12938 -2.9720364 -2.7348235 -9.552228 5.190399 0.95613056 -6.702295 -2.243347 -4.9696474 -12.000686 0.68107563 -3.5550685 2.4208064 12.229641 2.798822 2.3547263 -11.212993 -1.6823767 3.6056712 7.567742 -4.2620115 -1.2601397 -1.1012024 3.0332098 0.9430547 -4.247027 6.627247 7.445876 5.868808 2.933627 3.0328503 -0.4007465 -3.3628888 5.744728 -6.866776 9.8915 -2.632704 5.130627 0.24327178
化 0.29809785 -6.364432 1.571617 1.00181 12.243937 2.8300462 0.43698376 -0.108896576 -2.044891 -1.3635812 -6.789789 -7.38578 4.4522214 1.3647805 0.0863226 -6.7645545 -3.9688017 -4.578444 15.680935 -1.0393355 -3.828728 -8.003031 -1.166309 -0.61808395 3.396744 -18.010529 2.65891 -10.187534 -6.9321885 3.4357276 -11.064604 -6.777948 11.422147 3.9013839 2.9363892 2.9205973 -0.20733379 8.882045 0.9845297 1.0564784 4.483787 -2.8285248 1.5601314 2.3959556 -5.6617565 -6.3659043 0.4959247 -5.214136 -1.1873469 8.849248
在 -1.0174665 -8.148214 -11.640496 -5.798594 -12.692112 15.36977 -28.163292 -16.00137 2.792322 14.606478 -13.604432 -6.916661 0.17790788 -7.247633 11.236671 3.3078196 0.7265046 2.5280318 8.503558 -6.062474 6.4454308 -6.771924 12.5255165 -6.119343 -6.2568846 -1.3130327 10.767522 4.387695 -2.5960052 7.5696406 1.9303135 18.119902 -26.545607 -20.987371 -4.4364147 -11.392782 -3.8846538 -14.616257 3.0778646 -7.738223 9.870443 2.216118 13.270814 -7.6175585 -13.281982 -5.918745 7.0537167 -13.233157 -4.592277 0.6790649
ｐ 11.225252 -6.706407 2.2020342 -5.129204 1.2253577 0.16984865 3.8082893 3.209801 -2.7025957 -0.58630437 -1.920184 -1.1947503 3.923069 -1.4385505 5.7109017 3.3459973 -7.778062 3.8537312 -0.8349318 -8.371213 -1.8351974 -1.0924101 12.038495 -3.7222452 -3.5202906 3.5622396 1.4597116 -2.453454 2.1713307 3.372158 -6.4839754 -1.0033649 -2.7093098 4.776575 -2.9180937 2.0812201 -1.1444381 -1.5957139 0.6620492 7.6474333 -6.800869 5.5204606 -7.8332005 8.40397 4.352979 -5.784618 -6.4612846 -4.684748 3.2290933 -3.4688306
機 14.88614 4.4503446 -2.3008273 -0.08982722 23.510023 -14.953725 3.0623682 -8.551786 -6.412289 -1.7223425 1.1381426 -7.1653776 -3.8492796 -5.3107743 -4.050705 14.539965 4.36655 -12.604943 0.8053988 7.4311023 6.1358027 -1.4268113 18.634888 8.266788 -10.243004 -7.924368 9.301691 -6.0163445 1.4103209 6.5025244 -3.4217763 0.10108294 0.8623057 -1.7845745 3.2831738 -0.96421087 2.1644452 -2.2546751 -14.063282 9.440739 5.2934146 8.098387 9.234372 10.152944 5.4037104 -2.5515323 -0.4542786 4.4552135 -2.5706036 -8.387599
最 16.72871 0.37635154 -3.5463903 15.255913 -0.7528338 8.290868 1.1395314 -12.456542 0.76602155 -13.457909 -9.672179 -5.8478427 -3.0859308 8.845322 8.657998 -15.061973 3.490488 -0.45652786 4.872193 7.690546 1.018774 -4.373314 10.24398 10.495495 13.73734 -1.3544754 2.564442 13.061844 -2.3783963 -0.7078082 -6.7542796 -4.8954597 1.0728791 -5.3393807 -9.78152 3.031011 -3.932703 -5.9991436 4.7373905 5.0783005 -3.1140609 5.702211 -1.897013 -4.951812 8.915212 12.664105 4.116799 -5.3088026 -3.876036 6.174548
セ 1.7449095 0.16839118 -5.9121685 -3.0043828 -4.8327804 -4.755291 -2.4784446 -1.7122542 2.6635294 -5.1838965 -2.506734 -1.709402 -0.20078328 -4.2330904 -0.9707127 -2.8862393 -4.7325006 -1.447893 2.255861 -1.448425 1.8912538 -1.1061518 -1.0467072 -3.326699 4.2316756 0.9448314 -4.00701 -5.558999 -7.6875653 -3.1793437 -0.26232368 2.1912475 0.7547098 2.3707097 -5.798497 1.6126658 3.8229141 -1.6393644 -7.355453 -3.6203222 -4.856443 -1.5125104 0.63384324 6.329262 1.9807277 -0.27066138 -0.7676515 1.1980952 -0.68308365 -6.8526063
現 -5.118352 14.442679 4.2683854 -1.4242177 11.639913 -3.6482785 15.52874 18.840477 -11.291314 -7.043098 12.17327 5.2302604 1.8183742 11.07537 -10.135654 -9.226514 0.9870166 -1.8886595 -1.9574215 4.6303782 -0.5211049 7.462867 -2.9394221 5.0120716 1.952117 0.30092245 -4.194361 4.2659264 -9.502027 -4.6464667 -5.172739 -14.086604 27.504385 23.066366 2.918911 3.16366 -1.6162024 8.146194 -3.723531 -2.54738 -0.029841978 1.7130251 -17.1224 -0.2812712 11.365287 5.4665637 -0.9392761 0.79524773 7.0589623 0.9383271
山 -2.36565 2.8171294 0.97580093 0.2309076 -2.207922 0.9708821 0.76656336 -6.5898547 -1.1051495 2.526208 0.6641889 -1.0588094 -6.2676196 5.2825785 -1.978065 -0.6869442 9.371864 -3.3889189 -2.2338576 0.3848965 8.578175 5.5000486 0.9517326 -5.397583 4.512205 4.505868 8.952317 -2.3216522 -3.028608 -0.7427159 -4.5797687 -4.193148 -10.458434 -1.9386916 4.5289717 5.0149555 3.6417708 -0.59542483 -0.44196078 -5.0696893 3.5405421 -11.428819 -6.608418 -6.9583473 -7.353198 3.1737466 -0.28186306 -3.658807 -2.0053072 3.6420968
ハ -2.0409267 2.3850274 -4.691519 -2.8083029 -5.7584167 -5.096201 -1.855655 -2.528285 2.9230242 -3.806016 0.7405422 -4.2920284 0.35113725 2.368295 -3.6420484 -3.690023 -1.4748788 -1.2447815 1.6826969 -2.88049 1.598963 -5.195226 -0.1630807 -6.900718 7.1129446 0.5884795 -7.972876 -3.9909308 -2.9648728 -2.8873754 7.7995453 2.3859525 0.32040444 2.5620558 -5.997202 3.2533538 9.272914 -5.169749 -3.2959604 -8.392064 -5.987271 -0.28199437 1.1296321 3.0858843 1.2378739 -6.6967254 3.0076454 -0.54050124 -2.6562862 -5.528204
全 0.6832751 2.7305663 -4.1298146 -2.6039891 5.1582994 0.5936185 -1.268202 7.191655 -3.4199338 -13.915191 1.490765 -0.27581516 2.350251 0.92924476 -2.9873192 1.5644429 3.9045901 -9.87012 8.44847 -1.0192852 -0.9837388 -9.982025 4.4434896 -5.923096 2.3125334 1.7695225 3.589631 -7.013564 7.9089966 4.007062 -8.835908 9.372215 6.845538 -4.1747103 0.7452611 -5.0493336 -15.903281 6.864206 -1.9916886 1.3377861 1.5026679 -2.4966545 2.682201 -7.926472 7.6160917 1.7507247 -1.1803508 1.5565007 -2.105917 -5.5007477
多 -2.3425543 1.768973 -3.438689 0.3242631 -3.0413537 1.3895379 -15.301175 11.423671 6.010369 10.964135 14.699831 10.942437 -5.832111 0.18968254 5.2242975 -2.5633206 -6.9671774 -4.7147083 6.751461 1.2932515 6.7058043 5.958169 1.3815002 2.0958762 3.7602005 -0.15641075 -3.6170971 -2.2984676 10.833149 10.898623 6.036017 1.7500069 2.2280755 1.6412382 11.685379 -3.8844352 -14.088932 6.175755 -15.737912 -5.873208 5.1715813 4.55045 -1.8884501 1.0756603 -1.6978912 -4.1100636 5.415785 -3.2209778 9.25162 10.444954
車 7.078422 3.2344508 8.924563 1.4682736 8.716686 -2.0447373 -1.8275582 -17.230402 -4.200437 0.6948036 -4.4732413 -2.0940022 -7.230779 -2.9222171 -9.984039 11.447786 3.6009228 -11.687265 -1.9261501 -0.53400767 4.858191 10.790975 13.892117 8.646672 -9.865519 -0.020483943 -7.8931623 -10.697939 -1.0735017 1.3261223 -6.9676733 -3.0878034 -7.6047735 -1.9759476 1.7099282 3.3783004 -10.373974 -16.759089 -2.6825776 -1.1765885 8.7518635 11.82913 6.8428063 2.5635796 11.085169 -7.1410866 -7.073887 -3.1139882 -4.103283 -8.995635
へ -0.32716405 0.69961053 -1.3197718 -2.5420237 3.5469816 -5.594266 1.1013243 -0.84554195 -2.5163858 -7.6046386 -6.5036607 6.501443 2.3978248 -3.12467 -2.3757708 4.0585775 -0.6889803 0.8580187 -3.527543 1.9330605 3.4063735 6.395742 0.018934734 2.5093877 5.226771 -4.032104 -1.2572134 -3.7661629 -0.53219575 -1.3501036 4.807403 1.8280439 -6.3132105 3.5169022 5.1756516 0.384669 -0.88703984 -0.4785724 5.4330187 -1.2478673 0.35318777 -4.269816 0.85066915 -0.32427058 -2.2601666 -0.8402526 -2.3721848 5.7866936 -3.3527265 0.17812917
表 -21.968264 2.9024003 -20.527002 -2.2546675 2.4568014 12.100856 -8.422864 1.8347007 9.458571 2.646355 -4.2984366 -10.3008375 0.88213384 0.67857355 16.138876 -2.0749993 3.752286 13.426648 -2.174518 7.083012 7.8817782 -0.9150431 -1.3627471 -3.421904 -8.606162 3.4333665 16.520258 -4.021511 -3.4010746 14.879289 -5.5125194 -9.031773 -4.645408 -0.7544921 2.2431579 16.363808 -20.347189 3.030746 0.79825145 3.0637445 -11.201083 13.995143 5.760139 9.681288 -2.8668103 -11.955691 -5.2102947 7.8600755 -0.115640424 -6.839234
物 -3.9690697 -3.6763809 5.257664 12.883492 10.328878 -11.480763 -3.597669 5.3562794 -3.8954215 9.494003 5.420135 -4.5609274 -4.405561 -0.503638 -3.408217 -6.3345633 7.1931796 -2.6364942 2.245261 -3.4926453 -7.056598 -3.2359953 4.8868604 9.165349 -3.0718427 -3.1555195 -2.4520974 -0.025417956 -10.071285 16.436842 5.315539 11.775229 -1.200319 -17.094154 7.8402805 -5.006099 1.0594023 2.7115355 -9.545948 -8.064772 -4.662031 7.0026474 -3.473521 -2.959682 -2.938696 -2.046061 -7.4323473 -8.940501 -0.8325458 0.841297
