6259 64
の 0.6078171 0.71289355 2.3884995 -1.308271 -1.0748637 0.15649632 -1.3279018 0.090395935 1.5163361 -1.0344862 -1.9583701 -0.14619637 1.1781731 -1.3871069 3.6960876 2.294297 1.7784859 0.34434673 -0.019874612 3.323593 2.7826688 4.842988 -2.0652256 -0.1759365 -4.2461195 -0.49234295 -2.451772 1.5972682 0.8936273 -2.7884188 -3.787211 2.072764 2.366663 -1.6174741 -0.6566319 0.06681322 -2.3431904 -0.30914176 -1.2070718 -1.0265185 0.57259077 1.1727365 2.2354443 0.40214866 -0.72221524 -0.5896133 -1.2939329 1.6640292 0.37260455 0.7813167 1.5467364 2.833601 -0.29967603 -1.0979484 -0.858029 4.587719 1.456214 -0.8717164 0.29418188 -0.6760967 1.0305718 1.3204417 -0.95721483 -1.254763
、 -2.2965884 -0.5157182 0.9552231 0.30659467 1.4664671 1.1163709 -0.5732647 1.4887086 -0.3982128 -0.823633 -1.2859017 -0.060756005 0.67607445 1.3021367 0.36278868 0.7770899 1.2225063 -0.24982494 0.27935484 0.34381843 0.38958526 0.62421787 -1.1827482 -2.5562608 -2.2781248 -0.20756213 1.0266489 -1.0927895 0.9141562 -0.8899202 -0.47373632 0.8770886 3.0062385 0.75677377 -1.5407736 0.20661694 -1.0846316 0.9916984 -0.16456161 -1.583096 -0.46345866 -0.1934881 -0.040746544 -0.85117555 -1.1041352 0.38034868 -3.258449 -0.865637 -2.2086098 -0.18688817 -0.16365094 1.6401432 -0.29398558 0.48213542 -0.34355316 0.7887537 -0.44610453 -0.20622638 -0.0560882 -1.4849665 -1.283304 -0.2545433 1.9865493 1.0399233
に -0.66892534 0.41434947 1.0589303 -3.697153 6.2615976 -4.6107826 -2.3487747 -0.13410278 4.426258 -4.3597445 -1.2401742 2.957748 3.5981135 -0.095009565 3.7880425 0.58397484 1.047285 0.41444558 -0.18537319 1.5266892 4.692916 1.3780614 -1.7590983 -1.8138872 0.93695045 0.016877765 -3.379577 0.9245475 -0.89779526 -4.0644403 1.4111974 3.475047 2.412932 3.976709 -0.55688155 0.21652006 -4.3782706 -1.163478 1.1567664 -3.322016 -2.4877276 1.0625559 0.629227 -2.3302662 -4.804175 -3.0838776 -0.3053827 -0.8565333 -0.16002436 1.8059301 1.636537 1.0134972 -3.2433605 -3.2797894 1.9369727 4.4995914 -2.332158 2.310483 3.0324624 2.7540202 1.3860234 -1.9289447 -1.3884066 -0.80005324
。 -2.3135564 -0.7735091 2.716702 1.4766966 -0.5284779 0.5979728 -1.5545791 -0.3298425 -2.7769165 -0.84580773 0.24976061 0.64020056 -0.54929936 -0.61193764 0.016835188 -0.9137577 -0.011728944 2.1841938 0.0058913385 -0.4519107 -1.8061365 -1.0287558 -0.39875966 -0.78828394 2.810415 0.7632546 1.2846004 0.8014015 1.0532204 3.2030752 0.26324382 -0.67908305 2.9085999 -1.2625815 2.012846 -0.5706743 -0.62391317 2.4049206 0.8571651 0.2443386 0.87923014 -2.179812 0.14855707 -1.2264957 0.6136003 -1.5866469 -2.1979463 1.3556706 1.1308347 0.59881514 0.4462722 -1.3249992 -1.2577169 0.06955987 -1.9196632 1.388077 -1.3310384 -1.0048943 -1.2092543 1.4567384 -2.5392015 -1.2870129 0.011285285 0.47073805
た 5.276452 1.7032624 2.1680763 -3.4534225 0.94639784 -4.878327 -0.102732174 -4.688575 4.4828224 -7.719518 -3.0267842 3.9684687 -2.9388096 3.5276616 5.1492953 0.24671167 -2.2666295 -2.352959 7.8688135 1.9779261 9.892579 3.6887293 -2.6665561 -6.6485386 -5.2978163 3.7493198 -8.61624 -1.3370366 -0.23023073 -7.1491065 3.769977 2.6677868 1.5398088 2.2152727 -7.1700535 0.79405403 -3.4186022 -5.1717916 2.0713143 -5.8546 -2.1031497 -2.8054712 0.8952477 -2.1299188 -5.038591 -0.6412403 -1.9476205 4.1721754 -4.1616087 1.0716568 -1.7372758 3.1899512 -2.3371973 -3.7553394 2.1685183 3.4701562 -4.161077 2.826509 1.9503573 4.336032 1.2640518 -3.4381256 1.0502185 4.4811893
る 0.8329776 0.81507117 4.929449 -1.0195552 6.5087028 6.0188227 -1.0111673 3.2342408 2.7950633 1.4833459 -5.9898825 -7.3578396 3.3998265 -6.2895856 6.246883 2.1547241 3.9637666 2.352434 -4.607006 -1.3630583 0.6273641 10.602698 -7.844569 4.0721636 -0.8788855 -5.5210633 -3.3532462 7.9155583 -1.9263644 1.5863881 -0.13765523 -0.43259767 0.72411734 -8.912057 2.4629734 0.72465396 1.8734195 2.6492457 -1.7051691 3.333268 -4.490215 5.3511653 2.8587577 -3.6456413 -0.6092192 3.120085 5.678738 0.64693755 4.928173 9.442328 2.631553 9.461716 -1.9308528 0.59350705 2.0254252 6.6157494 -0.12017871 1.4301614 -0.8012734 -1.3999308 1.4031726 4.0376573 0.19564879 -6.917452
は 0.006670165 2.1899107 1.3455426 3.1145854 -0.7452786 3.6285956 -0.8078305 2.2235024 1.5706996 -1.0169492 -1.9163283 0.023877878 2.2221067 -1.5165936 1.7623619 3.1992912 -0.16818455 1.421902 1.7933632 1.5097328 0.7068368 6.1107693 -2.2963855 -2.489383 -3.5593812 -2.962124 -3.1012325 1.0630293 1.0591483 -0.762242 -2.252872 1.9607145 3.8822417 -3.0321095 -0.30032402 0.445694 -2.3517573 1.0605401 1.0572366 2.9504576 1.0119947 -0.85182965 2.0182211 -1.0071006 0.8429485 0.82877994 0.396172 3.8060772 4.0360312 -0.073949516 1.9760247 4.0034447 -1.8176163 -0.39359084 0.44676596 2.8902278 2.4806068 1.840735 -1.5393156 0.4716488 -2.5415683 0.51189405 -1.4460268 -0.1945204
ー 1.0578496 7.9576607 2.8254702 1.5270962 -0.21425176 -2.811085 1.8738198 -9.1652775 -3.053726 -4.908012 4.314216 -8.36184 -3.4360995 -3.6982186 3.3174431 2.071182 2.4324508 5.2494063 0.4909114 -1.0933701 -3.2172935 -1.7091801 3.4779997 -1.8764707 -1.246239 7.4427476 -0.4037456 -3.371202 -5.451361 1.1018419 7.4273024 0.8632241 -2.8247516 -5.8230147 0.42913726 4.0393786 7.1773505 -4.398739 -4.310721 -0.8112051 0.53882366 1.1420801 -0.11943834 5.6580634 7.2358804 -3.3131707 -5.9685187 -4.1250477 -1.0901688 -9.445519 -4.422348 4.3407083 -2.4919832 3.5581555 4.0386457 -2.9213142 -3.4460537 0.15750128 5.5080547 0.18385655 0.9359304 2.5956066 -7.4756236 0.8201385
と 1.314086 1.3230164 1.8974526 3.9133704 2.3199039 1.7369186 -1.4481833 -2.3626933 1.0016222 1.4456859 -3.3867626 -0.34735152 3.2120843 3.5944538 2.5429237 4.3680897 2.2817583 -5.467991 -0.34022155 3.7874913 7.435683 9.039172 -3.9717698 -1.4086232 -5.1161556 -2.4188554 -4.354621 2.6091526 0.036201723 -2.2030995 -2.8736002 4.6272693 0.9292831 -3.421184 -1.7709672 3.3978827 -0.38894385 0.1050611 -2.7430332 3.7692537 1.8809904 0.5363612 4.2511 -1.6231843 -0.8761082 1.3250691 -0.8940975 4.510601 -3.2330878 -0.6692204 3.0180094 1.0597309 -1.5525553 4.98061 1.3412215 3.2117827 2.016775 4.831345 4.534546 3.0759864 3.6568644 0.9287398 0.83140486 -1.2951789
し 2.5906506 -1.6631005 1.0033374 -1.7553958 6.8811946 -5.8204436 1.4629986 -2.4134693 2.5237112 -3.1723216 -1.051549 0.832763 1.5926644 -0.55604476 5.287675 -1.4509842 0.99713886 -0.32893276 1.7539262 3.2926025 5.4980903 -4.815676 -0.31547242 0.39353028 -0.2486799 0.47289735 -1.0710086 -2.4149556 -0.6376028 -5.9342093 -1.5801206 5.04259 -0.11237154 8.45098 -4.8326287 0.34740457 -1.0518508 -4.1907325 0.10863659 -3.7152042 0.59429026 -2.6557004 0.339932 1.3142189 0.07309443 -0.96421 -2.566051 2.4414253 -6.136632 -0.016874325 2.1934352 -3.4487767 1.8600769 5.243636 -0.0824801 -1.9675508 0.48527622 4.7844586 1.983152 -1.774517 4.497553 -1.191116 -1.7442895 0.8830484
を -4.5502143 -2.5584536 -3.4323776 -2.4872947 8.365575 -4.634696 -0.97674274 -4.089663 -0.50229985 -3.9198608 0.10261778 -1.6720505 -0.47450835 2.5866368 3.7632563 -0.14227967 5.8236327 -4.043298 1.6116221 0.8546344 4.5122147 1.8641694 -6.207624 -5.635107 -8.580421 1.2637932 -2.802131 -2.0631 -0.51224077 -6.3736396 2.1398962 6.9815683 2.2204356 3.2985036 -2.643394 5.538226 2.0556405 1.139831 -2.5326056 -3.6373918 0.084647864 -1.2869565 -1.4443933 1.1737386 -3.8957396 2.1746068 -5.473904 0.19900909 -9.796172 -2.734301 1.2575002 3.237065 -0.38893333 6.48837 1.1958748 -0.25282308 -2.0024898 3.0764961 5.873893 0.16755284 -0.9733837 0.9753594 1.6435893 -0.93051857
で -1.0986236 1.5460787 4.281078 -1.6330657 1.9841942 4.399759 -0.19604018 1.0485259 1.6883646 -2.8153877 -2.9458146 -1.9427043 -1.1903288 -2.5528631 -0.898338 0.30937883 2.1091359 4.798933 0.4638159 -0.28631908 0.41862723 6.681712 -0.24330157 -1.3555146 -1.7666997 -2.073073 -0.31789607 0.2799908 0.3187449 -3.3521307 -2.2532732 1.9922131 5.0010014 -8.321742 0.5047525 0.0031449446 -3.359783 -1.0362554 1.4441133 1.785472 4.305614 -0.62646157 2.205575 -0.96897346 3.142941 -1.21965 -2.7167547 1.8351401 -0.67655164 1.5685533 1.5262306 1.440096 0.33568975 1.5189251 3.575218 4.0970335 2.6611197 1.375002 -3.393643 -3.8876033 -1.8919035 -0.05937283 -1.385048 -1.2184612
て 1.1989046 4.6354876 0.015367239 0.1717732 6.7441645 0.30399114 -4.042441 2.424763 1.6885027 -2.351904 -1.8148232 -0.7643827 1.7688799 3.8210237 3.8086483 1.3078992 3.281728 -3.2738354 -0.7761152 1.9954056 4.762868 4.3868103 -6.9183965 -0.057607558 -5.5795493 -1.9557877 -3.7646427 3.3578415 -2.142894 -3.33359 0.21614772 0.75982267 0.88545716 0.8939142 -4.36533 1.4559805 -5.085317 -0.9281425 -2.1770601 -0.8177027 -0.8286276 -0.4954896 2.9771342 -2.1809251 -1.0026273 -2.6923087 -2.0369964 2.1194925 -0.7461538 1.6625684 -0.020153165 3.7314765 -1.5521014 -1.5136273 -0.55249107 1.6792357 -0.46367377 2.5348883 1.1799071 -1.9117566 0.6509165 -3.0607135 -3.465397 -1.91803
い 3.4035723 5.588747 1.3443918 5.420987 2.1453812 7.776834 0.6829318 5.625348 1.0341015 2.2204554 -3.106829 -2.3932002 1.971444 1.3107402 2.7770622 4.84376 1.5020733 -3.1664407 -4.9410515 2.2724805 5.0558743 3.2748408 -9.944031 0.3870739 -5.190931 -0.6428844 -1.7230462 3.2827744 1.8130696 -4.9022408 -4.02086 0.0315189 1.7085656 -2.5103402 -5.357978 5.07817 -3.3473957 -1.5605091 -4.8098907 4.9162836 3.203038 0.18851101 3.0255544 1.5985354 2.878079 -3.3890994 -3.328212 8.408471 -0.20351216 1.6733497 3.377815 1.7426876 1.3602735 0.9384405 -1.8054979 -4.0335703 3.7273843 6.194652 -0.5292564 -4.067004 3.0585966 1.5980844 -1.5450615 -2.1386456
が 0.25148425 3.7314446 1.0635476 -0.8317693 3.6870263 1.203375 -0.58763725 4.1598816 6.2844625 -2.8131895 -1.7456834 -1.2018186 3.5786586 -1.5985798 -1.0335375 3.067822 1.7736641 1.9646279 0.12581433 0.8576067 7.699793 4.849957 -3.868112 -0.9765351 -6.823485 -1.2489983 -3.4750824 1.9282916 0.47748882 -4.5230584 0.8029945 5.001527 2.4464252 -0.8093504 -1.5206665 2.4553926 -6.622711 -2.3437064 -1.6326936 1.730859 0.14423445 3.1236293 0.5908225 -1.3327718 0.90927446 -3.6178367 -3.3989975 3.0282817 -0.76775694 0.26345196 1.4361074 2.5357358 -1.1476187 -0.5555198 1.9376309 1.5133259 1.5742333 7.26345 -3.849681 -0.84815216 2.2047422 -0.4483772 -2.89343 1.5342965
ン -0.12114082 3.8726125 3.7442436 4.111987 -1.3565927 -6.336779 1.45275 -4.4690657 -1.442678 -7.437616 5.688293 -5.0574584 1.8390822 -2.5986955 3.573209 -0.5141203 1.718065 3.5058506 2.6723795 -0.7179258 -8.016507 -0.8697072 3.072363 -6.1547146 -2.2368243 5.523941 -1.8211626 -3.5092316 1.4301763 1.6930821 2.3083134 1.9514785 0.11269795 -4.1556 0.8043142 1.9566463 10.517012 0.19068262 -3.6822093 -3.7822185 -2.5498242 4.477205 -2.4108858 5.425188 5.7431407 -5.480447 -4.0488873 -6.40133 -0.12998754 -8.278252 -2.315415 2.3778126 -0.14440247 0.85295945 1.5073265 -4.2689047 -0.8804896 -0.33727062 7.33743 -1.8830369 -0.13143042 0.9011471 -6.614809 6.2556176
1 -6.762336 -3.6121643 -3.7019613 -7.4982796 -4.120154 -6.0053864 -0.14506947 -8.046342 -3.9291325 -1.8420427 1.174455 12.221467 2.4672227 4.898804 -9.641216 -10.053605 -8.590986 5.938989 3.2525399 -0.81278276 -1.6213026 -8.215663 13.265712 -2.966223 9.569735 2.0442472 4.2950106 -3.519435 2.5091777 -2.7174792 -2.2316816 0.14249678 0.6835044 6.8827267 5.964601 -1.8691615 -2.031043 -3.4163575 10.94557 -6.5774097 -2.2537138 -10.3173 -2.1017241 -0.24808544 -5.9222 -2.996276 3.5937061 -1.068453 4.1772895 -2.7879987 -3.7666433 -5.8798213 -0.50294685 -6.0074544 -1.1609561 -2.953309 3.501071 0.36275482 -8.411091 9.784813 -5.5143013 -8.487476 4.9882827 6.926028
れ 1.1378611 11.386875 6.6269403 -0.635065 -2.6116352 2.5936337 -4.9076853 -3.3272376 10.520191 -2.6648128 3.879077 5.637793 3.3083265 1.821393 3.5569596 -5.389441 -6.348131 2.1939125 3.935119 3.4765575 4.413884 2.4246926 -3.97644 4.6019754 0.18993573 -2.471819 -2.3533576 15.767998 0.18093126 -5.811104 -4.568253 -4.430163 -2.0753994 -0.0030509555 0.04579956 0.19628134 -6.5981116 -0.7968194 -1.9817067 1.836296 -3.1485972 0.82979906 3.7991893 1.6800045 -2.069968 -6.2379622 19.484373 4.0320735 1.0762783 10.967749 7.052646 3.9411519 -6.5628176 -6.095531 3.6907356 2.622973 -11.372364 -0.35168195 1.9240359 -5.3884215 14.297102 -7.9991984 -4.731479 0.31114933
な 6.6422033 7.182912 0.32121432 2.0422766 7.000664 7.8714995 -2.364935 10.318602 5.4933414 1.8144814 -6.0525637 -4.933765 2.8402762 8.781068 -0.28813273 1.3775916 4.692049 0.46238968 8.264208 3.3071904 4.609809 5.7795854 -5.221157 -4.0778747 -1.111524 0.29219565 -5.1068525 1.6219023 1.4317528 -4.9608455 -2.4357185 -3.190666 -2.4542365 -3.541542 -7.147957 5.6630487 -2.7917829 -5.3766155 -8.742599 -1.9417932 1.7716256 3.186141 1.2608905 2.7405474 -0.90746206 -0.65939605 -2.6338484 3.290925 -5.601118 5.731769 2.9466734 3.2586946 5.0469465 5.6748195 -2.6163087 -0.8826413 -1.6680024 6.624941 0.12493841 -10.325451 -0.3753684 5.1568694 1.0471011 -2.8137317
年 0.76275516 -14.560926 3.2592812 -2.9270113 -0.6964922 -9.75576 4.8411818 -10.962227 -1.5463997 4.3828855 -2.8952374 9.5556 -2.5183167 1.2702113 6.0228477 -11.375376 -14.454835 -5.556733 0.021175137 3.3480651 4.7188973 -3.3554108 15.660667 -5.415345 10.948143 9.608303 8.4774065 -3.978006 6.3284626 0.15145992 0.7463009 -4.4907055 3.1343691 11.656592 8.750404 -4.3404903 -3.0387652 -16.400421 3.8715231 -5.1364875 0.61624074 0.1429775 3.7200332 -10.376488 -0.8462376 16.133467 7.9743404 -2.7675884 0.92947793 4.700788 -2.1436875 -2.3893955 -9.871277 -13.057819 5.7268066 9.196194 -6.20617 -2.1760411 -3.3089283 19.280602 -3.1430848 -10.857341 15.604946 10.928636
0 -2.3639145 6.30106 -4.488852 -10.307187 -2.0724978 -11.940996 11.421825 -6.1410885 -11.308958 2.5489411 6.200552 3.5366507 -1.5189775 -3.0526001 -11.2509575 -14.60576 -5.1586742 4.3516636 6.71548 0.60748976 2.351836 -5.386137 14.037908 -5.173433 8.389717 -1.8725201 7.0697865 1.5174272 -1.2641765 -4.7092237 -4.7212706 -2.7549527 -2.204536 -4.6285315 9.361733 -3.4773862 -6.6907926 -7.0031004 6.689035 -7.9661617 -1.170101 -7.2867937 -10.129418 0.8159109 -0.4946613 -5.1329746 2.740166 -5.813437 7.1435795 5.6891975 -9.38351 -7.54651 -7.7226844 -4.8475504 5.7082725 0.038278453 -4.743623 1.8984034 -15.138764 9.161884 -3.9320815 -9.826201 -2.4303062 5.261959
2 -6.9793196 3.3198917 -7.0505753 -8.693228 -3.588564 -7.948715 4.544839 -8.154194 -9.720387 -0.39201078 1.9293593 5.835293 -1.1327398 1.8535683 -16.480768 -9.94701 -7.868342 9.28709 3.7342277 -3.61056 -2.659057 -6.426171 11.210748 -4.353623 7.140967 -1.1138703 6.18628 0.1368772 0.09797362 -5.6207547 -1.5315586 -0.8154281 -5.672461 2.7473624 5.94511 1.1386812 -4.170346 -4.088342 10.4768505 -2.9669602 -4.556784 -11.016314 -5.969095 0.024061728 -3.7038836 -5.5602183 1.1669021 -3.3655663 5.325391 -2.3405945 -6.09661 -12.397534 -2.1694646 0.94321114 1.4306939 -5.132737 1.4182843 1.5271201 -10.821347 8.017319 -5.0535297 -6.7777843 -1.036231 4.755277
ス 1.232176 4.298085 2.9466178 -2.0421565 2.572437 -4.6821766 -0.34211868 -4.392503 -1.8452817 -3.411585 4.1916738 -6.518895 -2.3343086 -4.668276 3.6551332 1.9864168 -2.510693 3.6092277 -1.0916694 -5.52332 -4.7946606 1.4184635 -0.7160984 -5.1104875 -1.8751981 4.3816695 -1.0204451 -4.8724027 1.388699 -2.0800366 -2.5365734 1.2252473 0.3102121 -2.0758777 2.083749 1.5335275 9.933928 2.6957061 -1.218087 -0.54084057 -1.2632021 2.3405712 0.09749607 -0.7459703 3.7997632 -5.174096 -6.2349567 -4.9797163 -3.0548246 -6.30317 -1.8659197 4.8412347 2.7707365 1.0112479 1.1457793 -4.601199 -1.2536032 1.3826799 5.1523685 -6.2272205 -0.70015055 4.302461 -6.343562 4.6575923
ル 1.1264 4.9505167 1.7041997 1.7925748 -6.9267836 -13.491983 0.6804086 -6.347823 1.0278739 -6.5794754 6.5108433 -0.82366 4.931498 -1.112484 6.397257 -2.8268616 1.9790258 7.0316377 5.5488353 -0.14719564 -8.236363 3.2287593 1.8963186 -2.950665 2.1998272 3.1045167 -2.5094647 0.47523677 5.42762 1.9063 -3.8984013 2.456037 1.9508761 -4.4997315 0.7862558 2.2416127 11.242686 2.3821597 -0.2449024 -3.0509024 -1.2053604 4.7474 -3.808632 3.5738013 5.3010874 -3.5248942 -3.1120296 -5.2329845 -0.076349646 -8.024237 -1.8964158 8.186946 4.4307985 1.2356693 -1.3343426 -4.0901504 4.1851854 -3.1186967 6.759299 1.8711201 -1.1049321 2.748738 -6.123535 5.7384005
っ 3.9237056 1.4576248 7.997797 -2.1035292 13.221358 -4.694906 -2.062042 -3.6248016 6.62065 -7.411574 -1.5791799 2.3550243 -0.6098082 -6.6456375 9.278808 3.54193 3.9274132 3.597117 -2.0468388 4.1208324 6.3832593 -1.1088037 -7.248439 3.7850723 1.1181794 0.12902893 -2.3144896 -6.155668 1.6718979 -12.520432 -0.062025324 6.5820403 2.651405 3.3644369 -0.4896889 0.1138052 -6.5861998 -6.5179234 2.580299 -8.501538 4.8792906 2.9339895 3.9434114 -2.4048445 2.8798726 -4.1414356 -3.1953702 7.194255 4.3593793 3.3771136 6.3987904 -1.9314277 -2.7824302 -4.62971 2.719191 3.5937052 3.663599 7.0470424 0.94718516 -1.8946466 4.631838 -1.7978439 -2.9655926 2.2908814
ら 1.7828848 0.19167283 -4.403886 1.7839268 8.645085 -4.5476527 -2.345854 3.714219 -1.347235 -4.64264 0.3462036 6.615776 0.7376214 -0.33260262 4.277951 2.5280836 3.1781845 -1.2037182 4.343938 -5.030206 6.456305 7.4473543 -9.108328 -3.6360197 -1.2293965 -4.307141 -1.3718939 -4.256378 4.0449452 -3.9562879 -1.175311 4.8350687 7.618805 3.8488903 -4.4446497 3.7687008 -7.615591 -5.9613495 -1.8236527 -1.72671 2.2363284 1.9833193 6.253051 -1.8640101 0.2055167 -0.84279835 -4.8150716 6.1704316 -3.7342768 2.4068506 3.4472013 5.0663114 0.7966496 -5.7794952 -2.8468618 2.524271 -0.4775324 5.200545 -4.4672675 -1.226378 -5.3990636 -2.3645337 -1.0432024 0.11562907
か 5.4718046 5.355556 0.22483219 4.409803 -1.2770888 -1.0799491 -0.29047507 1.9558907 2.598001 -4.242825 0.012283527 5.4348044 -0.13888301 4.2320185 -3.519498 0.0832895 -1.6453414 -2.82322 -2.0904813 3.3137486 4.344177 4.903483 -10.662978 -3.4183311 -5.5194616 0.988963 -1.5867817 -2.119546 1.0365987 -3.427512 2.789342 5.439579 6.443319 -3.839413 2.4769135 5.243296 -5.645526 -8.521857 -2.6289504 -4.393239 4.378265 -4.973125 4.401608 0.061299827 -4.8292403 -7.4198985 0.7227415 6.667455 -2.4892197 1.1316133 4.468051 2.651371 -7.990812 -3.0814536 8.865309 -6.1272383 -2.1647663 6.3624096 1.5298325 3.0254896 7.19528 -1.1571249 2.2230983 -2.6422455
あ 6.0537295 6.6149755 -1.3310837 8.179163 -10.501562 13.085444 -0.0043007545 11.788386 -1.4111 10.129731 -1.7423844 -2.1772382 5.823362 5.9817486 -5.257082 2.6071138 0.6381252 -0.9550976 1.3141282 4.99753 -0.19546391 3.6054914 -3.9031975 -1.978795 -4.153913 -0.8559871 -2.383675 8.823535 7.004464 5.822447 -7.1644645 1.8312154 1.7459216 -9.347864 -4.9741316 0.6228657 -0.16789602 3.0485268 -5.0420117 7.7163024 4.2316465 -0.87632114 1.0224897 2.8767323 3.400664 -1.087026 -3.6945853 7.574344 -2.7851002 -4.323467 5.3021293 2.6903174 9.739921 2.3438933 -3.0718591 -0.7542252 9.97823 2.2331307 -2.6656854 -8.038406 -5.3996534 6.9328628 -2.0892785 -2.994384
・ 0.5114009 -2.2701547 0.34255224 1.4244322 -4.342827 -5.799612 -2.553967 -8.32636 -4.681375 -2.0334198 1.5695797 -3.3049324 1.610952 0.4245134 4.5761366 -2.4768736 1.8320673 4.1225963 6.0399575 6.1115856 -9.36347 -8.207595 11.6093 2.8642812 1.280789 6.9310975 3.9513865 -6.8631215 2.1775203 3.0042875 -1.5065249 -4.859085 -6.414666 1.6151379 1.8797458 0.21617374 2.5782163 3.7864542 0.36918092 -1.2601168 0.034851816 2.2549386 3.264736 1.0381676 1.3596797 -4.9025345 -6.4370327 -5.329681 -3.076825 -6.690353 -6.8649054 3.858956 0.017044047 -1.3049346 -4.113792 -2.1494775 0.9979254 -11.484157 6.4425282 1.5284245 -0.60288876 0.29500136 6.2220025 4.452087
さ -3.207541 -3.4744449 -8.313306 -2.616266 6.2588587 -2.9243321 1.4478043 1.8694539 1.6481673 2.4317012 -0.03361631 9.483935 9.219074 0.67787963 4.3978515 5.089631 -0.9159364 -2.3369644 -2.6143925 -9.374619 9.447895 1.8032433 0.6545873 5.601191 -5.940648 -7.5271773 -2.9713202 -1.7401677 -3.8337612 -0.5541759 -0.7199413 1.7603058 7.481983 11.1456995 -2.7916987 7.549063 -5.912081 -8.165877 2.7094343 9.108854 -5.8866224 9.460077 -5.6644053 -2.7433321 7.5125103 -4.1095014 -5.17491 3.079249 1.4262261 -10.745004 -3.0834033 0.84369075 9.403184 -10.76144 -3.8122182 -3.5382636 10.911556 4.372715 -11.172573 3.629733 -4.0642853 -9.292255 -10.454552 7.2784963
ト 1.7664618 3.2439506 2.5962136 -2.2189267 -1.9633902 -3.6867225 -0.85082835 -9.104412 -2.1663246 -4.498778 2.719033 -4.8738413 -5.1538105 -10.105989 1.116717 -0.070562996 3.0139642 6.429907 -3.0357053 -6.742812 -3.4809933 0.29794797 -4.6090775 -4.3487463 0.79216164 3.2798548 -0.06925755 -0.77636534 -3.0339499 -0.16990294 0.68853396 -0.25448138 -2.4030879 -1.2140132 -0.5893412 3.5161955 6.360842 -2.9914117 -5.0052357 1.6396823 -0.6133198 2.757908 -0.15480436 7.698009 5.030533 -6.783871 4.28848 -5.698935 -1.7791156 -3.379671 -3.4527893 8.146968 0.8579724 -2.8776462 0.4787539 -0.2637977 -4.2799554 -0.6551604 0.21705556 -6.398658 0.3075615 3.789889 -5.177533 2.2687669
り -1.6422316 2.5644321 9.502079 -4.154064 16.933681 -5.094578 -4.9280257 -1.2396553 6.7123604 -7.5386987 -2.693874 -4.0288925 -1.0744731 -11.70773 6.656338 1.6221856 8.235819 7.0589685 -7.3494234 -0.8655875 1.2404556 -0.26866633 -10.7152815 4.587253 7.436464 -0.31952733 1.3298116 1.6660066 -1.7744778 -10.7353 2.9260125 -4.301359 -2.3408606 -1.7473234 3.3788679 -2.8452947 -10.479454 0.13746302 6.8645687 -8.508308 -0.0064386106 2.4062278 3.055868 -2.111458 4.2901754 -4.654988 2.5948436 -1.0860225 10.534174 13.171952 4.578047 2.7310312 -3.2925262 -5.9740205 2.6356208 8.200048 -6.418594 5.1836843 0.64306957 2.9678593 0.8927398 -1.485582 -4.1977134 -2.924677
（ -37.583836 2.437689 5.824925 32.008217 0.6774535 9.804913 -6.1519136 -3.2581325 -22.058678 -18.37043 10.412309 5.3761754 -8.21562 -1.6555563 -10.996522 9.721413 4.7696037 -14.434837 1.1949328 -5.580326 0.35798633 25.940117 15.2145 -21.087202 -17.359993 -10.665002 2.452805 3.748534 1.0788877 2.4863222 15.00891 -1.2463646 13.133785 -11.942036 5.255123 -0.9538133 -16.143484 34.404095 26.044044 16.373802 -5.602808 -0.50673145 -9.242059 -19.967709 -2.0614274 24.020887 -26.643797 -7.7606754 18.771595 -11.312852 -15.637274 17.54699 -16.630587 7.4471674 -22.761774 17.799868 -11.702991 -24.805584 -4.9648514 20.586329 -21.619041 -12.962855 19.210827 22.580265
） 16.707125 -22.337181 -1.1404686 -16.788748 -9.484148 15.243746 -8.427714 4.026182 7.6473656 27.00253 -7.856767 3.6159341 7.631431 12.729862 -13.644983 -25.111074 -13.544203 11.935643 -6.925281 -1.3673127 -14.9505005 -29.291697 -12.125053 34.26516 36.637054 6.624468 4.7284217 -1.4474373 3.8081112 14.242654 -19.029562 -21.405663 -21.618038 7.7972054 9.510527 -14.362008 19.542826 -9.250614 -12.65582 -0.81069756 -2.1929643 -12.361758 8.8769245 5.6057363 13.430218 -9.245359 33.701515 10.001149 -1.4909885 1.9740629 11.239965 -20.248272 23.246536 -7.3875146 8.13741 -28.988129 7.3716702 6.6045895 -2.8095303 -8.204129 6.832718 10.742031 6.6756754 -10.942536
も 3.2676032 6.7320814 4.2277555 2.111135 4.280546 7.789675 -0.97146285 5.6380706 4.634752 -0.4529229 -5.4749475 -2.7700174 1.5994606 1.6626015 6.189524 6.3037605 2.8666067 -1.6931851 1.0626725 3.6966197 4.6126103 5.809028 -5.822304 -0.512563 -3.489626 -2.715113 -3.1855254 1.0752934 -1.8207487 -2.335058 -2.2228932 -1.9293457 1.8123119 -6.5346813 -0.71769917 3.5430002 -4.303409 -4.6439414 -2.9587798 1.3614162 3.3015537 1.9814285 5.207675 0.950586 2.0093074 -3.065821 -3.050892 3.1688478 0.46150327 4.59443 2.4191074 3.1288095 -1.7909214 0.13397586 1.775148 0.7342245 1.8145002 7.1598587 -0.5784175 -4.4427214 1.3238878 2.6112127 -1.5357302 -2.5094564
イ 3.0139456 7.0063257 -0.023203678 1.936715 -2.0664089 -4.7813096 3.579854 -4.1717978 -3.0353775 -6.118441 1.690869 -8.732879 -3.6832724 -3.4378254 4.143121 3.2353637 3.4428377 3.1767435 1.6939781 -1.937772 -5.933253 4.7887573 1.3361919 -1.8129182 1.9997668 0.7104971 -5.498099 -2.6531475 -2.959303 1.2283881 -0.39487466 2.819087 0.48137528 -1.3225555 2.0412135 -2.1025875 10.449576 0.6335669 -5.2349114 2.0913587 -2.465689 -1.2044531 -1.3017099 3.3053877 7.4549336 -3.8592968 -0.037568156 -3.1612093 2.5145638 -5.977482 -2.870296 8.124213 -0.8983758 -0.017729828 -3.3439417 -5.0084457 -1.372765 2.416514 6.9478607 -5.4845505 4.00083 -0.2920662 -6.6588783 6.0897794
リ -4.527808 3.1730173 8.673366 -1.9805788 -10.4891405 -4.9464192 1.2636232 -2.9000442 1.6889111 -8.053689 1.8525016 1.9414204 5.1400795 -1.1174562 7.724361 1.4874431 4.406787 2.6858609 4.8879 0.25222257 -9.659723 -0.9567089 4.2653937 -2.7995315 5.1264434 -1.807902 -1.8849891 -4.036408 6.414195 -2.6390672 -0.9188472 1.4605128 5.248426 -3.6154613 -1.9037558 4.104648 11.505585 -1.0658351 -3.6206625 -2.802181 -4.4336896 -0.94113016 -1.3323735 2.875259 4.9355187 -4.9637456 -4.4590545 -6.1730194 -2.2168198 -7.019447 1.8499962 3.8152092 -5.2408524 1.6794236 1.9771371 -0.2596649 3.0234044 -4.7253613 8.768658 -0.18608049 -0.024651336 3.696369 -7.031701 -1.2811991
9 -11.451307 -6.297511 1.569635 -2.967016 -3.6827183 -8.940758 -2.5173476 -8.590454 1.6534741 -3.7039123 1.6384612 13.792674 0.99022025 10.248603 -3.7928386 -10.164733 -6.7086244 -0.52368444 2.9655302 1.0405233 -0.46464744 -10.736487 15.627834 2.5349052 14.506964 4.929977 6.5337934 -6.2728004 3.5425622 4.329185 2.27511 -3.156148 5.306874 8.857702 2.8705924 -1.7669617 0.03649099 -6.416691 9.626479 -11.847025 2.3013542 -9.239063 -3.3591635 -2.5989106 -5.852293 -1.9671742 -1.642855 -1.5266073 0.8797515 1.5868949 -3.2030818 -2.5681129 -2.1580703 -8.1826515 -2.2787466 -5.1574297 1.4790896 -5.452039 -7.9926615 7.7406664 -3.8513641 -8.160661 6.9482074 6.9303193
こ 7.134108 0.25124002 -0.038304813 3.8170605 5.6576324 1.0691594 1.3709025 4.1677866 8.375273 -1.422581 -2.662431 -0.6999472 6.61817 2.905184 4.314273 3.025101 4.336749 -0.87312603 -0.5482993 1.7209175 5.747734 5.227963 -9.210534 0.21957895 -1.4444201 -4.405756 -5.4844294 5.1395907 -0.027792444 -4.8621016 0.5552951 6.4430127 0.371048 -1.0778812 -2.896113 7.401029 -0.4580445 -0.32841673 -2.130384 2.7719038 0.04854114 1.7515723 4.6103487 1.6624441 0.36845267 -2.671452 3.2837539 7.5536127 -0.14345887 2.1504803 3.014308 3.2374525 3.125095 3.4681516 3.3008928 -1.3842636 4.262065 7.4940023 2.4704611 1.842566 2.4560695 5.0989776 -1.7189122 -2.843844
ア 0.33906832 -2.705292 5.9444833 2.5117204 -15.628283 -2.8189468 -1.7227533 0.256234 -0.8309913 -5.8191853 -0.43551892 -1.2076364 7.3009934 -7.439364 7.10613 4.6565366 -0.8825782 1.7229961 3.9379303 0.0021487873 -5.6869736 1.7719231 5.7107863 2.0642624 5.0608344 -4.5377045 -2.582273 -5.2344465 4.354747 -2.0220325 -1.7018069 0.813145 6.3270817 -0.73995525 -1.6199456 -0.79896045 8.428423 6.374358 -10.43485 -7.5718045 -8.373211 1.2207718 -1.8828173 0.30676177 5.399279 -3.5461006 -4.9225163 -3.0005724 -5.0100994 -1.541402 8.382834 2.8240147 -0.10490752 -1.2722083 0.16002621 -0.5030166 2.344317 -0.5202445 13.009272 -1.3916863 -4.9577274 -1.6086867 -2.8841677 -4.7737923
す 4.168358 -1.3952476 -5.1651692 4.439261 5.502692 6.9855366 3.8121228 5.5599885 1.9154817 -0.41979402 1.7802777 -6.325401 5.4187293 -0.32426473 -0.2217957 -1.4631374 4.5097923 4.203897 -1.3026905 1.9501233 4.8906393 -0.13757336 -4.423281 -0.9274352 -3.189373 -0.8036371 -1.6090478 8.752766 0.44789916 -0.60053366 -4.149951 1.4911159 -3.206465 4.2480774 -9.310492 4.5442066 6.301052 1.6997113 -6.4903483 5.600911 -4.0688176 -2.504649 -2.5066755 3.2890427 -0.041251697 1.3852057 4.045879 0.9330946 -3.7925441 3.0673685 2.6238866 1.3635342 11.539213 11.405119 -3.1742318 2.154572 1.0426297 2.1201754 5.180349 -4.7450414 2.8570578 9.243903 -5.388567 -4.1319633
ラ 0.5271896 8.104469 4.5000534 1.6684966 -2.3879557 -11.037991 1.0452682 -0.29089847 0.83352745 -3.2477133 3.197607 -0.60224295 -4.823486 -1.9188708 6.97583 0.91773516 -3.3265984 1.6825402 5.1316447 -1.9329742 -7.3278837 3.330098 -0.6400359 -5.671023 2.417891 3.9138653 -4.0698214 -2.4761665 2.7044654 0.26258826 -2.746913 -3.1030965 2.026155 -6.3817 1.9475328 0.361309 15.586052 3.3206902 -3.8696918 -0.6443448 -3.383146 -1.4195874 0.51734006 -0.09429707 6.146314 -4.770754 -1.754606 -6.492257 5.903476 -2.298988 -3.2926226 4.843629 -2.2390206 4.1347475 -5.008633 -1.7910942 2.0137198 3.305446 7.216506 -5.333493 1.7284791 3.8483412 -6.0432696 6.068125
日 2.0330665 -12.03371 9.312793 2.4646885 -5.8345976 4.0054846 8.40157 -9.292254 -16.69242 3.4674313 -11.356959 -9.229418 -4.2612085 -3.3464696 -9.515834 8.859865 -39.881252 0.72541517 -14.290429 4.1826606 6.4436884 2.6223626 14.709954 11.027679 -0.89798117 -15.671838 0.9011282 -20.128283 -6.0018706 -7.14323 3.5374722 -11.6705065 10.438252 8.380218 11.733951 -7.660458 11.188837 -0.33808464 16.60257 -3.8173025 -15.339854 -19.40314 1.425966 4.156507 10.02107 16.790436 11.013027 3.7924979 -1.0240862 -1.7879288 -5.506659 -7.1818748 -18.612816 -2.9772987 11.610873 1.8123069 1.6629636 8.06206 -8.431891 21.146759 5.973064 -6.24208 14.099505 -2.7310119
ッ 1.3433622 5.6776805 7.660267 6.1236243 -1.662054 -4.1177006 -0.9226933 -5.984856 -1.1333828 -0.99964255 8.461399 -3.9026892 -2.019977 -7.351301 5.2265267 -2.6898506 -3.7588112 2.8933067 1.9500102 -10.973303 1.040302 -0.4365578 4.3177 -7.4128594 -4.757177 12.093373 -5.0995827 -7.410028 -8.676276 -4.8618183 9.359638 -2.7564495 5.1739383 -10.220901 3.8857071 7.5887194 7.722211 0.86929405 -1.1632835 0.28157893 -0.6809551 3.753727 2.6620774 8.025663 6.632868 -5.6475835 -0.49276257 -6.8969984 4.0802727 -5.044273 -3.980037 1.2594973 -0.6113975 7.662464 1.4307822 -6.391437 -2.440098 -0.2836477 -3.6823866 -0.27375102 -0.06822895 5.999485 -9.396821 2.887701
ク -0.36238956 -0.3480208 2.9450316 1.0383248 1.2492872 -0.70883596 -1.0936826 -8.990392 -3.169039 -4.3542533 1.3033488 -7.4320807 -1.136923 -7.0817885 4.133751 1.9663874 2.21911 7.229336 -2.4427094 -4.1320176 -2.8767366 0.8302143 -0.9775568 -7.4620304 -0.42081088 6.882329 1.7021512 -0.68535626 -4.5814877 1.8073778 1.1780611 1.1881862 -4.764084 -1.2877046 -0.18796201 3.4796424 8.994833 -2.7085261 -7.6980515 -0.104991674 0.0791252 4.2793636 2.4358032 6.68936 4.900725 -7.4333644 1.6089463 -6.84199 -1.7879093 -4.2686176 -0.8311588 7.271309 -0.93792313 -7.023864 0.76851475 -1.4103516 -7.1023583 -0.86785644 0.5047313 -6.3517885 3.4414387 6.206189 -1.8085808 3.562444
う 3.6401737 -5.813633 6.527566 7.7310185 20.777905 6.6645665 -6.246 -2.8627741 1.6799769 -3.6502352 -2.7396994 -2.2632217 -2.571475 -0.8006474 6.6951923 3.496326 9.433588 -3.1465628 -9.71131 -1.6376435 -2.072563 8.070406 -22.690372 7.988815 6.189352 -3.0326355 -8.174895 2.0141242 -0.7805648 -8.259398 4.1512885 -4.586104 2.8544166 -5.915056 2.0074062 3.4055622 2.4789367 5.3700914 1.9926313 -2.1218975 -3.7309914 1.0376242 7.3324294 -6.3649974 6.6197 4.7507834 5.899724 10.91032 9.233682 10.144231 6.512834 2.4177487 -2.16064 0.72687507 -1.6596196 -0.005724803 0.113426186 -0.08969773 0.24664834 3.1294427 -0.5183178 6.4129457 5.0569987 -3.4062343
3 -6.073304 0.56285584 -6.528059 -7.4280906 -4.384758 -2.8614838 0.4925636 -8.525536 -3.4956107 -0.3292654 1.9190209 10.638519 2.3778903 3.8827453 -13.15906 -8.515111 -6.4117613 9.791764 3.943254 -2.3896182 -4.8684196 -6.2431045 10.626156 -5.2987394 6.494491 1.9780843 4.9378443 -0.7443487 1.6282393 -5.0524373 -6.6689095 1.4643558 -0.116132155 1.6810464 5.580593 -3.9033 -3.0847242 -2.8085651 11.536993 -2.1627192 -1.1494195 -11.999275 -6.50974 0.7051188 -5.186541 -2.7556937 4.6068106 -1.3585914 4.6349936 -5.8490148 -5.345882 -5.9436855 3.7642617 -2.998237 1.704325 -1.0692804 3.267026 0.87974656 -9.999485 10.4148855 -5.6337557 -6.3392644 0.010082931 6.445665
a -2.9354844 -13.412486 2.0040433 3.716724 -3.4533386 1.3346336 2.3352008 4.6123767 -10.83682 0.10103721 3.9523368 1.0600568 0.9818827 -9.148846 -7.831588 -7.8885937 8.595222 -0.19970705 3.6875021 -3.5040376 -10.824764 1.6739036 10.274373 9.869487 -2.8313992 -8.287421 -4.961732 1.0763134 6.5310307 5.7850366 -3.6352844 3.0985298 -7.115015 -2.34456 1.3696907 6.9430547 8.492953 10.592038 2.35505 5.9418526 6.9406867 -4.824427 -3.8215709 -4.82888 13.946538 -2.9593394 -1.8960122 -0.43513376 -3.4532118 -5.0634828 -6.358898 -6.4927664 -1.0192614 -0.5842089 -7.177477 -10.719069 -4.731227 -9.514926 -0.31234103 -4.0405893 5.0594563 -5.3074555 -12.182768 -12.604293
ま 3.149664 5.8223453 -1.4734193 4.1093793 1.7266744 3.8422368 -4.1687627 3.0182805 3.1864367 -0.26878607 0.9046743 5.8008738 1.0063779 5.5397377 -1.918096 5.239121 -0.994503 -2.1013873 -1.8425297 -0.6428095 -1.135638 1.3182513 -6.1893544 -0.9593693 -0.18110366 -1.2163454 -1.0302324 0.39286062 3.464315 -4.4505525 0.8533982 0.57576656 4.9212236 0.8873243 1.9462087 0.58055735 -2.95733 -7.583538 -1.5369397 -3.4703271 3.7110057 2.2426472 1.9420393 0.4976988 1.5280343 -3.9414914 -1.7726535 8.161456 -1.4125805 -0.27394888 2.2587078 -2.981953 -1.5104007 -1.082086 4.7717223 -2.5248234 5.8080177 9.407499 -3.2678978 1.5964307 3.9976788 1.0883173 -5.008369 1.9507554
よ -1.4844407 4.3016677 -12.113749 7.38851 -10.784826 9.500046 1.5694325 7.4860177 6.1310062 9.753172 4.072956 6.8926787 9.016059 14.880493 -11.517006 -0.66081655 -2.0721705 -7.7403445 4.369073 1.2558833 11.613661 5.5073333 2.2421367 -9.603739 -12.930385 3.0597985 -0.3979081 6.2693152 5.0320826 -3.2661517 -8.9056635 8.146404 2.685001 4.810954 -7.707744 7.9570646 1.2451113 -2.9129424 -11.749293 8.483106 -2.1136844 2.3780966 -4.2332087 3.3127897 0.777889 5.240824 -11.0200815 3.2983568 -11.475623 -11.459963 1.7160404 3.0253677 7.8787465 7.326942 -7.0779414 -10.2065525 1.8824749 7.563393 -0.95332384 -3.0036435 1.7910982 5.924486 2.000581 1.4398341
ド 2.8596892 2.1491978 -0.4725859 -2.4320538 -3.7193809 -2.2388358 -0.73979867 -6.4337454 -3.1888623 -8.361262 -1.5935857 -5.7005315 -2.2856386 -7.9798384 5.8164043 -3.3369975 7.205532 8.391708 7.5673366 -0.6086673 -2.6020217 3.3057365 2.6828415 -6.059776 3.381455 4.706341 -2.324187 -4.187897 -2.2298784 -1.8036746 -2.2158618 2.5922585 0.75973904 2.0306737 0.74737084 -0.42089805 8.906976 1.7829424 -4.363996 0.13712537 1.1948471 -0.28193587 3.8679633 1.7160811 9.866034 -4.878966 2.8169138 -5.8160987 -2.035773 -3.4267826 -2.8547778 7.995822 0.28226218 -5.6005483 -4.756247 -3.6417837 -0.73318607 3.6193197 7.994236 -4.253283 0.5422476 -0.7490906 -3.4546368 3.9019241
e -6.320743 -10.285717 2.2193985 2.3517103 -0.074002914 -1.1038816 -2.3194602 -3.68928 -3.8277538 0.020495322 4.727917 -0.7463927 0.7508384 -4.0802126 -4.032273 -8.805273 9.538811 1.8359103 1.0866687 -2.205746 -11.389805 3.7744942 9.606772 9.18558 -4.7799177 -4.8143473 -7.505688 1.5584426 5.35163 -0.77937204 -9.012283 1.339238 -7.8547363 0.7820826 2.4106505 5.5685916 8.055473 8.818992 2.5853949 4.3683686 5.671925 0.27532685 -1.4610248 -6.7651033 12.024965 -2.897904 -3.6108918 1.8871431 -3.9887612 -4.398374 -6.057259 -6.030323 -1.2255276 -3.4907827 -8.717172 -12.439664 -3.0542595 -12.827037 -1.6348778 -1.1849316 6.0709558 -6.8882136 -8.2178545 -13.659861
シ -10.901559 2.6441162 10.67998 1.8153478 3.8814728 8.194907 11.980998 -4.9743037 -7.4382024 -16.770374 -0.77349764 -2.0192945 -3.0039268 9.119634 -1.6936997 -0.19195434 14.393924 9.389318 -0.12157133 12.414868 -13.888641 -6.9417267 -5.272009 -6.8381653 -3.0263367 3.9334831 7.643264 2.9721665 -2.605902 15.196434 -1.1363593 3.5457664 -11.49081 1.1693236 -6.990659 4.8691 6.054462 -16.012726 -7.1800795 6.444287 -3.7243726 3.5554118 -9.52393 8.785311 5.701099 -5.820235 -8.368648 -6.843032 0.045786917 -16.877794 -0.5776326 1.9557873 -8.003587 -1.8087323 12.445173 -1.3889518 -9.138741 -10.07321 9.3358345 -2.502946 14.587064 2.4627733 -7.3871264 4.245357
月 -10.685182 -4.076544 -2.2495556 -12.146543 3.958505 -16.45346 9.1545725 5.7836466 -8.8277235 -14.283253 -0.35492498 25.463272 -15.652163 -3.5514479 -12.524584 -10.583319 15.18796 -2.9772193 7.6240907 -6.890014 -8.019939 -9.943529 4.141544 -11.628014 14.370213 7.1097665 20.269886 6.320619 15.91384 -3.7139 20.512627 -5.154513 -15.988747 18.077145 4.266462 -1.0064133 -10.039008 -6.281441 -1.2346785 14.573151 -3.899447 -3.6952684 6.8148794 -13.712383 -19.077938 -4.618026 5.936835 8.461242 -3.8779483 -1.0404112 -3.5801418 -14.837413 5.503337 1.1349183 -5.8474126 -6.1478896 1.1237817 -2.3486543 -0.23762089 -7.1707535 -14.000231 -19.513311 10.158853 14.194451
「 -2.6289015 23.02234 11.934912 -0.30506983 23.890305 10.824436 15.886807 -40.840942 -38.41991 3.4295084 4.672522 -18.410793 -2.968341 12.240712 -10.878519 -0.4076128 8.195667 -21.314909 -17.25005 -20.44274 35.352047 15.965734 -0.27974188 7.7957597 11.746263 14.429534 -3.5999866 -4.3881807 15.206758 23.422825 -1.5101984 -27.458366 2.1987157 -45.590645 -16.966528 -12.3617115 -8.96249 -0.4041092 1.924277 4.891243 -16.02599 7.9777226 9.642693 1.1692997 6.577151 -30.18767 21.129938 2.3549595 -29.091942 -2.9823148 39.5027 -28.082712 3.0679436 16.225443 -62.278572 11.819401 27.371553 -7.626084 15.338192 38.14092 50.873627 -25.522738 2.5718453 -8.181957
」 -0.14689992 -2.167154 -11.2745495 19.423302 -19.950905 -18.14944 -8.477854 1.0239612 6.415817 23.046984 -19.284754 26.853561 -7.706476 -1.0026958 8.219597 5.749277 -2.752403 -4.7908354 -15.422147 53.54389 -16.941294 -1.8104118 2.7899168 -2.174675 -7.422124 -24.504406 -28.282936 8.23593 -48.80034 -23.831442 0.65842354 6.6478705 -18.714037 36.77613 -4.637795 16.224028 19.100079 4.564273 -5.450268 35.544243 3.4749713 1.4645075 12.7922125 0.08366547 14.367142 30.270233 -5.539645 25.661903 40.21757 24.953728 -25.489973 7.2199063 0.45897526 9.695604 54.71006 -18.034805 -50.77486 -7.494285 -5.6890135 -25.728014 -46.73339 6.6970353 -5.1473756 0.89061
5 -4.661839 -1.2727021 -3.0729153 -7.8719087 -5.6870704 -3.5378194 1.6455882 -6.4100475 -2.3365712 -0.43020412 2.9883187 11.069462 4.8960295 3.40382 -11.251494 -11.315639 -4.806227 7.7458773 5.385002 -1.3700262 -4.779753 -8.308403 10.541818 -5.9014993 7.242306 1.3713142 3.6446288 -1.135836 2.83303 -5.5608506 -7.364723 1.1066372 1.6980585 0.2219306 6.5918875 -4.4362893 -4.342948 -2.08796 9.147559 -5.3962502 0.7230473 -12.086807 -7.798909 0.47251403 -6.08923 -4.872195 4.012416 -3.026912 4.951906 -5.2307453 -5.4491963 -3.171609 1.5528603 -6.3852777 1.171328 -0.7513647 1.7497151 1.5935194 -11.307725 10.099162 -6.2259703 -9.342551 2.5694306 7.0582614
4 -5.769673 -3.0278263 -4.7656813 -7.2437935 -5.239188 -2.927321 -0.07798547 -8.428539 -1.8120091 -0.7184829 2.0698402 11.712431 3.3166246 4.3333316 -11.459039 -7.2759757 -6.6086187 9.023339 3.1936276 -1.4352185 -5.770738 -6.555641 10.508252 -4.311775 7.1858354 2.3259883 3.9943032 -2.6862931 2.2878833 -4.2075377 -5.4674187 1.763293 1.4082994 1.3611346 5.9207606 -4.1173167 -1.9525845 -2.1864502 11.29656 -4.076539 -1.6282871 -12.184991 -7.502906 0.225468 -6.3874288 -3.2600813 5.181074 -1.6607584 4.726209 -6.0113683 -5.1284385 -5.483112 2.546213 -4.405576 0.4197533 -0.8019151 2.674866 0.4336668 -9.200925 10.319598 -5.8250203 -7.271586 1.413585 6.7347116
大 -6.0229506 -1.487392 0.75667375 -12.240232 -0.05804653 -1.9952464 -0.91777766 3.8346343 11.510574 3.5292168 -0.1491988 -3.3309343 6.595424 5.5308247 0.19710647 3.2854593 1.487529 -10.368468 2.489495 -1.8068715 3.4947696 5.1248174 2.6048377 -1.2353678 4.0344315 4.3311477 8.845272 -14.926634 -0.43708166 4.79449 0.8683056 9.469719 12.307897 0.8459779 7.02813 -8.556888 -9.937848 8.114666 9.379201 -7.711928 6.426578 3.335 5.6668267 -0.628342 5.6043987 -6.6837735 -2.3488638 -4.5777 -5.324659 0.4182736 3.8556714 -11.113186 3.5965621 -5.633147 8.5250435 -5.1102324 -3.2670863 -9.044596 -9.560511 -5.8530064 -7.566323 1.6866657 12.771203 -1.5657398
8 -6.548795 -5.927034 -0.42515618 -4.43481 -3.882952 -3.5000167 -1.9296697 -6.4225626 -2.1404903 -1.7366537 3.035406 12.834865 5.158549 4.588157 -6.302774 -12.253659 -6.956614 6.0636106 4.812033 0.65077263 -2.3798327 -10.007196 12.684595 -2.0808625 10.113401 3.3378808 3.5971272 -1.6373173 4.329353 0.72328633 -3.9998934 0.5437672 4.0008755 7.5368867 5.0916586 0.36180833 -3.1108768 -2.2866647 7.9243135 -8.041876 -1.219224 -12.611628 -2.0645993 -1.7501993 -5.5489607 -3.7623756 -0.48880652 -0.3331175 3.1854851 -2.3269053 -3.546287 -1.0794278 1.0590295 -9.673262 -1.0487341 -4.3369775 4.6699386 -0.77337474 -8.164731 9.044986 -5.3960013 -8.321417 7.3962407 7.095638
タ -1.493245 2.4662461 0.10037006 0.38446578 1.2311171 0.037462227 -8.563097 -3.0068727 -3.3872998 -1.9988496 4.0330744 -9.119406 -6.78592 -8.10995 -0.52033883 0.31292588 0.0061188247 5.7092977 -5.8999524 -7.1547294 -1.9321798 -1.9278173 -5.83926 -2.7763963 -2.2221572 1.6353036 -1.245302 0.23103581 -2.5567794 5.405378 -0.054361083 -3.5455577 -4.2213154 -5.576011 -1.950684 -1.0208937 9.891209 0.028267218 -9.6633835 1.0457311 -3.2981365 2.6598804 -3.7401323 4.9367056 3.559268 -2.1544697 -2.2268293 -2.3399885 0.051016774 -5.2382607 -3.6754825 2.198145 2.8481016 3.1077247 2.774937 -0.8941421 -4.7610917 3.8333888 1.551719 -6.165386 -0.78201395 1.8964099 -7.152043 0.63943475
フ 7.1122494 -4.2650957 -0.27415577 9.465144 -7.0179076 16.863834 9.69961 -15.392896 -9.00519 -12.071551 5.9733334 -19.92661 8.968354 1.3253318 6.3153706 18.945553 12.95055 16.574762 -1.8194709 9.122644 -7.8308773 1.3038877 14.616922 6.6204967 4.052447 8.000188 4.8951917 1.521958 -11.425999 -3.8119485 14.149341 21.270975 -12.9208975 5.292536 -0.06109956 8.636078 -8.627221 2.984377 -7.32578 -16.603502 5.1143985 1.0321876 4.0256453 24.955713 2.2727692 -7.1994176 11.786586 -7.255586 -10.305106 -19.19394 9.089219 15.091974 3.6598208 -25.151724 0.19449638 -13.4333105 -17.584646 -4.614051 15.517129 -5.85782 -3.7046564 -14.03561 12.103495 3.08633
く 8.320822 1.8935331 4.3268566 8.661612 3.0124881 7.433005 4.1615705 10.229552 7.5954375 -1.683756 -5.2183957 -3.3258152 -1.1797576 -2.4496093 3.120154 8.59783 0.6636235 0.30110797 -9.858151 0.14330237 0.138051 2.2855754 -12.668952 -1.9465407 -1.0814258 3.671617 -3.1701438 1.1371014 0.89718556 -3.430076 -0.98193055 -1.2489085 5.8736973 -7.897088 -2.2477446 7.4875216 -3.9635513 -5.793337 -6.027071 -2.2934616 5.962151 1.299716 2.789029 2.5066333 3.9740593 -1.9181877 -3.4880283 0.025806839 4.0477123 5.8988724 5.593943 2.6994998 -5.0464287 -3.1269965 -2.0061426 -3.8418782 0.82715684 9.31774 0.15671268 -1.995396 1.5692028 6.5931907 1.0851756 0.26674035
ロ -0.40597254 0.40854663 11.279777 1.7977762 -3.7910879 -8.952462 0.04303986 -2.0312557 -0.00012321907 -7.183097 5.06887 1.0177994 -0.10793824 -6.5894065 7.4032197 -0.26221526 -1.3748392 1.5176662 2.8195565 -4.1073647 1.0373905 0.4876925 -0.31338307 -0.032099847 -1.4389105 6.762137 -1.425216 -5.4000254 -1.2962912 2.402484 -0.8832746 2.4615316 3.7871823 -2.9422467 0.75656754 3.5569625 13.005437 5.8039556 -5.7449813 -0.58587986 -1.4855915 1.8748498 1.9224657 2.4239676 1.7120764 -3.0992627 -0.76442593 -6.244242 3.560714 -2.4303186 0.91674817 4.4401946 0.5822027 4.282554 0.18221004 -0.65305877 -0.36857837 -3.3236847 2.3030028 -1.7165048 1.4191014 7.171145 -6.8735356 5.76731
め -0.87301135 5.2832685 -3.975943 -3.4373043 8.809487 -5.2509413 -1.6260449 0.9409274 13.926923 2.890135 5.765787 3.753316 9.090931 -3.036631 6.5566373 0.53099495 3.4954307 -6.074582 -8.131453 2.9536533 -6.818171 -10.553666 0.6475544 4.754858 5.313202 -6.202831 -2.443252 -8.345261 2.147624 -3.2983484 4.915281 5.5196595 2.0696237 9.014513 9.790375 9.774357 -5.989151 -1.71282 -6.2659526 -3.2105398 6.8390365 6.624684 3.9042227 9.528565 -5.064124 -3.6090631 6.2115855 3.2898817 -1.1191652 -4.49401 4.803348 -4.3303704 -7.5374856 5.3771415 7.7987266 4.8780637 9.437334 16.051659 4.491136 1.5020045 14.357543 4.506715 -11.665765 0.42389753
i -1.0993769 -13.513946 2.270276 2.4149644 -3.7868412 3.658194 -1.6048743 2.676457 -4.6675434 1.3741316 7.6100607 -1.0163245 0.8188653 -11.342971 -4.375238 -5.5733023 6.5114427 -1.3435575 2.078229 -9.031547 -9.986237 5.1914654 7.804109 8.653264 -2.774133 -7.4116716 -8.9432955 3.1526215 0.054239012 3.174002 -6.378666 0.0951521 -9.463585 -1.5394456 1.851613 6.1425357 4.1444173 10.157563 1.2801001 6.2699323 2.0127044 -0.4073489 -2.6974297 -1.1448457 11.105659 1.208039 -0.19654635 0.7790567 -1.1530505 -1.8262566 -2.3393493 -6.0516977 -2.0887487 -7.2492137 -7.857745 -9.21832 -3.1321602 -8.137391 -0.69114625 -2.1697037 3.9508498 -7.357415 -10.307952 -12.8996725
6 -5.736975 -3.6292078 -2.3684216 -6.2544866 -4.738132 -4.1946497 -0.0881169 -7.85406 -2.3662918 -2.242996 2.997711 12.058833 3.5344884 3.9198296 -7.3944154 -11.114758 -5.9259434 8.339586 6.0459366 -0.9107014 -3.880959 -9.701973 12.810459 -4.7470493 9.339358 1.1042471 3.0660145 -1.6478709 3.893904 -2.0247467 -5.7308154 -0.2770942 0.14171456 2.847711 7.1926274 -1.9971962 -3.0028155 -1.6061283 9.283921 -6.4292355 -1.4766405 -12.2683325 -5.3906054 1.4830223 -5.404356 -4.794895 3.2597294 -2.269434 4.641041 -3.7465484 -5.426198 -2.587173 1.2888244 -7.120083 0.86558694 -0.06481181 2.6337867 1.5200852 -10.02582 10.100227 -4.3144517 -7.9867363 4.681015 7.640139
レ 0.23447202 11.840446 1.0237405 0.9337321 2.8482442 -5.580675 2.8967457 -4.5928755 -1.2557017 -8.4023905 6.0084295 -3.4889345 -8.517363 -3.1437905 3.2327533 -1.0833951 -6.1300383 5.958102 -0.27559322 -7.2428994 -3.9129624 -1.3774465 -1.7242246 -2.607714 -1.288278 3.0446825 4.289595 -2.703167 0.5043406 -1.0376639 0.5472915 -8.404714 -5.173412 -7.860588 2.6766295 0.22405869 10.224127 3.087021 -2.8184235 -3.1152947 1.2595751 3.1625774 1.3667684 -0.5659849 1.534514 -0.27296117 -8.798515 -2.0408638 3.7155893 -6.791493 -7.586015 -0.93038356 -1.3109596 8.6472 3.1585042 -3.9081442 -0.6209304 6.467624 3.6801674 -3.7570515 -1.4363906 3.4683487 -7.251783 0.78259754
7 -5.6963706 -3.4962072 -1.4436289 -5.56169 -4.3185015 -5.086448 -0.79137677 -7.456575 -3.4279284 -1.7043563 2.9945025 12.79843 3.2747183 4.903041 -7.820573 -10.931856 -7.510526 7.523452 5.00985 1.1491064 -2.8210757 -9.31388 11.509387 -3.4291532 9.859099 1.4363436 3.2542908 -1.5282699 3.0304506 -0.85718274 -3.4223688 -1.3501968 0.78262305 4.135176 6.0411363 -2.280442 -2.736851 -2.2320468 8.801319 -6.9767423 -2.1947231 -12.588061 -4.337337 -0.31778747 -6.3167076 -3.8568134 1.8607317 -0.9083754 4.6266413 -3.363635 -4.211917 -2.1041627 0.19427285 -7.291518 -1.2876898 -2.2611766 3.144846 -0.3316038 -9.197157 10.044514 -5.0385733 -6.9642367 5.7946744 8.144909
o -4.0837216 -10.163623 3.1951914 4.246439 -2.520542 -0.09177175 3.2240722 -1.8492144 -6.228179 -1.0966003 3.2410452 -0.8543248 -1.1331873 -7.5975614 -7.301498 -8.28813 9.183193 -3.2831805 1.315063 -4.495475 -9.652361 3.2553966 2.366064 9.610347 -3.3100386 -6.5806055 -5.5681467 3.1036837 0.42298192 2.3773212 -5.2238116 1.8088962 -8.551181 -0.38120076 0.82492405 6.734592 6.2020345 9.002338 0.10186049 4.441333 5.535763 0.4857432 -1.2724831 -1.5134908 13.278737 -0.8028383 0.64517695 -0.42709014 -1.1244264 -3.62952 -9.411377 -9.049378 -5.305126 -3.5528715 -8.863747 -9.322157 -1.659116 -10.020296 -2.3915372 -1.8119493 4.5892067 -4.0647793 -9.521629 -14.885305
ジ -3.4228816 -1.2305506 9.325577 4.958584 0.7288351 10.441158 10.919064 -10.752976 -8.543411 -16.344227 4.7526627 -4.078636 -6.0102005 11.65743 -0.7511588 2.0474417 15.090709 8.945312 -3.1099255 14.057002 -13.990859 -10.665391 -8.463381 -6.450473 1.0233192 -0.55626804 7.5095024 2.6835635 -2.5325866 15.686475 7.672726 -4.183006 -12.02439 2.2850049 -6.2552366 0.92715013 -0.26335153 -14.131051 -12.64922 6.016159 -1.850323 4.7279506 -11.650586 13.484175 5.0286508 -10.7683115 -5.4305334 -8.511955 1.9291844 -13.397648 -4.0030837 -0.52584475 -13.467485 -3.741758 13.934284 -2.9965906 -9.697142 -9.120352 7.669123 -6.164896 17.329 0.12633348 -5.387604 3.4510446
き 8.294558 3.8538077 -0.33060756 7.105638 5.407366 8.998323 -0.13187902 8.183379 4.550768 -4.4681263 0.08847676 -2.102985 -3.2308269 2.0623324 -4.9092016 2.8011277 1.8492771 -0.010967427 -1.037697 -3.3821409 5.243486 -3.0003927 -17.068388 -13.651432 0.40131468 4.988431 -3.3573108 8.259788 0.07741339 -3.9135249 2.2245648 -2.740867 3.651478 4.8687024 -7.4445834 3.7975757 5.2323675 -2.0714967 -6.303088 -2.2778325 8.154243 -3.7552238 -1.1043426 6.148136 3.8299918 -2.3425639 5.423325 4.0835767 2.3738687 0.74963355 2.1478431 0.01809504 3.4042323 4.249653 -1.9779048 -5.2242484 -0.22740425 7.8277144 2.3936417 -0.21570033 0.99743736 8.588649 1.4854708 -3.0370953
s 4.324929 -13.267122 -1.2298708 -0.25761622 -0.8768386 4.864542 2.9804807 3.4746914 -4.6429977 1.2740309 8.103087 3.606642 -7.2289524 -12.38989 -5.4597926 -3.2976422 4.2657313 -3.7186446 3.8249996 -9.106728 -7.43802 5.367358 8.567213 6.2159414 -2.7417107 0.34259084 -8.30422 1.1987885 -1.1155522 11.178939 -0.9819294 -5.0199447 -8.695345 -1.6860232 -0.0044475296 4.5318255 6.3295197 2.4723392 -4.1851854 7.287276 3.39883 -1.711659 -3.145665 0.017145894 5.1337466 5.8863764 2.9896166 1.5554568 5.208 -4.2801447 -11.781671 -3.4727018 -2.0347505 -3.1852589 -11.544284 -8.6872425 -5.493809 -5.439104 1.1693361 1.4483703 3.4666922 -7.5114794 -10.481203 -10.271568
本 -18.906212 12.156652 5.146719 -5.5062613 -3.3084648 3.9428678 -0.73168814 19.506369 -7.9509706 -2.1004038 -7.2475276 12.0339155 -15.918869 1.3961796 -10.882515 -2.1945343 12.159485 -13.672782 6.091777 -2.6427484 -8.419516 -10.154339 -6.0416894 4.6993666 12.976312 -5.4927616 16.62154 3.1704352 -4.9616456 3.9345944 11.488676 -14.02653 -6.678718 7.515972 1.4682903 -3.553425 -13.572453 5.2938757 -0.4321493 11.917065 2.3241246 -8.096097 11.234256 -4.20272 -13.026055 -6.801764 -5.7787614 6.3997073 0.26774773 -0.19378623 7.056958 -7.9073453 8.866405 9.626871 -10.232586 -7.661178 13.177821 -3.6376722 -3.3418615 -25.731075 -13.200076 -8.910958 7.561869 -3.451289
人 2.561627 0.83010066 1.5915393 -2.7747188 -12.995343 -3.397016 3.3670542 -5.3314037 -10.66045 5.151385 -2.1365795 -9.590273 -2.8520062 -0.017200714 14.597167 5.3372183 12.182109 5.63645 -4.8453703 25.035198 0.39916795 2.5978668 -2.590868 -2.6338234 6.279087 3.462257 -5.962422 -3.3887467 7.9807315 -8.055166 -13.01524 -2.9685297 8.564386 -7.9602156 3.3058305 -6.9469876 -5.077973 7.447373 -15.1903925 -4.791459 0.41826215 -9.218675 -4.1095996 -8.95675 -3.160143 4.6920495 -8.993594 7.0586143 -5.3941565 13.222322 3.6010711 -8.8772955 -1.9685372 -7.641313 3.530869 14.113723 5.0263524 0.9006318 -7.256242 2.2103598 -2.4415538 6.149697 -1.4078976 7.1424565
カ -2.6081402 1.0000447 4.404428 -3.00602 -18.232513 0.62521124 -2.4889205 3.9018588 -7.309297 -7.2079577 -3.4921236 1.6804507 8.037321 -7.1594777 6.2604365 1.183463 5.3540382 -0.87585235 5.329839 -2.111271 -1.9745481 -6.145663 5.5896955 -3.6415899 10.815054 -6.209851 -0.8132795 -5.9935856 5.004008 0.53455114 3.0330389 -0.32817307 13.493032 -1.2469034 -3.357325 0.5882423 8.8685055 3.3031473 -8.291998 0.6231513 -2.781905 -1.6969677 -1.200123 0.05627251 13.6032715 -7.8553066 -3.6089299 -3.7598763 -3.5652988 4.5070024 8.780837 7.156319 -7.0576005 2.5053706 2.0426543 3.941732 -2.6026564 -2.8109717 6.5434227 -7.656526 -0.60894203 -0.39134416 -4.548514 -6.0936127
そ 6.8911443 2.6978686 -3.2281654 5.135232 1.2094026 -3.6749437 1.3759214 3.570881 4.7139683 -8.12338 -1.8357127 4.1458173 1.6551012 4.6522875 10.250808 6.2523007 -0.90408105 1.3800043 0.21025907 2.0345223 8.548906 6.7800684 -7.540755 -4.875582 -1.9832398 3.0558815 -5.1194434 7.20774 0.8233886 -7.3945947 -1.015373 2.92856 1.7582624 -1.3241415 -8.532974 2.1443212 -2.8721578 -4.373324 -4.073855 -2.3828504 2.5144713 3.3569858 2.606266 0.8221894 -3.1223683 0.7272965 -3.0829303 3.5830965 -1.1800356 -0.5547815 1.6185113 1.1870543 -1.6132727 -2.8097985 1.3608063 4.683338 -0.73880774 3.8954167 5.813229 2.819301 4.3858786 6.711293 -6.773506 -0.2367807
r 8.520062 -13.631587 -1.5206782 1.1044854 -4.146155 2.1968076 -0.30384168 2.3475127 -3.8618703 -1.9293895 3.6533377 2.350375 -7.0487003 -9.628864 -5.5080485 -2.07746 7.2457066 -3.4513538 7.34514 -2.821316 -7.0442753 5.24132 9.435388 4.7564683 2.2962248 -1.0079639 -15.081558 6.256846 4.055555 13.982212 0.36986223 -5.6494923 -6.9384446 -2.1067667 -0.087968044 2.760717 9.398589 3.6628535 -1.3807851 4.402079 5.774904 -0.79608405 3.4462502 -2.6346273 7.014359 4.3603725 4.649685 -3.470409 5.0161963 0.14421538 -7.9834266 2.8083348 1.4422336 -4.2160883 -14.259583 -7.641465 -2.6052797 -8.152729 0.6698778 4.1294985 -0.18838683 -2.2056804 -6.283284 -9.369172
n 6.883462 -16.231228 -2.7628245 2.1913881 -6.989999 3.5883482 2.5396984 2.3421288 -5.0275764 -0.82095784 6.0502934 4.638806 -9.366685 -10.849302 -4.6553373 -0.11915663 3.2058818 -6.254622 5.469847 -4.408307 -8.3068905 5.153246 6.7690134 4.7166166 3.8137512 -1.4603271 -12.697298 4.1096406 7.7672234 13.950095 -1.3283058 -5.510905 -5.2534933 -1.6523687 -4.9531083 3.2148418 7.1440063 5.5399537 -4.6034207 2.8875716 2.7102873 0.7893785 2.104465 -4.2769346 5.37107 8.791852 2.2104552 -1.5447898 3.716679 1.321132 -9.041235 -2.0836253 0.00048237175 -1.6433102 -11.07947 -8.786318 -3.398973 -8.690074 2.7290504 7.390963 0.86162746 -1.4717258 -5.1107655 -9.617844
t 5.565814 -10.450867 -1.0096947 1.2321334 -1.1431705 3.5249536 2.9137914 1.2890462 -1.2286313 1.8425092 6.7261 -0.39873454 -10.828387 -9.522352 -6.3150344 -2.0442095 5.027853 -7.125094 1.0990162 -5.7394 -5.644107 4.758606 5.0906754 5.6351295 -3.690952 -3.0089722 -9.983727 1.8002611 2.8486807 5.8661633 -1.6601326 -6.7446895 -7.4678392 -2.055964 -0.20777367 1.7124652 5.671695 3.0857885 -0.38355744 3.310268 3.8080866 4.2918196 -2.0651863 -1.7050966 5.8343215 6.6090693 2.5515077 -1.3050596 4.491162 -2.5964148 -11.029707 -3.2338123 0.013487735 -2.0007062 -7.7669864 -11.40206 -5.452178 -5.570457 -1.0573983 6.170607 3.135288 -4.66421 -9.206911 -10.498592
け -0.21404217 0.41516414 -0.47580755 -1.7089055 -5.122758 1.0473295 3.2735133 11.963165 9.9179735 2.2000802 9.97301 6.348615 -6.56203 -2.9295242 15.503499 19.152925 3.0030818 -3.9679914 -16.571142 1.2232783 12.45227 -14.193197 -11.831545 -11.139873 -24.863281 1.3864654 32.971924 -1.5963022 17.350168 -14.425706 -1.1251254 0.07119102 -6.8261027 9.722592 -27.322962 2.3574605 0.31924355 9.169535 6.043076 -6.562345 7.4525924 -21.756609 2.3141103 14.285807 26.215778 -14.353655 2.1714208 4.2936378 22.1293 10.649577 -0.15066329 -5.941223 3.5164194 0.95677847 -5.2218995 -14.012036 4.1229744 10.751099 7.524487 19.45459 5.875038 -3.7679937 -11.620965 9.187233
学 1.9992867 2.5767972 -7.9462366 1.0168848 -0.8512635 7.5131836 -8.274673 10.1900015 -2.2537975 4.8273444 9.941691 -7.9242263 -6.008018 9.341991 6.5831327 1.1856158 -13.5022545 -16.611813 -9.218419 -7.157882 -19.12033 3.6248562 11.800509 -11.26595 23.744722 24.488781 7.168889 2.9754438 5.2375274 12.944295 -5.5884137 8.006432 21.290129 17.195976 -17.577667 -6.0174017 1.7545406 6.9525757 1.7258277 -1.5479469 21.914986 5.110254 15.289395 14.011621 -9.539667 15.307946 -11.084541 -0.5165876 -4.0250907 17.458134 -3.8214316 -7.6859336 1.2358629 1.1980036 0.6220837 -1.4806169 -4.165663 -12.640041 1.3290147 3.9896374 3.709846 -4.7585006 16.405739 -1.9269917
国 2.58492 -8.87092 7.570188 2.1046076 -20.190714 6.799638 4.159302 14.699249 -1.5212178 -2.4016247 -16.258177 9.278321 0.067137115 5.7076235 8.665885 0.546302 -0.28506258 -8.419913 1.6064204 8.2478075 -0.13994335 -2.1600788 7.9495897 2.6921577 15.801931 -11.882245 -9.424388 -15.473595 11.025307 -4.5577145 -2.2956665 -1.5421866 15.7669935 11.344079 -3.1178012 -6.330163 -13.392152 11.675525 1.5169816 2.7486064 -17.083044 1.1486105 -16.436481 -8.6456585 4.532381 1.758775 7.2492337 -25.147871 -1.9215586 4.3561397 9.640319 -1.1480712 1.4218078 -2.1302087 5.6606154 4.656482 11.301429 -10.483513 13.724224 -4.067142 4.5489583 -3.46122 10.063717 -0.30882385
ィ 3.4979527 9.113028 5.124483 -6.931746 1.2912611 -33.87329 -3.7165058 4.289472 2.5762908 -8.101572 8.54542 8.659081 1.0648853 -4.560179 22.89106 -6.170034 -9.432785 5.101261 8.051598 2.4902184 -7.644574 -6.470577 -16.01494 -10.625984 -1.9574748 4.766094 -4.847636 -1.2460543 24.728682 5.9540777 -26.141516 -20.36271 -7.676391 -4.814752 4.2563663 4.8914356 27.383823 1.0879123 10.539479 7.571955 -2.5707064 15.575169 -8.998651 -19.61906 -1.831338 4.3029532 -17.574223 6.8248987 1.8773777 2.7135737 -11.676679 1.5124718 -6.482273 24.956125 -8.21171 1.1910459 13.834139 5.2448206 2.8387935 -3.8443487 5.0066757 7.22932 -1.6039624 0.022871323
マ 3.1262808 2.7182386 4.3310394 1.551864 -4.775719 -7.6940727 3.56304 -8.089914 -0.5858717 -4.079014 0.012954554 -4.4286714 -1.4324297 -6.1610346 4.1551633 4.704491 -2.2187397 2.4709606 -0.8423271 1.2496594 -3.436115 5.560901 0.21337774 -4.0449276 -0.05923183 1.5531965 -4.3881197 -3.96402 1.7586191 -0.09381782 -4.600598 1.0677898 -0.117588006 -1.8386776 -1.9664221 -2.1959362 11.685499 0.5517223 -11.868173 -6.5289154 -2.1800888 0.17951201 6.0440397 0.5671462 3.7396574 -2.8098314 -1.5919467 2.7241697 -0.14222574 -6.506755 2.0214088 3.8688533 -1.4510776 -5.677777 -0.18736768 2.0331619 -3.978681 0.065860584 5.3667097 -3.3770988 1.2738713 4.082074 -1.9755193 3.777625
テ 1.0797333 -0.62140566 -3.4273608 8.313192 0.51477927 16.298965 8.056061 -14.886053 -6.4480844 -8.275955 9.102179 -14.870192 -3.7830813 -3.360548 -5.7469234 13.620236 -7.620976 5.258344 -11.591068 -1.7840292 -3.359736 1.699369 7.4892077 8.045847 -6.067632 -2.163208 8.891019 1.844743 -5.298121 -8.96837 2.0746033 -0.53346646 -16.334105 -5.687959 -0.6820688 -2.4646938 -8.008172 10.217277 -15.038859 -15.407009 -2.4910653 11.436424 6.531797 14.990543 -3.143168 0.44666237 -4.266211 3.0823004 -6.8755455 -14.516053 2.0002928 2.0609818 7.3205113 -16.358295 7.2612004 -6.9182444 -16.503 1.1986818 14.475836 -4.0316606 -8.094006 -7.809293 0.40003031 -3.623386
ム -4.19697 11.955761 2.9315627 -5.600885 2.1901906 -6.684008 -6.168085 -6.5820017 5.3455577 3.0149984 2.1651518 -10.62038 -1.119587 -11.633881 -0.15045336 0.5571917 -0.5841773 4.917924 5.785625 -11.536147 -2.7451808 4.5609694 -4.1824484 12.245405 4.8379016 5.597025 -1.0415461 3.2818499 -5.450203 6.855851 -4.3122563 6.950956 -3.7323897 2.395732 -2.4893343 9.502715 4.813656 -3.0256064 -6.6641116 7.583856 -5.189319 -3.3435512 -1.7441577 -4.3553476 5.7730627 9.457783 -5.1210666 4.596485 -3.549977 -5.8627486 -3.3307834 2.3101785 9.288339 8.259776 -1.8859248 2.3003433 2.953374 4.2573037 9.1657 4.1905937 -9.823808 -0.7735976 -15.215685 0.6134688
お 3.8229692 6.488394 -10.490419 8.074899 -6.093245 13.153619 -0.44978127 0.8505286 -3.1363928 7.9957333 -3.442025 4.611222 -1.9516948 3.7865555 -5.765601 -2.6122825 -4.628611 -7.183983 2.6814287 -1.1125517 0.73993206 8.9130125 -2.7359123 -2.603287 0.76702565 -1.5725639 -7.835997 4.834086 0.085356295 -3.729466 -2.0206857 0.3810691 4.125893 -5.9237633 3.7101953 -1.1222466 -0.33719623 -6.0333104 -5.6624527 7.8367934 -6.0255966 9.086485 3.5269213 -2.1982067 -1.9067317 13.047248 -0.60800993 3.9941647 -7.316445 -4.186965 7.6226463 6.384487 -0.25056592 0.06850234 -3.7201002 -3.0926206 3.45553 0.7440458 -6.3010216 -11.7679615 0.5074135 8.5831585 8.798993 -7.476873
中 -1.7394136 2.4256418 6.197504 -3.6571596 -1.9466851 0.9962369 -1.9446505 -4.778719 1.277127 6.4121284 2.1163208 -2.8008394 -4.431867 6.2702475 -2.331114 7.49863 -1.2295077 -2.8248756 0.02419126 7.704141 -11.367378 1.7947456 -5.945839 1.5813689 -9.751851 -4.2356496 -0.60883236 -7.9213967 1.2777675 7.3355103 4.8582826 8.725705 14.227134 5.0972013 8.709855 -15.113583 -1.8395927 -5.9494085 4.212689 -4.979419 -5.423027 1.5306798 2.0234983 1.4861149 -2.5611548 1.858312 -1.8658164 2.759761 4.657654 2.3199575 11.535432 -3.6234589 1.8090779 4.6609297 3.2329185 -0.0005523258 6.6695943 -6.696817 -7.3470287 0.055244222 -5.4097676 -1.9965645 -5.401185 -5.559212
プ -3.9560893 3.1001172 6.1495657 -3.2199123 6.868826 8.888544 6.894952 -5.7046957 -9.655802 -7.507987 -2.1808476 -9.716741 -7.5534673 -9.745598 0.7827027 -4.9316664 1.5079037 4.6994276 0.637137 -8.504097 2.8562927 -1.6950512 -4.5018992 -2.5680063 -1.2367959 5.820154 7.2711444 2.6902838 -11.377576 7.097414 5.11776 3.970814 -9.759829 -1.6147766 -0.69508374 7.4596386 5.7137775 -3.7520845 -2.5077255 5.4259405 0.8683816 4.7680035 3.3902292 6.8473787 8.670201 -1.3238118 -0.08634074 -12.668961 -0.4758177 -4.3750234 -3.353061 -0.200371 -3.1731331 7.097894 6.61249 -2.6479914 -14.592241 4.642629 0.41023466 -5.3415704 2.4647768 4.1880727 -6.097726 -0.38475025
や 0.8163645 5.443728 3.0487518 -0.87806004 6.074798 8.954428 -2.9231987 11.924958 0.26707196 3.6176298 -0.74226654 -8.526263 -2.3736486 1.0496763 1.8114365 7.1826715 4.128157 -5.0789194 -2.646486 3.078579 0.13775092 0.17079078 -8.69623 2.4214082 -7.41227 -0.66982424 -2.6142642 -3.1849499 -1.0135976 2.8599033 2.7229235 -5.36755 3.522143 -5.6186376 -1.6184769 4.44489 1.2062552 -1.3886006 -10.973045 -6.39073 -4.238618 8.071218 2.9260588 3.9625337 1.4328382 0.46885744 -9.785139 -2.3618917 -5.454116 10.899565 -1.1233907 8.822632 -0.58037 0.5679574 -4.3003945 -1.0696784 -1.2123953 6.9904246 -0.86701834 -14.844753 2.4793253 4.534798 2.9748936 0.8293297
行 -3.3785105 -3.4274638 -0.6831819 -5.0593133 1.1635959 -7.0994077 -6.1929526 5.9574523 8.326967 4.0606236 9.365286 -6.562904 0.50010246 9.328935 -12.768745 4.084193 -4.7784467 -7.4929976 -9.419098 2.641786 6.4196224 4.6122427 6.7980633 -2.153017 -4.370226 3.8528914 -4.8647504 -1.8035077 3.4637227 -12.337553 11.138004 -5.7823176 -8.953656 7.7164383 12.315591 -0.04642818 -7.921293 0.20293096 7.0219474 0.09982093 -9.402033 -10.439536 3.5714037 -2.8097289 -4.8312154 -2.330193 6.989009 -0.493513 -1.7079405 6.369603 -2.6835375 9.128566 2.3455 5.721668 4.8925447 10.61452 -5.708573 5.540694 3.7162611 -4.115841 16.054695 3.5128832 -2.6023343 -1.927393
グ -2.1902528 5.7239056 4.0082564 0.34674534 2.884232 -1.1139412 -2.5299754 -7.3700404 -6.1832256 -1.2878178 -3.5387263 -5.237526 -2.7019196 -13.724844 -1.8362418 -1.6694214 -2.9908412 4.658221 5.653429 -6.1915374 -1.2675444 1.5997335 6.241186 -1.8465083 4.53186 6.108747 5.3507357 0.6499961 -10.366789 0.2154933 4.526523 2.4088213 -8.552488 -5.8431726 -4.5300927 6.9186916 5.5493546 1.710079 -0.06446967 0.67487884 -3.1682396 -0.17989378 10.137326 3.6829953 7.9221954 0.8083189 -1.6684884 -10.746369 -3.3533123 -1.4093136 0.7949783 -3.6917722 1.757523 6.216802 1.8328282 -2.7161996 -9.892356 4.181334 9.060298 1.7177463 -7.83226 0.76480293 -5.768045 -4.314798
一 -1.0408982 13.345364 -10.255408 1.5978113 -16.332296 4.4486 -0.49566588 1.8754857 2.6605237 1.7819318 0.18991749 -3.101443 -1.5914462 4.686984 1.3898394 7.623128 4.3335443 -2.360521 -5.9532456 1.7569329 -5.5794106 6.416761 -6.2431498 3.7273414 -5.78741 0.9502786 -2.0518491 0.23888834 -6.4780374 3.6681383 -0.8303628 3.3716617 -0.43751153 2.5827577 5.294259 0.81752014 -5.7562933 2.7462182 9.5939865 -1.5924138 0.30681923 -3.069145 5.5183024 -0.32399827 -7.078164 0.83866847 0.43826258 1.0988652 12.398445 -3.9335685 0.9409127 2.8698494 1.8096238 11.824443 -11.837976 -2.4050262 9.206231 -3.9596746 -3.6053755 -1.3402877 4.3141437 12.433785 -4.6989694 0.43649644
c 4.8184776 -12.664658 1.7657977 6.6474285 -1.1975566 8.025698 2.8569553 7.336369 -9.743627 2.771049 5.8146024 -0.86868 -1.7552259 -15.301325 -4.211202 -7.669787 3.1418288 -2.9475653 7.532463 -13.833113 -2.6261046 1.3917176 10.279843 0.69510716 -1.3442782 -1.0780473 -3.6484501 2.2296712 -2.2077825 10.968367 2.4795332 -5.480122 -7.5515056 -7.083017 -0.41971505 4.8840437 6.743307 3.9850426 0.8218605 3.7663367 7.2568507 3.203491 -4.0527186 1.4051656 6.64482 7.832315 8.674928 -8.207617 4.462884 -2.1416008 -13.424473 -6.159086 -5.524812 1.3193153 -0.5567147 -9.344823 -5.354917 1.2153388 -2.562036 2.1707532 1.4161677 -6.5488267 -11.257457 -12.05474
バ 9.6814785 3.7343345 1.349605 2.8382626 -3.1510847 -5.965464 -5.335277 -9.48594 -3.006183 -5.282548 -0.4814713 -6.362967 -0.38174435 -1.7006009 -9.166577 -2.794757 8.15553 10.102041 0.054361917 1.2475016 -3.2580738 -0.73816746 -1.2979877 1.3093004 4.2326584 4.41504 -0.6815186 -4.5287294 -5.273455 -0.3238465 7.4720716 0.4689337 -0.78039724 3.666172 -2.807395 -4.478327 5.012666 -2.092994 -2.9068205 3.8520477 -0.8783143 4.505829 0.71456665 -1.7723616 7.519389 -8.733673 -5.097841 -4.842529 -2.8577397 1.8188425 -2.2347674 9.338087 -4.626135 -2.098493 -2.3992114 -5.889204 -3.9078207 0.93747103 7.4992433 2.19669 0.32594225 -0.40116233 -10.16009 -1.8904994
つ 0.44640812 -0.21565573 -3.2420385 12.077561 6.1214104 3.991577 -7.316138 1.6337087 -4.206626 0.7282951 -5.3886223 2.996483 4.3730216 0.9469874 -1.1313432 4.9791045 1.5800904 -2.8458729 2.2450395 -1.7263302 -2.5065477 11.028308 -11.871799 -0.56803674 3.4324622 0.38228622 -4.208217 5.058387 0.82077175 -1.331007 -8.0452175 2.233248 -0.24985282 -11.590981 0.38770565 -1.5889276 1.1089746 0.15428984 -4.079258 4.823676 3.9770157 4.3782473 -0.5874753 -1.309669 2.1241624 13.213748 5.1809187 7.14175 -5.355496 -0.34176967 6.2081146 6.0343475 4.268677 1.244041 2.7703636 -1.221653 1.9427739 -3.0634725 -4.450971 -5.219865 -3.7527647 9.670308 6.8737373 -8.0219965
m 12.767193 -3.8452983 3.0848858 3.4739428 -8.266584 -2.0992072 12.886366 4.538272 -0.97800076 4.7604322 7.7849793 8.063671 2.0094738 -15.074717 -13.117773 -6.682089 5.3835773 -1.8280178 1.0987357 -11.941055 -5.8359847 0.46389398 3.8042676 1.5098976 -0.44471058 -1.6351358 -3.8237853 4.6897974 -0.6815843 12.794814 -6.259944 -4.3761363 0.02945817 -19.19805 -2.8511634 -0.16720219 2.968972 0.6400249 -3.610126 3.972025 14.098856 -4.7121277 -7.4081473 2.0347002 5.1594033 3.6092792 9.449371 -5.6122537 8.520508 -7.221173 -7.2443333 6.7464533 -1.2394462 -5.462111 1.7052875 1.2699664 -9.11453 2.6834366 -15.243577 3.876677 -1.6184165 -13.113736 -9.401878 -11.665501
デ 4.7336545 -4.7202234 -7.6799164 10.088086 -4.5330834 9.188357 5.2313647 -20.080456 -6.420443 -13.587051 5.284714 -15.533179 6.550892 5.079505 4.1550007 7.0472746 4.8323135 12.529515 -0.9215686 6.4053063 -1.5400624 -3.285824 15.669307 3.948763 -0.8417742 -0.8366982 5.3213363 6.3287535 -10.83697 -6.0617237 5.1632953 3.128014 -18.868095 -5.038362 -3.823907 -2.1955092 -8.05345 6.091123 -13.796963 -15.775599 2.4213977 12.733197 1.982666 23.21887 -1.9286041 -2.1046922 -6.224788 -2.2143042 -2.509366 -15.705106 4.8601604 8.027965 -2.027123 -17.44437 4.4891324 -9.838117 -18.025864 0.93087125 10.740603 0.3878471 1.1629535 -16.24964 9.876319 -6.230691
ど -5.578165 4.490767 5.5800757 0.6357517 7.770292 10.448022 0.79370975 8.78961 -1.1147448 2.82585 1.126715 -5.3230233 -3.6658876 -9.624904 0.3052531 12.368689 2.204913 -8.934607 -12.846531 0.6919748 0.35732195 0.05287431 -6.7275705 6.4113426 -7.6227183 -0.6813954 2.7396777 -4.5173597 -4.032028 -1.0779418 2.9562972 -3.5433905 8.403894 -10.217372 7.9895597 7.5542183 -1.2582433 -0.47214627 -3.7443464 -3.6209984 -1.627803 8.28734 1.4617587 -1.3905505 3.6738365 -0.9455125 -7.8957744 -7.4660697 4.0448365 7.3625402 -2.685001 10.588637 -8.4950285 -4.2573576 -3.1378098 -3.4445574 7.074246 4.7509737 -0.68959546 -7.3878164 3.7604992 4.3979244 6.107311 6.5621195
出 -7.4322214 -2.4275432 4.1828623 -7.2659073 -19.328396 0.9686093 4.6530833 -10.962926 -3.8478754 0.4009629 12.925019 3.8170388 -5.91422 -1.1587125 2.7646358 8.330547 -7.1863794 -0.06787353 9.617122 2.2675383 7.5395565 2.8692193 2.3594084 -10.265199 -1.4422388 -0.17397808 6.7249737 2.8760989 -7.9094987 8.407259 20.932323 -0.08188859 4.4744306 -8.791533 5.5645566 5.272866 6.4049478 -0.5729047 2.3556964 -9.076844 10.68855 -11.301385 3.6179776 -11.118179 -3.9974167 -2.1624966 -7.940704 0.07782297 -9.341872 6.7087893 -6.6146674 -3.7955165 -1.5406682 5.59248 16.444614 -0.87591374 7.160146 9.82792 -0.07179542 -3.385642 12.622151 -1.1259717 7.0216374 -5.2141266
後 -2.331685 1.1573285 9.227844 -8.738392 4.374743 -5.825762 -7.7828264 -9.92675 8.89722 -1.2327658 -0.16811119 5.413206 3.7750506 2.684103 4.9549804 -0.53004724 -4.361748 -0.6616393 11.723201 2.4740062 8.064816 -0.9603813 8.826716 -3.1605842 -6.208997 3.620308 2.1183763 -4.8080287 2.3275034 -8.889094 4.054688 11.811518 1.3144648 11.297335 5.8154974 -13.793567 -2.037824 -12.42789 6.6284995 -11.149439 4.5399456 -1.3773981 9.276664 -3.985267 -9.315526 -6.31275 2.9973629 3.4569185 -3.9113657 -5.7670393 -2.3108864 -5.915926 -3.0175047 0.7472744 3.730771 -1.5729302 -4.3450165 -0.5796161 2.100755 4.653151 0.4500472 -3.8518715 -5.9278326 -4.8066993
コ -3.4534488 -0.38833737 2.2175975 6.0436416 -5.5556808 0.3349965 -1.6924367 -6.353048 -4.0899897 -0.2594957 5.2084684 -7.8973083 -0.9343574 -7.9764853 -0.47483215 -1.0670023 2.4457402 3.1158001 -8.921267 -7.614161 -0.99558306 -3.2150297 -5.0905585 -4.1335196 -0.2682624 2.904004 0.7386786 -0.9197464 -6.1745687 2.5007932 -0.18722908 -3.5046313 -2.166027 -2.3066812 -5.979118 0.78448695 5.350049 -3.0704606 -10.639537 -1.6812024 -6.761673 6.983747 -2.8002093 4.977059 5.9131393 -1.7025455 -1.2298576 -1.3358492 -2.6298034 -2.3991272 -3.2184281 2.0742793 -0.7680886 -2.7491043 1.5592486 -4.52047 -0.76914376 -0.41038 -0.49602804 -3.9649982 -3.6146939 1.7111033 -4.5091805 -0.29127106
オ -1.5258089 1.4448981 0.75283056 1.7857934 -6.434639 -2.777192 -3.378808 -4.1109037 -3.1363459 -5.633812 -0.512134 -1.355395 2.7115119 -6.32317 0.6872378 1.1773016 -9.12898 3.7308118 2.0658903 -4.8117347 -6.0845704 4.4579186 2.3478315 -3.6238613 -0.56272155 -1.2543424 2.536558 -0.20513298 1.3825917 1.416195 1.3052869 -6.9192867 0.43924332 -2.76955 0.39401868 2.5541427 8.696675 1.3759567 -4.8463626 -10.9042225 -3.7459092 2.8741443 5.7169256 -1.4102217 10.3058605 -5.057509 -1.3931237 -5.54955 -6.9736733 -5.018082 -0.7541923 -4.9740243 3.1836545 2.1936226 1.9153826 -0.7512997 -2.0064766 2.886891 8.026219 -2.7541797 -10.552345 1.5858114 -5.49906 -0.38930902
地 4.158125 6.3038783 -9.231932 -8.209842 -1.2252045 -5.7954416 10.149458 18.991121 -1.2226076 7.53397 0.21689308 9.115188 5.101564 -2.852269 -13.795636 3.2757118 -4.930241 3.9686356 -7.4136972 20.286995 -6.2783575 -0.18038495 -16.437838 -1.0662587 -4.0936975 -2.823469 4.799358 8.250266 -1.4865055 16.4776 -7.542918 17.82634 2.657096 3.342223 -6.1605296 -10.161212 -13.280615 5.4396167 -2.6583934 -6.2936273 -20.506111 14.49397 -2.221433 -14.246008 5.7407246 -7.446123 -4.4796543 -4.2579083 0.59537655 1.5979815 13.4473915 4.2614536 5.5944595 -6.518443 1.403566 14.731706 3.1130006 -3.2614324 -0.034798853 -2.6774685 4.346651 3.2774332 2.8087814 -2.3011558
わ 0.7177618 -9.839272 -14.115889 10.6356735 19.165464 7.9458537 5.480168 0.47925574 -12.55231 -1.0865256 -0.8795213 7.047425 -6.0637035 0.24372722 2.1158967 3.5020807 1.635648 1.6794437 -4.237525 -4.7298055 11.220766 -4.777557 -3.1489403 5.931276 -4.125618 -11.175205 -6.6776752 -10.028007 -0.8799252 -10.020201 -1.3277951 11.247259 19.69529 8.147409 -0.8615029 17.606934 12.140109 -19.44475 3.7749667 2.4037213 -3.118674 17.214207 4.3065453 -11.748309 4.4305606 -3.1348126 -13.705695 3.8394644 0.3789137 -9.357142 6.586256 -6.940917 13.3003435 -4.049198 -6.573494 2.037061 16.2855 -0.13121729 -9.306136 -6.5460744 -11.9146385 3.6239543 -4.574304 7.504549
時 6.505014 -2.479901 7.3729944 1.9903241 14.5891075 6.4863935 6.2595243 5.910054 1.2620164 1.6561551 0.7771239 -0.5815384 -4.279786 1.9904033 1.9388567 -9.109678 5.8325505 4.738031 4.8382893 6.2205734 16.761803 18.297161 8.297513 1.9564536 -15.324995 11.080089 12.272993 -6.6826205 4.453112 -4.292523 -5.5828424 -12.354897 8.456667 10.384616 -3.7520728 -20.574207 -14.477737 -21.9405 5.1431556 -2.3241587 -0.60707706 -2.430443 -2.2518895 -6.206919 10.058581 -7.3033714 -5.7781806 9.019769 -6.6462474 -5.416233 -6.7266207 -10.260757 13.351494 0.19239245 21.735636 13.066911 -5.4822774 -5.5818305 -8.986085 -8.162158 -5.6391983 -6.1454353 -6.0924416 3.189712
メ -8.3889885 0.6743147 3.520684 -3.1843927 -17.43466 3.0093532 -5.22221 1.4024588 -3.4436495 -3.5470784 -8.770581 -5.297943 8.073617 -6.6825128 0.6678253 -0.42830926 5.2271976 -1.7552577 -2.0315785 -5.5975003 1.6128631 -3.1123197 4.8528605 1.6114056 2.413244 -10.36767 1.1942143 -6.2799783 0.66074044 -7.024603 3.535932 -7.598941 13.533225 -4.850195 -6.490066 1.244056 6.2445188 0.57414997 -15.772611 -3.8244548 0.04686338 2.7240448 -4.9256535 0.67755985 11.902572 -2.8733566 -7.600634 2.1470356 -5.5626254 -5.2481112 6.43257 -1.5116743 -3.5155244 4.8089814 5.212991 0.7962059 -3.3891823 -1.8843023 -2.4630017 -1.9936233 -4.604967 -7.2549663 -3.6826112 -11.848392
l 6.141612 -14.468171 -0.6883747 3.4073532 -3.7302206 4.0007567 0.93505967 3.4280946 -2.9651673 -0.76364166 3.2607157 2.2534652 0.6775466 -10.366441 -2.637352 -2.3328733 7.930268 -0.02575613 7.690347 -3.1140327 -7.3944807 6.2017665 9.221209 3.474151 2.2216437 0.19143356 -9.735167 8.496634 3.5481956 11.827629 -0.56663716 0.19143575 -3.639154 -1.6508213 -2.12988 6.4393106 8.667269 4.5791454 -2.883857 5.70174 4.5117106 0.3655807 2.470102 -3.3606198 8.02716 3.3128233 2.3871417 -4.8459616 1.9295514 -2.2883449 -8.728205 -1.4814123 0.9157771 -3.8399827 -13.325737 -11.654762 -2.622335 -6.193494 -0.4583914 4.666163 -0.22422774 -4.030175 -4.603956 -10.46762
会 -9.035523 -5.8660107 4.440232 -3.2962885 -10.680317 -17.265022 9.209204 -6.0501623 -11.638141 13.946581 0.1738622 -11.916449 1.8333791 7.067898 -0.25644857 4.392708 -8.373625 -20.532244 -3.0393872 0.4895594 4.4343176 -9.484288 -8.611554 1.2606095 14.132922 0.12638769 5.2348022 -7.0979776 10.052603 -12.94591 10.890642 0.35195383 -2.1101923 13.524708 -7.940319 14.289508 -5.159733 12.879473 13.574441 -1.7111231 7.7288647 -0.31074202 2.037282 -3.9409108 -7.3111725 0.49005884 3.439862 -16.899605 -6.098368 5.635462 8.251764 -14.145359 0.09907478 2.835033 -2.7209342 -2.7666466 0.6539507 -9.443734 -7.423127 -25.395367 -3.4196863 8.343063 2.121302 3.8034573
え 2.8269227 -10.267995 -2.2390943 18.421616 11.723977 4.08222 -6.220288 -9.935639 -2.1898527 5.5891037 18.796453 3.4020615 -2.0891366 -0.4688123 -2.6906576 -22.298275 -4.5506506 25.170519 -4.7229886 16.409935 3.2923677 -6.2576923 -1.2577441 5.6143866 -6.7005916 -18.39585 17.632187 2.4478376 1.6795703 -26.530912 -11.659467 25.282696 22.017862 -7.5253534 -12.88768 6.4774137 9.753166 -13.391252 -9.917715 2.5924149 14.625841 17.25009 13.206425 -2.9344013 10.386475 14.102401 -4.284787 -8.868789 -5.5502377 -7.9700623 13.791274 -11.9534645 10.613399 13.398584 -11.014189 -6.8967843 5.9522552 4.0778165 0.11001753 -29.381384 16.230587 -13.849073 0.91503704 15.155653
ウ 5.187008 -1.3706938 0.12935102 2.264949 -4.033373 5.507508 7.108512 -9.233606 -3.836548 -13.540385 3.0508492 -11.186035 13.782081 -2.562129 -0.19868083 13.718766 2.2695227 10.072576 3.6877146 3.874386 -14.836413 2.307514 6.323845 4.3334775 5.1479316 2.0140412 3.274362 5.830296 -0.9293295 6.219883 4.4424014 18.497295 -1.6725639 2.8503168 -2.360606 3.11074 -0.27236286 0.8580384 -9.189377 -3.3857288 0.29982582 3.1441963 3.2716649 13.121393 6.2081213 -8.092636 4.236626 5.113885 -9.415883 -9.195753 0.24504477 14.233582 1.0930724 -16.660425 0.6197417 -7.419701 -5.0298405 -5.3070245 12.490218 -3.182837 4.1759934 -4.160813 0.8613486 11.502004
部 -10.1708555 3.727085 -9.198811 3.9359667 -4.262415 -1.315539 1.4305098 8.900005 2.16811 1.8846186 -0.074667625 1.2010221 3.9334521 -4.480611 1.2691932 10.181288 -4.6890955 6.466762 -7.5073094 -8.844728 -2.434687 -6.054281 -5.00279 -3.607857 -1.8534348 9.661547 10.041096 -5.39723 -0.6071635 4.710648 -6.7316446 7.263983 4.1766706 -0.31775483 -11.455662 -18.305328 -2.09257 -0.874753 1.6069278 -2.3022742 -5.629962 7.418402 -5.765058 -8.160359 -3.2105157 5.0779853 3.7883444 -4.359839 1.8339825 -1.1134595 6.9735565 -3.066677 -6.843267 -5.9498715 2.3646078 -0.5021042 -6.710061 -5.0813813 1.1987782 -6.271717 -2.7079656 -4.689472 -4.9074163 -18.393509
ニ -4.2603636 -4.710695 3.547619 1.5895061 -13.268527 1.1164535 5.497197 -6.5904284 -3.7150788 -11.275321 2.5620434 0.65093136 3.5706155 6.860662 -3.2883754 3.522462 8.852016 2.9431481 -6.038518 4.978298 -7.5622106 -7.6344695 -2.3457563 3.8052123 -1.6661239 -0.7156926 8.507027 -3.313253 5.263124 4.747971 -1.0202243 -1.9333478 -1.0102792 1.0705295 -5.6368904 -1.987215 5.5699906 -2.9380865 -12.7417345 -2.7032454 -6.47717 6.906939 -2.3589947 2.5850658 2.8536751 -6.984044 -11.947003 1.0103135 -0.40165225 -6.909992 2.2902029 3.3220298 -7.766583 -4.4861436 8.684767 -4.175732 -1.8121493 -10.851693 6.153917 -0.40594974 6.7282386 2.6848402 -3.5805557 -2.0385537
合 -15.710235 -22.586159 -3.9149497 -16.882917 -29.928892 1.0112288 -9.419518 6.3998137 4.75107 5.565668 9.295232 -10.173899 19.075304 4.103781 -7.401762 16.500978 7.0799255 -1.1941298 6.854242 -2.99901 -3.6562102 6.5058136 -2.9841924 3.3533404 -4.1355925 10.563665 8.320108 10.36773 15.704523 -8.345682 8.422823 2.2869766 -9.275529 -20.43069 12.695546 11.338343 -10.613054 0.15256296 6.47507 6.4502683 3.9467256 0.37148044 1.8767995 -16.085505 3.3793008 12.856569 6.0495844 -10.3923235 -9.244974 2.0517776 -6.658133 8.108477 17.466066 30.025284 20.133856 2.9844406 3.0663004 16.140518 9.637335 -3.5731242 7.3959036 -2.0769472 -6.42393 2.6720955
上 -0.753615 15.339088 0.5177552 -7.2850475 3.7156293 6.048456 -1.3767055 -10.169756 9.041082 14.557453 7.99665 -8.564587 0.34592685 -6.176478 0.30669406 -3.906094 -0.8324952 -0.14932233 14.6664915 1.8037844 1.0951108 -6.54993 -6.348965 -5.4953976 -9.116793 1.4389082 3.3346972 10.130937 0.3725348 -6.627084 7.627456 9.986417 1.3218863 -8.857527 3.6843708 -3.2888913 -5.261399 -5.6652107 1.3067669 -6.0614667 -0.5600298 -13.186019 -4.6853094 2.6994126 -1.9689132 -2.5033867 8.796451 0.7011616 7.926208 0.49553984 2.2290194 2.2232137 3.8462903 6.934937 -8.067459 3.6826856 -2.461374 -6.0430984 -6.7370996 -3.5239863 -18.817184 0.6496964 0.5722887 -9.891906
ュ 7.5043035 -4.707065 -3.5024588 7.101793 -3.4244602 -14.975842 -15.589976 1.524026 4.8407154 1.9206728 8.307182 -1.0152099 -2.3831916 -16.289557 2.9259927 -4.2471294 -12.281553 0.17624784 -0.35158876 -8.818234 -0.5857383 3.1753798 8.547115 -1.1843951 -7.763793 9.841626 -1.3609223 -9.168314 1.627357 -1.6981076 -4.037285 -10.658416 0.18777904 -7.141443 -0.013725025 4.7329135 11.604611 0.86098915 -9.194934 -12.525085 -7.1372747 3.336799 8.425207 -3.176863 -5.210795 -1.4266806 -15.294363 9.666211 -5.592422 1.7243378 2.4177172 -7.8494368 8.084705 4.404184 0.8357379 2.654974 7.7673297 0.8204005 3.5066113 2.5218134 -12.520565 3.7299974 -0.28032982 -7.1511774
チ -8.283424 1.6860343 9.459103 1.4523083 0.95486 9.587015 7.913027 -10.651935 -9.093724 -11.264873 1.334916 -4.150697 -0.9220275 -0.66572315 -1.1762267 4.7272415 15.040482 7.102577 3.4610333 7.8580484 -10.601856 -11.184115 -7.409402 -8.738214 3.4145007 5.293354 9.656184 -0.99818003 1.3320615 18.622002 3.1329005 12.837183 -4.927028 -0.3284798 -8.155627 7.8294973 -1.4295715 -12.435775 -7.0722895 6.9667273 -3.540656 -4.709567 -2.5939674 8.125299 6.021949 -5.3153043 2.9833252 -11.19993 -2.8764946 -6.8523893 -1.0919983 -1.1687422 -5.935523 3.7495272 16.91887 -0.31602553 -8.387991 -6.25182 9.157942 -3.7670662 6.582679 6.6696653 -10.138007 7.402955
発 -3.0896435 -2.0429947 19.515371 -21.293972 -11.597801 -13.228196 -0.82712877 -3.426206 5.4708157 -7.1671014 -9.096095 -10.518007 -3.5778728 -0.63911563 -20.890352 -18.718805 -14.109144 -3.357164 -1.8260766 -6.450908 10.6084585 -4.041082 -17.970407 -0.74542534 -18.937992 6.1658664 3.8705473 18.104374 -19.82617 -8.906138 1.4210252 11.391896 10.724132 5.678299 0.17764084 11.940206 9.385314 0.115295865 2.710544 16.310379 -3.7874815 6.592722 -15.768881 7.1907477 -14.551365 -4.4685 0.2916538 4.4501367 -3.2752337 13.917616 4.8319793 -17.707512 -5.040516 -7.4832807 -17.134083 -17.17058 -0.7458523 -10.404074 3.3404446 -0.8476754 -11.226202 -27.832865 -3.3378074 4.9652143
作 -17.415907 0.6924192 11.181762 8.972893 -15.228901 -1.882225 -2.5259051 0.014369562 27.696598 -2.3577204 -10.079788 -5.6314383 -15.347659 7.1499686 6.8054423 3.9057348 0.20704421 0.4095598 -6.458274 -3.1000178 0.021430695 0.18768892 2.1281497 9.78372 -13.52739 5.983415 2.8799453 1.4093847 -18.865398 -5.2956777 -3.579474 -21.907862 -9.55302 -4.2132764 -7.8534536 3.1785464 14.985515 -15.080292 -11.556151 -2.5511887 4.9078846 4.44678 -4.8699574 -1.8395233 6.96236 8.267582 -7.626003 5.968952 -9.109697 -9.168836 -5.5831437 3.8154373 -10.518201 -9.667602 -12.432766 4.803174 7.1731606 1.1979213 -8.9868965 5.64465 6.075657 -7.371693 3.7970567 -8.78679
用 3.0296903 -14.410706 -7.3670597 -8.563763 12.059647 18.929766 -5.4345293 10.2523575 3.5853684 4.279076 3.3456488 -9.4479 -7.502922 -3.848653 5.732816 -14.03991 16.618267 -0.12259611 -7.414131 -13.19478 8.176042 -12.584194 6.791398 15.350823 -15.165673 -5.184165 -10.26164 4.819021 -5.968394 13.987975 9.119239 -9.464236 9.085955 -8.894163 -3.6963787 0.069104604 2.0194728 -7.7246304 -3.2264278 6.388872 -14.065079 6.709875 14.9197035 4.172043 1.4421053 8.216981 14.681312 -7.5733976 5.375263 1.8550372 -5.813167 24.931421 8.987657 -1.8849726 6.697722 -4.5665374 10.420808 12.341069 -5.1879725 -13.142375 -4.9920335 -14.671411 -16.533768 13.034876
サ 4.6047935 0.12828968 1.0635781 0.42653817 -4.7804117 -3.1462777 2.0688982 1.7681156 -10.320586 -5.542493 7.12567 -7.499039 0.76813877 -8.441753 0.884871 0.1604257 -3.1316428 2.0585659 -2.9751756 -5.7956953 -0.10835045 -2.3618665 -3.4653974 -2.2973187 2.1729689 0.4505162 2.473289 -4.3559613 -1.7035886 4.7022505 2.7542918 -0.4955909 1.1059393 1.1072879 0.68571955 -1.5974561 7.1192036 7.946811 -5.750951 1.4158499 -4.398816 -0.27320504 2.6557667 -0.5036437 4.556791 -5.6102505 -3.2081332 0.3497287 -2.9907832 -0.46963003 -4.61663 2.710547 -4.7328568 1.0153729 -0.30844507 -3.032622 -2.6068902 2.8415532 1.9214231 -12.241993 0.13635601 1.3988173 -2.5419116 2.9186513
ブ 4.062543 2.6088436 0.35195345 2.2047815 1.786585 -3.7373056 0.5829922 -7.527093 -3.6467123 -3.1882496 -2.3327997 -8.890976 0.46668616 -7.3807993 2.1778028 0.79259324 0.90043634 7.5044994 4.00741 0.5047423 -4.627252 0.3757097 4.6301103 -5.75168 0.90960544 4.745054 1.0516557 0.092441805 -1.3843876 0.94386435 3.7995734 4.6228056 -5.4108744 1.4625218 1.7703786 -0.44680676 5.313614 3.42103 -5.9021525 -2.6789372 2.6336813 2.863955 3.3775904 1.2824485 7.8711777 -8.262651 1.8693333 -10.836667 -1.5510417 -3.7855184 -1.4042782 7.2013965 1.3258787 -6.059866 -3.9329948 -7.028967 -5.660301 4.0198607 6.0637107 -5.178142 0.9668117 1.1790257 -4.3294525 3.3196898
戦 7.294852 1.849576 -5.3884993 -25.905191 2.909001 4.822276 3.6529398 4.8418384 10.4241905 -23.007599 -21.984838 12.20801 -16.245874 0.46209547 2.5448694 23.952307 7.835428 -4.3184767 10.957873 -2.1434786 -8.681677 -4.637903 6.07489 -0.39738867 -1.9899654 5.1268535 -10.463045 -12.674072 -11.223154 -4.1041603 0.5727967 14.918673 -1.1729487 2.1611192 3.945368 0.4414248 11.702236 -7.199428 12.475336 -5.9636693 -4.8691483 -11.485788 -0.5402677 -3.9524791 -6.888914 -1.3749659 7.4330277 -5.509704 -0.32196614 -24.348568 8.6834345 -15.14467 6.560224 18.669111 -5.3017855 5.6951985 0.44590566 -0.8610314 13.985291 -4.1438766 -4.60197 -2.127287 1.066411 12.459962
d 0.4337799 -7.5197515 2.2218153 -0.5539438 -1.5460191 4.332876 -3.8407674 0.19081664 -4.4297347 0.90012854 2.0596614 -0.82184094 -2.2228465 -12.188132 -2.2504873 -8.312829 4.142018 8.587747 10.491291 -9.858749 -6.205278 5.0063276 6.4038186 1.4392264 -3.076781 0.8281097 -7.86733 5.033171 -4.6774898 2.0771608 -3.1290321 -8.809295 -12.53013 0.9644812 -1.7944589 4.5795727 5.7101026 7.5054474 -4.099255 6.257011 3.590939 6.0493283 -5.677971 0.07666681 7.1325173 7.7739844 2.1613452 -5.616505 3.3757653 -4.6516333 -12.655859 -5.1297746 1.0739355 -5.0257173 -9.891084 -13.964363 0.7913232 2.8285613 -3.7372308 5.4627333 1.5296581 -10.732418 -9.937908 -13.162583
だ 6.878349 7.0462875 1.0039209 6.628435 5.00559 3.0522258 -6.592965 -5.6974 -2.156368 -6.029485 -5.638682 0.037830055 1.8653636 10.465197 -3.0236208 -3.8660176 6.090317 -2.4143546 3.5859904 1.6698846 -2.465239 11.355236 -10.737031 -5.7938437 4.161968 4.074166 -16.965988 -6.521972 -1.4617054 -8.720625 2.527608 0.7098574 6.687436 -9.01813 3.1831625 3.4291465 -4.096661 -4.4847684 -8.255269 -2.777354 9.050077 3.1359084 6.791178 -2.283318 -2.6042414 3.7398202 -3.3811326 14.889176 -14.022657 -5.4413085 3.2858424 -2.2272356 -2.5774844 5.9585795 5.646143 -1.9470549 0.24318027 5.402467 -0.96324986 -5.8202806 -0.36753246 2.9110692 4.7491984 -2.8055816
ャ 0.46475768 3.6278658 1.2304728 13.129908 0.27022368 -9.203097 -24.87941 3.0470011 4.106422 15.028816 6.483362 -5.6402793 -5.2665815 -23.999525 1.024818 -4.8476777 -13.227906 -3.3462522 3.7238472 -11.334248 0.67332536 8.67132 10.7288265 -9.273401 -11.238441 10.30665 -8.472069 -12.913613 -2.871336 -6.2346973 4.761439 -12.777431 3.7435198 -11.569135 -0.26192933 6.026305 11.289117 1.5498872 -19.697844 -11.499226 -13.344686 -9.836969 10.93101 -3.7331145 -0.89002556 -1.4742266 -3.962598 3.4709642 -4.3222094 0.036276132 2.780351 -21.91477 8.292486 6.008038 2.3516574 8.190102 5.335594 11.487582 4.852897 1.0341454 -18.4261 2.2250483 -11.361625 -1.9244416
ナ -1.2330652 2.522012 -0.002963237 2.643381 -8.138715 -5.769249 0.14262252 -1.9588897 -7.391744 -8.752229 -2.0195165 -3.5413878 0.88309216 -5.16585 -3.0295775 5.2797394 -2.0628142 2.6632047 1.9773165 -1.325772 -7.4605556 2.1754863 -0.6234787 -0.10248205 2.1576326 -2.378333 2.580598 -8.061122 2.889031 0.46463725 1.331492 0.71424603 -1.3877542 0.82732636 -3.4079325 0.26452604 5.9518723 -0.20097668 -4.826419 -3.5678558 -4.6623106 0.034627028 -0.5417045 -0.8334996 4.9335017 -6.0887914 -2.6996715 4.594843 -6.1145062 -5.2407446 -0.3531453 -1.171861 0.27236414 0.7830512 3.7982123 -1.7501704 0.38092038 -0.9351241 13.070817 -3.6029563 -2.2733035 0.4179912 -6.2936287 4.3623304
代 -6.3481326 -1.4004792 17.582325 -1.941119 -22.005095 6.5677285 -4.829186 4.834495 2.6165318 -5.089058 -1.8989638 8.112669 -3.694464 11.684233 -0.3092942 -5.896188 -19.616829 3.1939237 9.954008 10.312075 9.552422 -4.2505827 6.991247 9.543197 -0.68945986 8.946464 -6.3707304 -8.8898325 -12.654771 7.1253347 -3.7250254 4.0368834 5.2726684 -5.2489047 18.165247 14.053758 -16.98864 2.7879398 6.522127 -4.807837 18.44695 10.536923 16.350368 7.93091 -16.779676 -15.156704 -9.104241 1.0011839 16.703276 6.7123346 7.9893265 -6.316544 -10.697896 -0.9265352 -8.568951 8.961889 6.25475 -4.140181 15.383595 -4.424157 -3.7043417 -2.4416997 0.3671101 2.6003182
場 -4.8401113 15.512135 -6.110976 -3.8488653 24.951653 18.083517 0.049105026 15.032239 -4.618841 -3.2013993 -17.725672 -21.160515 -9.564926 -3.2802494 3.6975496 10.543173 -5.568502 14.282876 -4.604427 5.5051866 12.993592 -24.793858 10.4569 5.2094545 12.331901 -9.189408 -8.800894 8.501666 4.083354 -3.5775332 8.943892 7.8632956 8.821811 1.6984856 -3.1616707 3.7189946 16.969494 3.5050611 6.106213 3.3147414 2.069729 6.3949723 -3.3259192 -3.8459504 16.883652 -6.7546525 3.1516526 -0.53393555 -7.0084586 -2.311284 -0.5939553 -12.832836 -0.6638525 7.9050307 -0.5209109 13.868395 -8.228301 1.8675032 -14.69615 10.347626 -13.170215 15.622394 -12.696147 -4.4685636
- -4.2753043 -18.473953 5.938808 5.161136 -3.58457 9.655265 -2.343523 7.7537475 -10.96876 -11.6155405 2.1382456 6.93957 -7.75595 -3.9380949 -15.574584 -7.8439527 -2.4511776 8.87489 9.479811 -13.57292 -14.121893 0.34911782 9.551498 4.7813616 0.79623926 1.6476529 7.6283937 -1.6318045 5.2543373 16.765032 -1.1715467 -9.498389 -3.7375817 -8.795802 12.1846 5.1093793 12.640459 9.4001875 8.250113 4.2594757 10.739406 -13.096066 -8.107784 2.383476 -0.83979803 9.187826 5.780359 2.6258745 0.33427006 -4.5369115 -5.0504494 0.33568218 8.963108 0.81644905 1.9040837 -2.1478238 -2.7511957 1.3380723 -8.529541 2.695629 -4.488776 -9.0203905 2.9926627 9.704601
エ 5.5440254 -4.8237376 2.8377638 4.3885107 -2.22332 -6.6953073 -6.8010144 -5.92121 2.7871764 -1.3366761 6.9477687 -2.8718941 6.329701 -5.796223 4.9356027 0.5891298 -5.200555 1.3402122 -1.7547692 -5.301196 -1.4584572 6.41683 2.3016694 -1.8877525 0.71731985 -2.747351 -1.2736152 1.1468785 3.4500043 2.3804328 -0.08480243 -4.514426 -2.0664904 -3.2744114 0.023488952 -5.2896466 12.207492 4.078735 -5.8401775 -8.574537 -1.3253225 3.718882 -5.884951 4.21629 -2.3612738 -2.6945024 -3.0181084 -0.59046614 -2.1985898 -9.047362 -1.9598444 2.0541036 7.4340277 -5.616193 -2.4632084 -5.558109 -3.1766453 0.47652465 7.7624726 -3.037999 -5.0570073 3.3963766 -5.493033 6.140533
『 -48.11427 -6.682528 -32.57505 -19.840141 15.714263 -0.5841837 1.10206 -15.954014 11.934703 -33.382786 51.144527 -3.2240448 -0.14595212 -22.148645 -3.438161 3.2127914 -22.32374 -23.886827 8.050129 25.263195 5.5191 47.666454 -5.7180157 54.71507 -8.694742 16.353569 -26.18341 6.781944 7.088111 -21.855814 -0.53981453 -36.98061 -22.767078 -9.714123 -14.965953 -38.30804 7.879649 -35.64742 -31.531479 49.51521 38.64946 -28.874023 -8.449554 7.4523253 10.005212 -22.60483 -13.8179 -32.573086 -11.812506 -20.165033 21.43464 -5.1537094 -61.78563 -1.3762016 0.8466828 -27.251556 33.314415 -18.113077 -6.1961827 8.81553 -44.04997 3.2017813 26.298994 10.121537
』 34.28064 11.26852 42.518715 19.687582 -23.412706 -18.153742 -6.2535324 -1.5062777 7.2701573 44.965656 -44.443844 -5.971674 -39.313313 40.409756 6.9067516 14.707722 22.991217 28.47203 -4.274266 -38.301308 -17.612932 -27.274166 5.5913777 -30.638689 22.7736 -29.286947 39.68035 10.244574 -15.702565 0.7041396 1.3551906 -3.98603 11.945182 11.4376745 20.028343 33.18385 -2.9164188 -5.8406324 -8.369404 -45.086628 -35.92732 9.386531 14.831622 -27.065157 -1.6867986 18.110767 -21.389174 41.479755 21.595388 -12.3900585 -48.179325 -7.946415 53.342117 -16.719666 -26.07327 11.178351 -37.82889 -7.813115 -3.4097242 4.0469317 39.30034 -19.541327 -7.9456286 -13.331579
同 -4.980106 3.5228136 -8.767031 -1.4494241 -3.4183989 -1.5562112 -7.552853 0.6798891 -2.2341206 3.2905676 -2.9077957 -6.240348 4.678402 16.416277 -6.588046 2.8716297 -0.37226254 0.18355875 3.6512423 -7.236932 4.676888 -10.435178 1.838504 7.766128 7.9250407 -4.4033203 -0.80990916 -1.7919561 -2.8620083 -3.9607434 5.399634 1.8138309 -5.8287554 6.490117 2.0374413 0.88045746 3.797936 9.639665 0.84005547 0.58199406 -2.79789 0.95676064 1.9058198 10.969192 -16.485312 -7.836631 -3.9741955 -0.1685037 13.445452 -1.9319557 1.7974008 -17.415232 -11.248081 4.7531657 -5.953079 -3.271113 7.5962186 10.282938 -0.2674176 -0.2726915 -5.624322 1.4111341 -11.90192 -4.502908
ん 1.6320615 0.58773994 3.0104 12.680701 5.980586 9.763053 -14.96045 4.1005235 -2.8447561 -0.21837457 -0.81074685 7.5716877 -2.4860907 14.299029 -7.885699 8.644647 4.884664 -15.702801 -9.040153 -2.6050653 -13.861254 3.352369 -24.894888 3.235347 12.550609 -2.2203953 -2.3547282 -2.6369135 6.2737856 -5.33752 11.782026 -15.994992 1.7057925 -10.886463 9.350278 -1.9089276 -3.6541271 5.232706 -3.1903553 -5.4679155 0.06629376 -4.969254 2.0878823 -7.4209023 14.747277 1.604744 3.711023 9.06106 7.342007 2.7077873 -0.7861075 -3.2731955 -5.798714 4.7426515 4.284418 -15.108295 -3.6560671 0.2009128 -2.1884775 6.994559 -3.5302331 7.931167 10.188688 7.596136
的 -0.33438024 -0.55775017 5.35902 1.8391038 7.4085813 5.1799674 7.7410913 5.060583 3.9998348 4.2509413 -2.637277 -6.0764756 5.237064 -2.04518 8.034482 7.77571 4.659303 -6.602262 -8.405564 7.9327316 -2.8968341 12.29748 -1.3056715 12.905629 -15.999497 -1.7287027 2.4662704 0.6124309 -8.7601385 -0.33177713 -15.67293 3.508215 1.0750253 0.47585934 -3.44044 16.826067 0.67031074 2.692249 -0.37489855 -8.180937 1.6702384 3.7489352 -0.031716466 6.852544 -10.501098 8.542315 -3.4838178 -5.297323 4.3762445 5.726639 8.624752 13.375548 4.410279 9.335867 -3.6045094 6.6758175 13.072547 -4.2749796 4.5325794 -10.139544 8.180171 7.5857058 2.113604 -2.1543043
生 1.3185649 -13.607592 8.485122 -5.0998893 6.6663065 -2.8047411 3.6003664 7.0110645 2.550523 1.074871 -4.705077 4.122999 12.972846 7.4356837 3.9729683 -2.0586638 1.7782327 -1.766393 -8.908609 -5.9579024 -7.382817 14.428731 13.228247 10.909555 8.31039 -1.1800069 5.076228 -4.0299897 -7.343191 5.4262795 5.971512 8.480029 8.489545 -3.0092363 0.8898805 -8.791119 -10.817913 3.5766575 -7.9018707 -8.963574 -5.031528 -0.94889724 10.2015295 5.7225943 -1.146403 5.7046604 -16.950592 8.669117 -9.480969 19.6159 -7.7269983 -4.48005 -7.015468 -2.1716268 -3.9705532 -0.17069958 3.7262557 1.6793656 -9.493988 3.8015933 1.5318154 13.214035 -14.210991 8.9493265
名 3.0300074 -7.1325474 -8.084867 7.8322725 -1.6872417 1.09946 -7.0857553 -4.191436 -9.740521 8.304399 -8.225965 3.3311915 5.8846793 2.6701906 10.85079 1.2762123 -4.066071 0.15178442 -2.6627278 19.7175 7.326572 -0.9598439 7.815548 -1.1528941 7.90687 0.8980104 0.7634811 2.2145283 -9.308494 14.7278185 -7.784041 -9.289457 -5.217344 -9.977212 3.2439613 -7.500192 -4.616594 7.800002 8.316297 21.142548 2.1924217 -2.3664467 15.574063 -2.9103267 8.258357 -5.7957673 0.99996936 17.356415 1.5251788 2.81608 4.6739254 -8.013799 1.0324639 -9.262273 -6.800703 -1.5278683 -3.5058632 -2.9615371 2.1710405 2.1428268 -2.154909 -1.6810656 2.5325317 2.311233
ビ -1.4997778 6.7490363 -1.8673038 -5.5180364 -0.6478002 -3.1075091 11.2711735 -5.8389516 -8.095852 -11.187037 1.1798481 -4.534096 -14.774995 -0.42637527 -2.0283206 -0.0038005922 -6.947457 1.9965559 -5.4955416 2.094385 -3.6205661 -7.1128206 -6.6466146 4.2451897 -1.5581932 -5.9479513 9.324598 -2.8070574 5.4790297 4.9153023 -3.858026 -15.378739 -7.9268913 0.45004657 2.6573613 -10.535661 5.2570577 -1.8078446 -7.8611608 -0.8445999 -0.59687585 12.576618 -4.623335 -4.810688 4.232056 5.2763543 -15.201559 7.149423 5.189932 -6.066293 -7.734358 -6.584515 -4.0360446 8.055171 5.3369718 -7.883906 0.5981646 2.1129045 3.4626625 -4.3044605 1.8316633 -2.5351598 -5.227887 -3.4504697
キ -10.600088 5.6067533 7.8303046 0.6580381 2.6245606 9.0580015 5.5585837 -9.338693 -6.195553 -4.7534833 0.0006333489 -5.1858416 -5.153916 1.7002932 -0.010005499 0.29528922 9.976618 4.760396 -5.031533 6.128416 -10.701078 -4.7965326 -7.9917912 -11.18787 0.7777531 3.3820484 3.1405458 3.1954553 0.45872498 8.337043 -0.12973326 0.97681516 -3.5553153 -5.1984544 -7.4389544 -1.5877454 10.218803 -7.877158 -15.912324 8.148034 -5.4103703 -2.5692508 1.2385974 3.380894 4.7573295 -5.6492376 -4.0992303 -5.762744 4.8712716 -6.6643667 -0.5209834 1.0348648 -8.195134 -2.334667 11.950672 5.5310297 -11.481573 -0.24904567 0.8047315 -3.6069794 12.191789 5.8381286 -9.436244 4.0140824
者 4.197919 -4.5738115 -3.1257212 -9.647636 4.161886 2.7447577 6.441478 -3.6350706 -2.8638272 2.5126991 -0.7933741 -11.846949 -2.2838614 -1.1350482 14.361008 2.8887503 5.444163 0.56595755 -7.895976 13.130638 -0.16114475 -2.8223023 0.7719139 0.7683078 1.5253826 1.1751703 -0.07455593 -5.0243735 -1.6301248 -7.813303 -7.807807 -4.031377 -0.09441347 1.9773074 -3.1983206 3.329263 -4.70109 8.785604 -1.4682103 -0.8881458 5.8108363 -5.895898 12.639446 -5.1145406 -10.397749 2.159424 -3.3619888 8.925168 -10.387999 6.069226 -3.4339588 -0.039889477 3.2474253 -1.7669517 2.2737465 -2.8735542 12.030251 -3.1731088 1.1470195 -4.3322616 1.8342031 10.497798 1.6415274 3.4822717
ズ -1.8521284 7.603931 2.7150416 -0.11665407 2.5218441 -5.056308 -4.6120596 -1.4335238 1.605775 0.47738463 -3.9463384 -8.028667 -6.154837 -11.844472 -3.0634553 7.2056227 -2.3003283 7.00086 15.555609 -2.4810383 -2.1790075 -0.90186715 13.845489 0.48419183 4.806185 11.170269 7.34263 -4.145406 -8.699956 -2.7181373 6.7651 0.7833893 -8.115494 -6.1716604 -3.2700875 11.0416975 4.815739 -15.320072 -8.882362 -2.6893835 1.665799 -8.53473 6.312932 0.5793019 3.6157408 -1.8864228 -5.3709497 -0.04073202 -5.138119 -9.391112 -0.4921504 -6.6334205 -0.123832926 3.7812781 3.6382241 1.5883883 -4.424021 0.07782332 11.7948 9.491168 -8.646334 1.9511878 -6.866485 -2.4537847
間 8.833495 7.6482825 0.29654402 -2.5394185 -4.124247 3.6730464 4.8031173 8.217117 3.934675 -4.7043357 4.120664 -1.6881981 -7.8358116 5.1001945 -18.125744 -1.6823575 0.9282118 13.417872 -0.6318346 -0.6474999 -5.6383715 9.25983 2.5913541 2.9833543 -1.3199809 4.0764084 -0.9792656 1.7175589 7.8142557 -17.632763 4.9728556 7.360372 -1.153344 -0.5629336 5.350088 -3.3499186 -1.1360385 -5.848196 8.048089 -1.8905426 4.8127084 6.3108788 -2.7508337 10.101318 -19.467346 -13.867775 1.1515214 4.1131487 11.458029 6.6894007 1.707689 -1.4763086 -4.4094825 -2.7413883 5.0709405 10.983587 7.200864 1.9440283 -0.4473757 0.5809197 1.9638195 5.434081 -9.422962 4.599391
市 8.922955 -5.5241394 -5.403655 10.909151 -2.01154 -6.5391564 -0.40729225 16.065388 -2.379918 4.0348406 13.201128 -3.6770122 -2.581853 9.766825 -13.23977 4.7069216 -3.350581 2.6418824 -8.041967 8.25462 -6.531279 -10.061486 -13.358885 -5.250108 8.633788 5.9081626 -1.3752366 2.6921458 -2.968997 16.171686 8.081966 5.4363604 -8.097886 -6.038678 3.0083067 -9.615666 -13.41024 15.726061 11.230366 0.85180134 -6.3123546 12.561495 -12.545064 -12.931862 7.800003 -1.4114283 -4.236998 -4.8691926 -2.2671237 10.397601 12.808302 -2.1873214 7.147889 -5.6259413 5.0653954 -2.672342 6.4621806 -3.58611 -10.398765 2.398575 -5.086409 0.6544565 15.388433 12.220438
成 -5.6256704 5.0805693 -12.819147 8.306965 12.820401 -7.05653 -20.527697 -4.4625263 -8.368577 10.441212 -12.362116 1.8022605 17.817091 8.190831 -12.391516 2.0362573 -3.579165 -9.462589 -1.2141701 1.2083002 -10.242184 -4.7860007 6.818084 1.2144613 6.01354 1.2794693 2.70765 17.427359 -13.871519 1.4354709 -9.446796 7.6320124 -5.476803 4.942445 -9.083433 1.9834492 5.3751493 -11.259537 3.458743 -13.786783 9.264589 11.716118 -18.044886 -5.1434617 -14.374234 -0.9648014 4.45785 -14.977978 2.193469 4.501476 -5.2343965 -6.0351496 -0.014907774 14.6253395 -0.9481473 16.884743 -6.2055964 1.4557837 4.738949 9.987578 1.1832622 -11.6201105 -6.579572 3.501713
ち 2.5460744 1.9927757 0.06508154 5.8247004 5.862563 1.7133334 -7.273839 -3.0271268 -3.2516236 -7.4916897 -2.8251605 3.3404312 -3.5466297 6.863026 -1.4833629 3.790746 -1.0576274 -2.2304149 -2.827483 2.1597044 -2.9033015 1.3979083 -16.766718 -2.8978372 6.4520683 6.46896 -8.790234 -1.1473908 5.248221 -10.396658 -1.4104952 2.3534427 -5.086387 -6.8923464 -1.0294379 -2.281476 -2.8615506 3.1339889 -7.078332 -1.0784385 7.134546 -8.572697 -3.6609817 -0.5984518 9.496214 5.3007264 -0.85579437 11.097812 -9.23182 -1.6771294 2.1457484 -6.057794 6.8075595 4.79471 3.4441657 -1.8112351 -9.06555 4.335738 -0.7145065 2.4905937 -1.8519762 6.2223425 3.973857 3.501755
事 5.809179 1.5921792 4.647558 -7.9166117 11.020717 -12.37898 -1.6122414 7.2331862 8.361997 1.5213786 5.9548125 -6.733357 5.086457 8.291405 -2.3592718 2.8410616 6.2634196 -5.314636 -12.544301 9.165091 12.291888 -18.375172 3.4976883 -11.374698 3.7808917 -2.6006563 2.0173275 -7.1994476 7.3507195 -5.4815655 8.858932 -5.2888403 -3.531264 10.933434 -2.205905 2.7167623 -5.805313 5.873558 -2.1744728 4.948033 -5.734991 5.9862638 2.331746 -2.709082 -8.114397 14.738158 3.857874 16.871988 -2.563376 0.6539002 -8.600638 -7.4301276 -12.439319 -0.4327835 -7.3554845 10.146216 10.160413 -8.750061 6.5754676 -8.343606 1.9600505 4.5358276 1.4013927 0.12593485
パ 0.44452244 0.9013303 6.7120924 -0.5511447 -1.7618142 2.5289924 -2.2651224 -1.8332767 -6.82096 -2.8894136 0.5255816 -2.801955 -7.549904 -11.59114 -1.6062608 2.736236 2.8091884 1.7556007 -4.464771 -5.6366634 0.15155841 -0.852908 -2.792284 -6.985305 -2.651262 3.1370087 1.5643041 -4.6695175 -2.5383315 0.5441118 1.7103795 1.6857349 -0.9572581 -1.4987319 -1.0962197 1.4300252 7.0061502 -3.8681738 -7.603254 -0.8699412 -4.4192758 1.8007227 0.93375874 7.5314436 6.157429 -5.9429493 3.1988308 -5.97565 -1.2560064 -0.7299625 1.6618401 5.4221244 1.0618212 -5.6159883 2.6390724 -0.3820421 -5.9554257 -1.5939106 1.9828341 -7.1547446 -0.051212646 6.159694 -5.1539903 5.4758625
定 4.241322 -4.0986614 -16.09013 -8.964779 16.641964 4.3534284 6.329327 -4.9296145 5.793018 8.939024 -0.44294268 5.144796 5.589631 6.07794 -8.600002 0.12368924 3.8818057 -0.79248846 25.681921 -3.4929738 -1.2053201 5.136428 3.6605663 4.591117 1.949037 -6.2439394 16.00394 11.280842 -4.231986 -11.464673 12.051779 -8.949991 -13.987797 0.31714237 -13.074202 9.434852 -8.507035 13.21907 3.3093958 16.169008 -11.445181 6.528066 0.87900805 10.525871 -0.45285106 0.7193001 18.390692 -0.010452491 10.405181 8.021025 0.38084802 0.29918543 7.638918 -4.356125 4.3915596 19.375435 16.019794 -4.583571 -5.2796593 -7.6504974 2.2671263 4.3281217 -3.5753984 -2.597816
p 1.6682833 -11.25172 1.9760844 0.5258612 2.208749 9.051737 5.506812 4.4923253 0.7456142 3.2287333 5.4329314 -3.4825835 -7.179265 -17.181204 -5.438137 -7.96524 8.373761 -6.799766 4.1009645 -14.228162 -4.172358 4.9252934 5.6579337 -0.85362345 -5.0072036 -2.0618567 -7.6386805 2.1009626 -6.602264 8.344526 -3.6537645 -2.6404502 -12.032503 -2.7578292 -0.6585963 11.68514 5.331809 1.4992372 -3.4413085 6.02133 3.010708 -1.6037412 -5.998249 0.44565505 7.2705975 7.8994765 9.230849 -8.980084 5.106728 0.56330776 -8.696534 -4.081844 -0.03768649 -0.029234674 -3.9582992 -7.6757836 -3.332399 0.37574455 -2.0844028 2.5142798 3.6989806 -1.5266643 -11.58289 -4.9582844
